svm_type c_svc
kernel_type linear
nr_class 56
total_sv 56
rho 1.8409827213822858 -1.2386008052388016 -1.1103379674131888 -0.7863861336134624 -0.7234522532161665 -0.8382788391420379 -1.0906446530152074 -1.1437414785273554 -0.12059960311478285 -0.1864889243185769 -0.22147738866746902 -0.31351741319613463 -0.31198338640976725 -0.3794744765959906 -0.3691359708222873 -0.4125219854543201 -0.479837960424729 -0.48552870629198236 -0.5072480254521261 -0.5201583772238744 -0.5534984356526342 -0.5581358402677629 -0.6049426984067166 -0.6292767410063302 -0.6389227444316721 -0.6628907974581775 -0.6541243237843088 -0.6899845919500878 -0.7145527578935869 -0.7344866293921566 -0.7371417254881207 -0.7427312078688402 -0.7566210543293939 -1.165714185994061 -1.18974432667273 -1.1845867251154405 -1.1865349777780954 -1.2129242205396258 -1.228167244689877 -1.286539500696783 -1.3000753088455976 -1.3479973119564903 -1.3887718193454517 -1.4136710723120443 -1.5138164944911177 -2.207100334120566 -2.574642810097382 -2.164833847207948 -2.7287357949061137 -3.0357490832432825 -1.0448665586684953 -1.0637178212998148 -1.0482786711338883 -1.0087536729781386 -0.9597681361901276 -1.2340720840986672 -1.123134335723182 -0.7957840850415786 -0.7362766468800639 -0.847872863672745 -1.0903934021140067 -1.1356716646110043 -0.1497972395136793 -0.21545396540315725 -0.249200309277208 -0.33855316857226586 -0.33751127198431075 -0.4019687373858161 -0.3919133990643163 -0.43426195483992597 -0.49892951113603234 -0.5045758549171343 -0.5249260144812704 -0.5377653091226196 -0.5715541300568174 -0.5755658884151158 -0.6205844670364784 -0.6441399491550319 -0.6513131006502427 -0.6737750683932789 -0.6655776959270359 -0.6993368629689324 -0.7244688229957691 -0.7439288274482101 -0.7469530047875981 -0.7520423125109577 -0.7651726621390411 -1.1506329388429295 -1.1676133843375078 -1.1648672660945296 -1.166655382921937 -1.1879376066272709 -1.201950007141837 -1.2441845441746135 -1.2561577830761443 -1.2947308133807027 -1.3266538524745706 -1.3521146766728616 -1.4264623896159168 -1.9159907330506618 -2.105117259099826 -1.9234351405671966 -2.3951094879231034 -2.4597767476453356 -1.0516169512606202 -1.066592575015243 -1.0509601922955265 -1.014149750193707 -0.9593465851362226 -4.864169563754622 -0.8368990787849688 -0.7236200746943049 -0.9500502234492383 -1.3763166608691606 -1.4316331110427865 0.29619898100217934 0.21947213284431744 0.17561422234492324 0.04137000873826979 0.041901854870940114 -0.06725771388417506 -0.049410691687901964 -0.12929223176248966 -0.2565295113162325 -0.2725306372375049 -0.31555429197495327 -0.3388541180746627 -0.41427262292280326 -0.42161732714630495 -0.5179716941134247 -0.5682590246972432 -0.585444233718116 -0.6294237716528893 -0.6157804650811977 -0.6760188440585257 -0.7166280932337061 -0.7504404717495481 -0.7523777161720594 -0.7646610843391004 -0.7885043947850434 -1.2287446415963619 -1.2329469025103306 -1.22624322646669 -1.1997460976946825 -1.1585314027942961 -1.0819949301683651 -1.0360905639925686 -0.9862388294238744 -0.7703099460124574 -0.6723006087737025 -0.5978436714346187 -0.45477204212539357 0.28908328183972576 0.48340305634463476 0.29738137440417756 0.4549724622828286 0.5861562886671501 -1.2863961681026346 -1.253193654829086 -1.2554547825104494 -1.1214404140166299 -1.076140582416339 -0.8458377520398248 -0.6978890436768548 -0.9365501280212201 -1.3667034987407414 -1.4087903640948551 0.3600684201118505 0.28379371972641254 0.23964162047962162 0.10159863484270731 0.10370099328665927 -0.011310231921863478 0.007529860414459577 -0.07680975574132531 -0.21540199172020985 -0.2321439167794907 -0.2793541630429362 -0.3037389097039177 -0.386829958483402 -0.39440481474282924 -0.49971978103820647 -0.5550723280647389 -0.5739295894811711 -0.6223640025950252 -0.6077482493744456 -0.6735113294427747 -0.7166463105167444 -0.7524917752791511 -0.7541562086783542 -0.7678298670224138 -0.7934909678744283 -1.1559349545115858 -1.151225632086123 -1.1408854181358756 -1.1099809241715166 -1.0480841060896917 -0.9573095955970328 -0.8797043022350772 -0.8240241919309872 -0.6077713240941107 -0.5056064777274034 -0.4322988691647096 -0.29024498109767016 0.35716414299888166 0.5146350574245948 0.3661842926655343 0.49148325395164005 0.5925800514160213 -1.2668172629681624 -1.2102602870550676 -1.2258580330759994 -1.0735183311837808 -1.0405575973936916 1.849482590673997 1.030425012772537 -0.23439439523679306 -0.284120855549427 1.0317227570243697 0.99461422548469 1.017460279544021 0.983849093041853 1.006588362073412 0.9744331390020029 0.9740083050236332 0.9707280650854071 0.8888140828813138 0.8984984775367508 0.8786385380841524 0.8826263925538811 0.8350826692463325 0.8905129478779683 0.665991700359414 0.6201343320773525 0.5061704931449205 0.3427866957691492 0.4573231219117737 -0.061034095428128765 -0.4195636028680738 -0.876596774548414 -1.0841303848802504 -1.2964812642755739 -2.2026393685249133 -0.16195093918517078 -0.12710870613021674 -0.09797866268911748 -0.07769627252393052 0.040655459473026845 0.11986177990228808 0.20648888981841962 0.2326621638248736 0.28686078149219757 0.31683685795793975 0.3442181466487746 0.4029473321873848 0.5919826778135806 0.6332689516043912 0.6012858397944023 0.627208363465029 0.6488824116257323 0.01330452757271372 0.2542808660339193 0.024793642808602634 0.3025678649387382 0.18492700840169318 -1.942584894689798 -1.586563372351359 -1.3637256093472359 0.6223062164294488 0.5641885678083871 0.5366998530479847 0.429015255100673 0.4405028096778803 0.3319792552253773 0.35014715150180187 0.2730076002068923 0.10627129746788189 0.09260962242122428 0.026700988776954704 -0.005351071672712093 -0.14789533982121172 -0.1532771929985648 -0.3743137218855259 -0.5187965209413672 -0.5726671050912608 -0.7005217257787848 -0.6667985265360974 -0.8821368794551736 -1.030488740385437 -1.1897627629532246 -1.212753417584194 -1.315583221600547 -1.4533787025267935 -0.9013939932558444 -0.8194976669747311 -0.7881810837625618 -0.7452152892255246 -0.5526963182277616 -0.42011015819521647 -0.25205388270309337 -0.2042083127672003 -0.06572179671546574 0.003922242435477896 0.0485542715401035 0.14339242084455578 0.43813023233910503 0.49928256981184976 0.4478682545947623 0.48954925206913386 0.5236482362551125 -1.016449781959686 -0.6678553372279423 -0.9586174582665885 -0.575790363517088 -0.6851567634342186 -2.2349600711946493 -1.762358639274245 0.6485557769811207 0.5962322274562374 0.5727611859365642 0.47424846288341066 0.4826713598965051 0.38269415257387396 0.40005878922328847 0.3329774952425473 0.19631464598616344 0.18714016057181704 0.13705178335480372 0.11477778123389082 0.013878245572684023 0.013875165091022268 -0.14577741577092262 -0.23886859927226345 -0.28334789555019557 -0.372750199037146 -0.34464578856518835 -0.5095378827131631 -0.6151454586677896 -0.7273862660873489 -0.7698914078434682 -0.7999029810938434 -0.912822893714742 -1.0253161531543094 -0.9160057210993324 -0.8731632938709954 -0.8164954604107395 -0.5483826689991829 -0.36742066234900816 -0.14720006077634418 -0.08733177709627782 0.06786827178389343 0.14201385483079942 0.1923627328598989 0.2977641609680337 0.5925826339289065 0.6480861314031185 0.6087019085769145 0.6331553085404975 0.6656445117858814 -0.9414112718916079 -0.509270867913096 -0.8745778775607325 -0.40163799114913745 -0.5381030271282685 -3.180110855947376 0.7455734163670971 0.7101945381388366 0.6963674712467937 0.6357044628561201 0.643553837652256 0.5863787911182106 0.5939501447418709 0.558174679966747 0.47972903498524777 0.4771864932520777 0.45639837074565215 0.44493975843609834 0.39183787192352326 0.40517707070284736 0.31530298268144774 0.28085508964315675 0.25218983542046436 0.20706721203797085 0.23029352032887718 0.1277795322051627 0.0784817722261324 0.03873661791472305 0.004269087568710361 0.0336860308313045 -0.0042427289590447614 -0.13047422104942719 0.015189492617606604 0.17424874101931564 0.26088654341786643 0.6690611338905459 0.8435280502303169 0.9406150257418049 0.9805857139672329 0.9462924721326944 0.9173617542898533 0.9477413670190273 0.9848084726270885 1.046849945364933 1.0572378743105757 1.073282373816964 1.0448325204393303 1.05339342141133 0.3705140117696173 0.6326489334071899 0.39018586029069624 0.6205825693826239 0.5233464713858496 0.7335368370235864 0.6982242441690386 0.6831927188559523 0.6231235233303793 0.6310658008667107 0.5767355750735959 0.5835546075038914 0.549381254888116 0.47783542127098316 0.47512028264085254 0.4570104255822383 0.44590486980862737 0.3972610839001255 0.4104463052011639 0.3317461238271191 0.3024829839847052 0.27815237539996573 0.23949786442550702 0.2598223291435382 0.1726722056017056 0.13304636840898176 0.10385488277689725 0.07524734791080334 0.1019194592442334 0.07429304580585061 0.46755276156264003 0.5666420754948973 0.8448536057159419 0.9083224320871484 1.3019927951751953 1.3615417910386824 1.3660066064361391 1.3828970762932524 1.2397469408526294 1.1603427237660269 1.1715772100793074 1.1845329394400146 1.1543254228644242 1.1519645872990394 1.178846775604094 1.1410083392347856 1.1453852893953163 0.46966150164081455 0.7023247488881332 0.49671125991960796 0.677587903055402 0.6088533519091786 -3.3120974805502605 -3.031956731813654 -2.6662559224186264 -2.4293041382464438 -2.0599639103855205 -2.1845043701166573 -1.7678420532338759 -1.484127523812395 -1.4602331995009215 -1.3868103168349788 -1.4101696591077626 -1.342931173967619 -1.3203619942852223 -1.2568151572888688 -1.2254854682483376 -1.2215741223108392 -1.217098067418809 -1.1945394775210025 -1.1997461552226136 -1.1715850396587892 -1.140609125177213 -1.147971223131909 -1.1279592741680058 -1.1104785768070378 -0.6359737511691734 -0.6229244655186756 -0.6170174106044009 -0.6091879398344293 -0.5742618591449651 -0.5372639180880774 -0.4983746895788776 -0.485361869241405 -0.43465865359946626 -0.40617910730828427 -0.38633771193568084 -0.34084197496420243 -0.1467145575322119 -0.1017441003999709 -0.1461961002313102 -0.11204780225752464 -0.07493225586078861 -0.8843038150976301 -0.8246702884262314 -0.8655929548612469 -0.8677652575069557 -0.8595452945027375 -2.279468766890581 -3.279848613911563 -3.301438962081477 -2.340352374202043 -2.555702689318089 -1.8827097539282538 -1.520988556900247 -1.4944478128789491 -1.4064947385552165 -1.4403396711418741 -1.3625591426612942 -1.3324830361889528 -1.2616027554386688 -1.2261007386451788 -1.2245091288792622 -1.220503936130283 -1.192426658267882 -1.203075137457751 -1.1695544307028376 -1.1303842140592706 -1.1420238059853007 -1.1141393354253604 -1.093736266688672 -0.6025615445277389 -0.5884497462758799 -0.5811609673016453 -0.5726678469865925 -0.531429264537748 -0.49244690491023396 -0.4496965410916889 -0.4352481232957712 -0.3816133321927662 -0.35207187420729336 -0.33215258846589774 -0.28347304706846593 -0.08217513349526262 -0.03617717834896628 -0.0817427540778059 -0.046688561653912664 -0.009096379009714384 -0.847178780890152 -0.7771581412015203 -0.8291211042560356 -0.8187652649154602 -0.820330091079436 -6.384621780037964 -4.154811036819435 -2.6517994967972474 -3.0780145927128544 -2.078742534376592 -1.5904715197045527 -1.5622959250057313 -1.465771327768274 -1.4891104215302193 -1.386919951814265 -1.362667608481202 -1.2824744275325421 -1.2484441312518346 -1.2471718010042596 -1.2385027034328926 -1.2166627529944825 -1.2200894566303424 -1.1886330416732733 -1.1525869644527482 -1.1617613911016642 -1.137174179295653 -1.117112493229866 -0.5863290275502615 -0.5704425210209674 -0.5630025313643683 -0.554405052941839 -0.5106536442957921 -0.4695281199022329 -0.42507380566390135 -0.4097687445592521 -0.3541618639950989 -0.3240333043149698 -0.303118777973969 -0.2534999613530837 -0.047996160728268344 -0.0014256123997946624 -0.04748311745833045 -0.012034895309752436 0.025673168495103538 -0.8568827328543274 -0.7831734634135222 -0.8357204041675408 -0.8249705395906556 -0.8254116429108929 -0.008363895411733324 -2.912070976635679 -3.671868273783897 -2.2264954676680198 -1.6674091887102898 -1.634750697485543 -1.52364726481242 -1.561913791253874 -1.4193355593033619 -1.3906439723292 -1.3005678414736694 -1.2627175518283555 -1.2656898045852967 -1.2572435441288596 -1.2272033090695267 -1.2369133120569278 -1.1991357640256615 -1.1562085416105807 -1.1665199620331184 -1.1375182253141158 -1.1151814846175556 -0.5255089125778173 -0.5069655791558576 -0.4983683916195232 -0.48933335398198263 -0.4381287436450876 -0.39396744184641724 -0.3442038922996554 -0.32765840001445007 -0.26970029240834503 -0.2378469981117179 -0.21574200727268256 -0.1635854918750056 0.04892275306885696 0.09590611663515536 0.04966202497806399 0.08511885305952233 0.12201570065823658 -0.7793727096907294 -0.6822506566017776 -0.7574046316142155 -0.7212932725607226 -0.72932365710602 -4.091632040398416 -5.744501929590996 -3.0046246450880183 -2.0013115677072832 -1.9419396536960285 -1.7472302988778408 -1.800188950832676 -1.5891708125904667 -1.5484903700424026 -1.413464606562313 -1.355168254171038 -1.3535772737353424 -1.3417540256049934 -1.30409682856622 -1.3072239431445558 -1.2599509214950362 -1.2062927141738693 -1.2174302641483916 -1.1845291099619069 -1.1561491767629515 -0.5326256568235201 -0.5146015453205478 -0.5050306546291986 -0.49527670050140343 -0.44267077550157763 -0.3981067884317274 -0.346549589673077 -0.3293285781768298 -0.269875048948999 -0.2373144311018005 -0.21482504461690993 -0.1627885498759178 0.048758554061669734 0.09549822743203762 0.04950888537912429 0.08474766324865807 0.1214408982890694 -0.7899628140117737 -0.6898893745389796 -0.7706316413161175 -0.7311375177682775 -0.7435559338888327 7.460921843687402 -4.718852133829557 -2.4541739740441955 -2.347559932970828 -2.002189221929884 -2.0914114819240286 -1.703693648546996 -1.6605396434565773 -1.4774545566872503 -1.4023322987881301 -1.4062233647063087 -1.391023001897955 -1.3416679454012002 -1.349515001687374 -1.293360233024544 -1.2318781380308061 -1.2419760156243094 -1.203399541970511 -1.1728999202968073 -0.4788599682855742 -0.4575714250566562 -0.44788342733184716 -0.4376288925738745 -0.3808357436651064 -0.33414298604688225 -0.27994145233873724 -0.26205373282718725 -0.2022490666164703 -0.1687274323104207 -0.14533880863169862 -0.0918227889246771 0.12319497288573344 0.16965492665429233 0.12420357894239181 0.1588142197075828 0.19453422082408478 -0.6943389484026 -0.5802051226124675 -0.6804966607265946 -0.6121215703701515 -0.6376980544689261 -4.002697437434435 -2.2160583834995533 -2.129980936542128 -1.8550812392774247 -1.942264714888327 -1.6315904426652392 -1.5867803283453368 -1.4293408873022226 -1.366925523444145 -1.3702912639082852 -1.359815056582665 -1.3119668518545662 -1.3230027568666005 -1.270055364573633 -1.2123682474068436 -1.2215309070807467 -1.1876300503376804 -1.1584733649499594 -0.48621351860378625 -0.4657009441198557 -0.45604127817716655 -0.4460945060166579 -0.39018961821550174 -0.34393387758855154 -0.29026565945851446 -0.2725010888986937 -0.21293621566154608 -0.17970375718992787 -0.15654192940067174 -0.10340970808795569 0.11115957281936134 0.15785518731373915 0.11207390150418411 0.14690786557404062 0.18283063798996196 -0.7131787862030424 -0.6022148860079494 -0.6961364407386672 -0.6355893918690212 -0.6577121408672141 -3.2629794154906584 -3.3321337827326936 -2.53576740079753 -2.629203361863075 -1.9010190800429685 -1.8498384460987385 -1.5844800116184206 -1.4875291780481747 -1.488239691682455 -1.458819100901097 -1.4111973720648199 -1.4004986494909621 -1.3394517078161834 -1.2688923062059192 -1.2793403526377272 -1.2362867324535773 -1.200566891520497 -0.45179864222815413 -0.42988712826132863 -0.4189762038854039 -0.408507017428884 -0.34827650618677963 -0.30052063541148333 -0.24338903709129195 -0.22463130415101157 -0.16382710536391515 -0.12924616348156548 -0.10527698728005697 -0.05152318374660614 0.16249027867061672 0.20822036422825008 0.163600940146508 0.19750806085251144 0.23228886044306363 -0.6516035518355955 -0.5286349572800926 -0.6376439182822383 -0.5545870506318906 -0.5880865094665573 -1.6911759992307367 -3.391007913953281 -2.7592480474662473 -1.965906194071625 -2.0676074682796806 -1.7554542123728742 -1.5964727883408116 -1.6225068437645151 -1.56573646928332 -1.4897957470456733 -1.4815940873421765 -1.4073186707719034 -1.3142399750507936 -1.328397820577725 -1.2581791532451472 -1.2102956360494765 -0.384369171329603 -0.36089467617495036 -0.3473859237478456 -0.33633702831902035 -0.2696385898281641 -0.21935885747982664 -0.15915783610727607 -0.13984492171756657 -0.07970704435323572 -0.04496043528677485 -0.020703568996818522 0.03429465123906472 0.24506283750855312 0.28850826307644023 0.24652440449841007 0.27843041316123684 0.310744058466305 -0.5124221457933312 -0.3793417440625927 -0.5068258525777088 -0.39054262804933737 -0.4373763182947974 -5.78652416861064 -5.232185103776914 -2.354015438786565 -2.415054628419261 -1.9081306405935399 -1.722070754325915 -1.731768242111423 -1.6535562583736167 -1.5784885319839388 -1.5467759036421338 -1.458206785147309 -1.3568553576101792 -1.367944528006864 -1.294825792153817 -1.2426470104932041 -0.3809103543650466 -0.35733121292128806 -0.3437545153724568 -0.3327146194621471 -0.2651094868099625 -0.21454098708458258 -0.15287161261599969 -0.13331575549082664 -0.07292766015735169 -0.03780069748220133 -0.013487547535119604 0.0415534469443285 0.251573261285757 0.2947918459672393 0.2531668779716293 0.2850851632231281 0.31703697340237896 -0.510919045056948 -0.3726752282823462 -0.5033812495432313 -0.38452523263717975 -0.42936035576679177 -3.165697207314338 -2.2169905056303847 -2.554266864727989 -2.1005773052777688 -1.8811768594640323 -1.908173923175192 -1.784902750694239 -1.707535829656611 -1.659179614890578 -1.548056371050464 -1.4278779541955111 -1.4386747977098278 -1.3428223142267504 -1.280022092472779 -0.3627911634045043 -0.33786012339314897 -0.3232304607566114 -0.3118256396426994 -0.23987321639109432 -0.18725406500799674 -0.12384232109085341 -0.10406687093840616 -0.04418164864369867 -0.00901729144987462 0.015425806372977136 0.07109680502539656 0.2787494041473719 0.3208061988266995 0.28054748084380543 0.3117402181578916 0.3424043710470606 -0.4641018320471706 -0.3203793877353429 -0.4573729719096684 -0.32671370010009393 -0.37719454095261185 -3.0394587696283253 -3.2645032078481933 -2.424242261045647 -2.1307460837737544 -2.1263131607425283 -1.9728621863473732 -1.8520575761436486 -1.7878135853010226 -1.6381331804658403 -1.4934538918167704 -1.495312173197377 -1.4014046840060899 -1.3318413684020194 -0.3519238873410906 -0.3270608929643317 -0.31224333755418276 -0.3008050173638875 -0.2283556582421754 -0.17556922183135037 -0.11074822201430656 -0.09084364395457017 -0.030976875415199112 0.004244707558805905 0.028682100096155683 0.08450914617947874 0.29236516063656703 0.3345712053223755 0.2942486212069059 0.325751599945857 0.3560239848628402 -0.4547178010839221 -0.3043404399474914 -0.4461517174193754 -0.3109869594262282 -0.3611263268304905 -0.0655974338412193 -4.204353732642424 -3.346391679824986 -3.011402424025958 -2.5529887354443215 -2.378028046345497 -2.1066515201598186 -1.827676576022971 -1.6119323149536902 -1.6051246232630092 -1.4887775492594058 -1.401733946272087 -0.3064049386675412 -0.280893760692007 -0.2646474531859554 -0.25252886131349767 -0.1766619265759375 -0.12291886931377999 -0.05697560243848748 -0.03719211956004953 0.0205871604661646 0.054544675551546185 0.07850692182667934 0.13368432994076784 0.33471878087783746 0.375648984531212 0.3369834721290928 0.3675435245736703 0.3957675464464533 -0.37808354375460507 -0.21559822130509465 -0.36869596098799207 -0.2128939408878887 -0.270347631908588 -5.998115446360025 -4.111392143985324 -3.7146388972130637 -2.9654441788533923 -2.760156769429962 -2.3859777148747474 -2.0551920017615526 -1.7888147216260881 -1.7724104269025505 -1.631020426307483 -1.5204922601946742 -0.3154251057401623 -0.28873698975580303 -0.2720487954831315 -0.2595477106481478 -0.1813089939219349 -0.1258115471556373 -0.05826427242159482 -0.03797060338545988 0.021258635274454818 0.05612098860608472 0.08068709441892885 0.13704600002707013 0.3391298641246246 0.379711803439925 0.34147583532949927 0.37186802688298953 0.39995299375495114 -0.38373191930106487 -0.2195677365103228 -0.3757583710991068 -0.21555110329211846 -0.27655244123447487 -4.834929138265338 -4.672965332539803 -3.2909210888094584 -2.8436891633337247 -2.4782521821432315 -2.0970287751613377 -1.760903941612181 -1.749189622701242 -1.5405813911383817 -1.42185884850461 -0.24610784593363283 -0.220493064497446 -0.2023089874228654 -0.18926188665244986 -0.10840984114852953 -0.052084618835872565 0.015557563502769045 0.035569375515331014 0.09129836574435857 0.12462374931376491 0.14899102395954056 0.2050336508599544 0.3978095399895527 0.43631170219640136 0.40084728379535983 0.4293197614386969 0.4550684744505394 -0.24822179155532398 -0.0846001026221268 -0.2403193995460975 -0.06363309361030445 -0.13293678889449456 -6.948021203231917 -5.226639109977583 -3.86399561555325 -3.492352469188102 -2.7521976231871683 -2.2282951546500573 -2.0918414534035463 -1.8738304261441723 -1.687343860075993 -0.21777917877280994 -0.19186881559564994 -0.1725828783603796 -0.15908013937282228 -0.07503980705067725 -0.016991697592329158 0.051645942475486095 0.07185300431493696 0.12642560280734094 0.1584956994056299 0.1829008584326124 0.23867560624584738 0.4272622809087474 0.4656724746554232 0.43080429892813704 0.45966026456645726 0.4834362047281145 -0.1908802438491881 -0.022060194387231613 -0.1803776849658003 0.008201190108802603 -0.06740862914956569 -6.341079503176701 -3.4333135284544483 -4.0442061619844125 -2.9402375507644294 -2.242363041481614 -2.1276044404588887 -1.8070260243727923 -1.6178624032400908 -0.19748051293184943 -0.17206078316968398 -0.1524285832723491 -0.1388153088878012 -0.054431835727755784 0.0036296533786254748 0.07179229867500259 0.09189096006256486 0.14518648199636314 0.17666202990341084 0.20119437723697553 0.2565274046602989 0.4411592543750784 0.4789343668493592 0.4448942778161263 0.47240957543252626 0.4959456129531914 -0.1478327512738955 0.015121526014136633 -0.1385817966940679 0.04873457838962114 -0.027402212760567313 4.6176240820790895 -6.822622209887797 -4.051612330105712 -2.6693926349201504 -2.426316813602959 -2.0022482901600505 -1.7432553853723007 -0.1636432772421923 -0.1390756786816325 -0.11878850636532168 -0.10493008770608303 -0.019931926072081996 0.038367334165261724 0.10588526528858105 0.12598019917385544 0.17719423973472137 0.20757422133301684 0.2320887322658013 0.2870334283778458 0.4691432010279496 0.5068346800874448 0.47317442507168955 0.5005629159258103 0.5226933977698267 -0.08444333956166461 0.07728741662713134 -0.07494511914190127 0.11697469288413975 0.03781792784971638 -6.746948700762246 -4.347419798068181 -2.853636264811392 -2.715303823691059 -2.1695750568449963 -1.904529111598924 -0.1801846650200729 -0.15470875202209022 -0.1343982733307746 -0.12045640179989248 -0.03429612922952413 0.024491140826484847 0.09262953119146977 0.1128503914942644 0.16493872335076776 0.195841347061657 0.2203212518087524 0.27510872136583625 0.4585707284006795 0.49628178292490227 0.4628162924926844 0.48999751721540014 0.5127464101626853 -0.11114791068865193 0.05243157518062591 -0.10157244201704696 0.08963200915924019 0.01168338189069873 -5.568671528044291 -2.855609677549211 -2.7473385296075676 -1.8623664322374083 -1.632819733388203 -0.10644326334464993 -0.08370305077492612 -0.06237005901679549 -0.048162398547829666 0.03682245876398349 0.09450262380348645 0.16003712506743156 0.17996293628030685 0.22752984471429266 0.2556112417242904 0.2798661539004109 0.3325123139340814 0.5053580879545703 0.5420045065319785 0.5103047978285589 0.5364435551657601 0.5570328016178314 0.021952641870125467 0.17433697172741014 0.028931272819346487 0.2200655315606579 0.14052184417273006 -3.7800753286273903 -4.036486051255309 -1.7686792028844849 -1.5353769949882832 -0.07144403602249727 -0.0496367918434677 -0.02721336951840403 -0.01241829685882001 0.07382411431289193 0.13233257696906697 0.1974565923477311 0.2177258735346121 0.26315711720704466 0.28996520204877063 0.31448154996476385 0.36626500104069415 0.53518022946745 0.5712060136121022 0.5412589082749169 0.5675557860485339 0.5864195230301646 0.08875960842036412 0.23919969215357262 0.09395495622563188 0.2876176018463976 0.20621279617655297 -2.656545947746622 -0.622680649994237 -1.564791396085397 -0.04417353122332712 -0.022617958564782326 0.001333525019211912 0.017017536994906157 0.10635021515907428 0.16672900999153328 0.23237005649577414 0.25307770355480796 0.29763468225502143 0.32282707172847175 0.3475363340401331 0.3981618280036149 0.5607960014363944 0.5968383735516518 0.5679548433339874 0.5944701875499376 0.6124641673698152 0.14733044477972124 0.3012795594978337 0.15055146720555967 0.3496730558398071 0.2653950775289826 1.567354897113617 -0.23870284727252766 -0.02069943560738352 -3.126189531315049E-4 0.024004749654956026 0.039821512507958845 0.1284044437914662 0.1881134379825582 0.2517720203745627 0.2727127970455133 0.3148269619210587 0.33874362869706337 0.3630928399730565 0.411296709996888 0.5689608446462588 0.6029337125719899 0.5766416857694617 0.6008196741768803 0.618482581698843 0.1822508180962168 0.32622862640499406 0.18549881672537638 0.3774041858384558 0.29813643683673896 -3.7016567517431156 -0.0406573279939908 -0.018768612131881968 0.005807766861053221 0.021871840113316 0.1130879688869404 0.17477296946670995 0.24137530933398332 0.2626998671113158 0.3062854420087706 0.33081871083732434 0.3555161320318306 0.4061323374013963 0.570118922323164 0.6070602209718807 0.5775446258966369 0.6045908415136914 0.6224881769969122 0.16547474704816967 0.3252556215545508 0.16775082837258326 0.37876086942348497 0.29178821901567 -0.01610372624698675 0.0051779624546286485 0.03094406826569851 0.04766387280154971 0.14062314391333808 0.20322957236468708 0.26948337487264407 0.29141361225732165 0.33323532846558235 0.35614757354959575 0.38031425387547135 0.4293371471409647 0.5875007758806823 0.6238786161800439 0.5954317913356216 0.621666219314927 0.6393315319366146 0.21665543756329608 0.37650085792301113 0.21766368145928627 0.42811146180317516 0.3407479282714796 1.8574411503988983 5.5297869593285895 5.1715103439747026 2.97849405085784 2.3242022956768853 1.9658495087058157 1.9379849929827273 1.567855992587218 1.3909548157505807 1.3745883435379849 1.3729450334910436 1.2355827865241482 1.2202890015813295 1.2526134608907982 1.211912233939942 1.2030931035973542 0.2764861179103435 0.4958742797276061 0.3012059121858428 0.4920192615098662 0.4210934456519482 8.780073260073266 7.698843796073561 4.312375512044795 2.8888233108181964 2.3805932597937405 2.29999099080369 1.7610624110667255 1.521829918943432 1.4806694482098948 1.4718511558660257 1.2791317328064042 1.258584996252812 1.294917638528308 1.2492300988551337 1.2443199644968388 0.22376057510794922 0.4442920841219373 0.24402559490563114 0.4392046133016376 0.36895940323389587 6.465525752838516 4.538228252194735 2.880259575854037 2.332257359941444 2.261423075736678 1.7255930548592238 1.4917996694898301 1.4581923687391094 1.4507716178183607 1.268085179681273 1.2488999390735485 1.2848768626615323 1.2396773165081758 1.233517751544317 0.17749025726256518 0.4040909487019868 0.19632117287414141 0.4032519368059302 0.3299792754784501 4.538162354379274 2.886096623292829 2.3216287269306175 2.2579318530607697 1.744184237287194 1.500205025575716 1.4689839159946572 1.4614857215318555 1.2730892197134804 1.2534998212519317 1.2900743976981328 1.2440758878273053 1.2368759800325118 0.14220506925651755 0.36773511552667815 0.15849487382611605 0.3712578663428334 0.29431875537665997 4.8919076678163975 3.536751204590864 3.312220050284342 2.1519455805849717 1.6828794764144321 1.6021478333918409 1.5876000572416773 1.3216324503273533 1.2953473012158323 1.3382892972541003 1.2841270713328798 1.2786942372162136 -0.06225268311239818 0.17326960341711883 -0.054319582485797824 0.1939291569187449 0.10288462874948179 4.1201435829664845 3.9120935520545714 2.465754611622444 1.743819169665489 1.6495821902547823 1.6342275956598442 1.3415747563681861 1.3148129910164967 1.3634271926007577 1.2997312893984625 1.2970072757681255 -0.2127899391410204 0.013986799619170487 -0.21263839246327265 0.053635846532856135 -0.047985802871393535 7.086396133319909 3.2121735955408752 2.157980502961758 1.9068006537374451 1.9720561300684718 1.4655468170220391 1.4249753861806222 1.4870445527933984 1.3934677049432609 1.403919090057722 -0.38070585421127445 -0.18687176204111866 -0.3945985815040487 -0.12520235906127075 -0.2311574996993162 3.4824878978055267 2.2209218001541426 2.021613714820667 2.096245999740254 1.5046781087057672 1.4540061534517021 1.527634802394001 1.4247840584287113 1.4297627666161357 -0.42769631031220423 -0.24452120445196623 -0.4438771254554186 -0.17801658523410846 -0.281919140568196 3.2572663884237585 2.9327107025188646 2.869898230437572 1.6125655461529131 1.5396327441359765 1.6475318733673125 1.5026965305929165 1.5163353645829412 -0.5090456645025323 -0.3713822029995497 -0.5306667822217968 -0.30391011531845025 -0.3879849582558972 6.145449602392432 4.786543463267492 1.7336029514355222 1.6317111912201876 1.7855242430571687 1.5759766116286906 1.6060784474470673 -0.5474049245036674 -0.43109700457350364 -0.5733769554796939 -0.36988960815102123 -0.4378498083353215 5.840232314126531 1.7930486323347554 1.6709774417159653 1.8693333091433573 1.6131388291279012 1.642935370583046 -0.5899391227047672 -0.48342844892762815 -0.6166572858636383 -0.4208565700747222 -0.483263821855239 2.2212081595532283 1.9797652585971264 2.271871074625838 1.8490535740162688 1.885821876825069 -0.6976360144631877 -0.6083219221583847 -0.7272040697358475 -0.5495447050230757 -0.5850359187987615 6.01300904977375 0.22708479600592568 2.001677386655725 3.0646485377116477 -0.9745143533246652 -0.9414751798198285 -0.9945101561008869 -0.9014785732692628 -0.8513186097216338 -4.140927670161716 -1.4439227799227865 3.083215834419647 -1.012969911534281 -0.9917473268724845 -1.0242873644435218 -0.9521404843388961 -0.888392687729128 1.7214780698047853 2.9856039905371468 -0.9942993856898491 -0.9664009063416644 -1.0171006322262022 -0.9182750555566355 -0.8723398167328827 4.351974740447396 -0.9931716186078756 -0.968636549071383 -0.998272676285084 -0.9254614623821378 -0.8628702097124238 -0.9999686808500321 -0.9882605333501117 -1.0095556119525466 -0.9439625364885305 -0.886246563110705 2.552886531989653 0.2886688770896484 3.3415951344534385 0.8347301061131915 -2.3040830098065825 0.5316403829625607 -0.41487170195269485 4.467466576217532 1.126525087179857 -0.8545575083455823
label 0 1 2 3 4 5 6 7 8 9 10 11 12 13 14 15 16 17 18 19 20 21 22 23 24 25 26 27 28 29 30 31 32 33 34 35 36 37 38 39 40 41 42 43 44 45 46 47 48 49 50 51 52 53 54 55
nr_sv 1 1 1 1 1 1 1 1 1 1 1 1 1 1 1 1 1 1 1 1 1 1 1 1 1 1 1 1 1 1 1 1 1 1 1 1 1 1 1 1 1 1 1 1 1 1 1 1 1 1 1 1 1 1 1 1
SV
4.499640028797696E-5 1.7589314139873744E-6 1.3663806148849406E-6 3.3669353481074456E-7 5.066025510478061E-7 5.074655798783808E-7 4.198941656755415E-7 4.1900295732287277E-7 6.178163405008267E-7 5.759884249366125E-7 5.570700122806085E-7 4.992673252002686E-7 4.966990622073356E-7 4.550498359204054E-7 4.622578058008732E-7 4.3024372446503493E-7 3.8272845970740026E-7 3.792864105471965E-7 3.6577555207418515E-7 3.622203455183654E-7 3.400385535712039E-7 3.427583305269995E-7 3.20725352457117E-7 3.1352394962422585E-7 3.0797208848962017E-7 3.033273340242119E-7 3.05513386221774E-7 2.9267831536117747E-7 2.9058063968712603E-7 2.897583183818041E-7 2.845396248458862E-7 2.917670345265438E-7 2.906169944099821E-7 4.4179846435271774E-7 4.591092087665985E-7 4.679395871275435E-7 4.760986571637375E-7 5.397551238953912E-7 5.953887144069184E-7 7.022252464722837E-7 7.379602704329207E-7 8.693543044774354E-7 9.778430542341094E-7 1.0630528539248444E-6 1.337026199696896E-6 4.353362428305562E-6 6.425723456139618E-6 4.2822884549503255E-6 6.4349236174566605E-6 8.857552835302662E-6 4.499298896749414E-7 5.1966611452142E-7 4.538322159605983E-7 5.059634112559151E-7 4.5243484598891624E-7 0:0.0 1:0.0 2:0.0 3:0.0 4:0.0 5:0.0 6:0.0 7:0.0 8:0.0 9:0.0 10:0.0 11:0.0 12:0.0 13:0.0 14:0.0 15:0.0 16:0.0 17:0.0 18:0.0 19:0.0 20:0.0 21:0.0 22:0.0 23:0.0 24:0.0 25:0.0 26:0.0 27:35.0 28:31.0 29:0.0 30:0.0 31:0.0 32:36.0 33:0.0 34:0.0 35:197.0 36:238.0 37:0.0 38:0.0 39:0.0 40:315.0 41:16.0 42:0.0 43:0.0 44:34.0 45:0.0 46:0.0 47:0.0 48:400.0 49:286.0 50:250.0 51:330.0 52:86.0 53:0.0 54:0.0 55:0.0 56:245.0 57:394.0 58:400.0 59:400.0 60:353.0 61:273.0 62:265.0 63:78.0 
-4.499640028797696E-5 1.6562680636735695E-6 1.3158751787122977E-6 3.3485155026222226E-7 5.012227328568042E-7 5.008680042513676E-7 4.1328743914084156E-7 4.0990275876853733E-7 6.344195441822459E-7 5.907930806314397E-7 5.683153399960729E-7 5.06157661025202E-7 5.044804167008242E-7 4.594808004798817E-7 4.668614723970489E-7 4.343818442289331E-7 3.8537984482680547E-7 3.819578394936767E-7 3.6767558071600407E-7 3.641073861914094E-7 3.425215891357632E-7 3.4479899166982874E-7 3.220328257720294E-7 3.145179273646008E-7 3.078728158925179E-7 3.0264186677977404E-7 3.050338206248618E-7 2.9158493176548116E-7 2.897915283213985E-7 2.888215100397245E-7 2.8384407763589675E-7 2.9075168323418216E-7 2.8935444733445235E-7 4.2942405002274873E-7 4.435659866504381E-7 4.52831282309512E-7 4.605610093655081E-7 5.1918330389564E-7 5.71346950435652E-7 6.642724074859515E-7 6.968478436217691E-7 8.135352744827339E-7 9.079493691113809E-7 9.864150913617659E-7 1.215934825893332E-6 3.49696201425012E-6 4.767114537077425E-6 3.5198997532550274E-6 5.1511608140894554E-6 6.411612712945687E-6 4.4499673483645815E-7 5.108594674136794E-7 4.470741345035946E-7 4.984412496021815E-7 4.436789503620864E-7 0:0.0 1:0.0 2:0.0 3:0.0 4:0.0 5:0.0 6:0.0 7:0.0 8:0.0 9:0.0 10:0.0 11:0.0 12:0.0 13:0.0 14:0.0 15:0.0 16:0.0 17:0.0 18:0.0 19:0.0 20:0.0 21:0.0 22:0.0 23:0.0 24:0.0 25:0.0 26:0.0 27:37.0 28:37.0 29:0.0 30:0.0 31:0.0 32:28.0 33:0.0 34:0.0 35:39.0 36:178.0 37:0.0 38:0.0 39:0.0 40:336.0 41:31.0 42:0.0 43:0.0 44:0.0 45:0.0 46:0.0 47:0.0 48:400.0 49:294.0 50:218.0 51:351.0 52:121.0 53:0.0 54:0.0 55:0.0 56:176.0 57:335.0 58:400.0 59:400.0 60:362.0 61:294.0 62:291.0 63:36.0 
-1.7589314139873744E-6 -1.6562680636735695E-6 4.4858136144443195E-5 5.12983088999488E-7 9.996561182953064E-7 1.0024640566512487E-6 7.269600022971936E-7 7.068061902086138E-7 5.819519249514797E-7 5.769418275324717E-7 5.727749197900322E-7 5.427496784208155E-7 5.508726787258205E-7 5.184018397044487E-7 5.23573641418026E-7 5.077611288545416E-7 4.667979458089597E-7 4.7319850961397413E-7 4.6228558616656614E-7 4.630106573478055E-7 4.485537952809449E-7 4.5620323489151827E-7 4.3821910385507917E-7 4.361390009887271E-7 4.27196070821419E-7 4.2493619051929117E-7 4.285514703172395E-7 4.088890015605249E-7 4.0836453068195857E-7 4.0993182833694757E-7 3.988285607513611E-7 4.1524876515398464E-7 4.151506747859068E-7 6.352112188464628E-7 6.53306547764875E-7 6.7106212357609E-7 6.70989178957511E-7 7.508319217693204E-7 7.963920255673695E-7 9.185920739282901E-7 9.325813618951919E-7 9.101069193608865E-7 9.388860305025294E-7 9.55565259851639E-7 1.0624311079828418E-6 1.4660101873047915E-6 1.5927586819284804E-6 1.4970418453136602E-6 1.6241649761816207E-6 1.6216891189525186E-6 7.949994534378757E-7 9.333055208288127E-7 7.818935350305897E-7 8.696366788401308E-7 7.593631373239891E-7 0:0.0 1:0.0 2:0.0 3:305.0 4:268.0 5:0.0 6:0.0 7:0.0 8:245.0 9:17.0 10:0.0 11:210.0 12:328.0 13:18.0 14:0.0 15:0.0 16:383.0 17:45.0 18:0.0 19:161.0 20:236.0 21:0.0 22:0.0 23:0.0 24:340.0 25:24.0 26:46.0 27:367.0 28:140.0 29:0.0 30:0.0 31:0.0 32:365.0 33:35.0 34:12.0 35:335.0 36:213.0 37:0.0 38:0.0 39:0.0 40:380.0 41:42.0 42:0.0 43:279.0 44:232.0 45:0.0 46:0.0 47:0.0 48:400.0 49:305.0 50:272.0 51:396.0 52:242.0 53:14.0 54:17.0 55:0.0 56:210.0 57:379.0 58:400.0 59:400.0 60:365.0 61:320.0 62:318.0 63:42.0 
-1.3663806148849406E-6 -1.3158751787122977E-6 -4.4858136144443195E-5 5.553755213240597E-7 1.1339777729016733E-6 1.1158964470415075E-6 7.657395857501989E-7 7.348696763744175E-7 5.831922251145317E-7 5.805446147085042E-7 5.773982090262353E-7 5.502004242595472E-7 5.620680507030347E-7 5.308472694012733E-7 5.354567405837925E-7 5.253835102606086E-7 4.883103387994793E-7 4.965661211308499E-7 4.865428334065174E-7 4.872178399684283E-7 4.745567580560162E-7 4.834855829434022E-7 4.65480002979072E-7 4.6469146461688163E-7 4.547778046601991E-7 4.53358685151007E-7 4.574855268735004E-7 4.3596578191770885E-7 4.3527049014068813E-7 4.3693317478484867E-7 4.241516172370976E-7 4.4305924433144464E-7 4.430716116707721E-7 6.33058438257494E-7 6.471899175577123E-7 6.637367115761988E-7 6.608636231914227E-7 7.30594941725921E-7 7.65733429050012E-7 8.628976448071682E-7 8.68214577496399E-7 8.235824601643458E-7 8.320993992658387E-7 8.358293286660623E-7 9.081109747935637E-7 1.168635232716177E-6 1.2493113171364285E-6 1.1924700287564147E-6 1.2648789289511182E-6 1.2611239010093405E-6 8.391324377552536E-7 9.805132790913387E-7 8.187533824749113E-7 9.089016922840609E-7 7.95091107502281E-7 0:0.0 1:0.0 2:32.0 3:370.0 4:276.0 5:0.0 6:0.0 7:0.0 8:300.0 9:31.0 10:0.0 11:269.0 12:368.0 13:31.0 14:0.0 15:0.0 16:400.0 17:43.0 18:0.0 19:208.0 20:304.0 21:17.0 22:0.0 23:0.0 24:400.0 25:40.0 26:79.0 27:374.0 28:171.0 29:0.0 30:0.0 31:0.0 32:395.0 33:40.0 34:34.0 35:359.0 36:126.0 37:0.0 38:0.0 39:0.0 40:385.0 41:51.0 42:0.0 43:273.0 44:254.0 45:0.0 46:0.0 47:0.0 48:400.0 49:290.0 50:204.0 51:391.0 52:267.0 53:16.0 54:12.0 55:0.0 56:185.0 57:350.0 58:400.0 59:400.0 60:365.0 61:314.0 62:307.0 63:32.0 
-3.3669353481074456E-7 -3.3485155026222226E-7 -5.12983088999488E-7 -5.553755213240597E-7 2.0378468924872735E-6 1.5070840485703046E-6 8.952723799070439E-7 7.210091243704689E-7 4.820208628269849E-7 4.943798894171063E-7 5.249948747375354E-7 5.761390845841313E-7 5.895098490884262E-7 6.488886322173855E-7 6.336810341167532E-7 7.050590099138347E-7 8.215424870966483E-7 8.512514673447168E-7 9.260133827454075E-7 9.811467741611072E-7 1.1797252419911402E-6 1.2591231340582104E-6 1.4818140664163882E-6 1.8877470116964806E-6 1.939339402819218E-6 2.2819510224852045E-6 2.3506955708194053E-6 2.790704164428289E-6 3.3989962763995793E-6 4.4003432267716884E-6 4.250941583560759E-6 6.173220569170936E-6 8.222331853313599E-6 5.34577116090103E-7 4.96896878990703E-7 5.00194825884682E-7 4.961764641671281E-7 4.597005786251183E-7 4.3935186812414324E-7 4.100870758392483E-7 4.0540576150506076E-7 3.6540866208541645E-7 3.4612831253448304E-7 3.4223591622201663E-7 3.3484420619907123E-7 3.237307770687894E-7 3.2728151626908235E-7 3.285567749392663E-7 3.2811283931789276E-7 3.255996895081361E-7 9.983512229552894E-7 8.808139778131767E-7 9.618700292360396E-7 8.849976525437266E-7 8.630398853883032E-7 0:86.0 1:379.0 2:400.0 3:400.0 4:393.0 5:348.0 6:301.0 7:8.0 8:400.0 9:398.0 10:339.0 11:400.0 12:400.0 13:400.0 14:400.0 15:308.0 16:400.0 17:323.0 18:291.0 19:400.0 20:400.0 21:400.0 22:349.0 23:400.0 24:400.0 25:400.0 26:400.0 27:400.0 28:334.0 29:296.0 30:170.0 31:326.0 32:400.0 33:339.0 34:399.0 35:400.0 36:197.0 37:38.0 38:0.0 39:119.0 40:397.0 41:180.0 42:316.0 43:400.0 44:390.0 45:363.0 46:146.0 47:125.0 48:262.0 49:33.0 50:65.0 51:400.0 52:372.0 53:270.0 54:87.0 55:0.0 56:0.0 57:0.0 58:55.0 59:359.0 60:87.0 61:0.0 62:0.0 63:0.0 
-5.066025510478061E-7 -5.012227328568042E-7 -9.996561182953064E-7 -1.1339777729016733E-6 -2.0378468924872735E-6 8.678220270586909E-6 1.3567554550049013E-6 1.0477084520736246E-6 5.047728799665235E-7 5.109131038992888E-7 5.208293999863022E-7 5.362074050242634E-7 5.506742868974487E-7 5.587667570658152E-7 5.562332330444814E-7 5.818117501537437E-7 6.096421613887405E-7 6.260113996675879E-7 6.469359818029847E-7 6.705183475611739E-7 7.405690384377548E-7 7.651674358512315E-7 8.1705854837293E-7 8.959256883397064E-7 8.857062510932937E-7 9.24963706736557E-7 9.351763789409502E-7 9.491083364456178E-7 9.994997503749373E-7 1.0749786885474995E-6 1.04313901392069E-6 1.1771671942337643E-6 1.2364424089854744E-6 7.446346282653625E-7 7.044158420305209E-7 7.14289285732143E-7 7.002869776034219E-7 6.74737425930699E-7 6.618492863279145E-7 6.238301235713901E-7 6.120113968762327E-7 5.36390616811662E-7 5.024007218493571E-7 4.943168392985842E-7 4.847278023144298E-7 4.756807050349138E-7 4.85981499170308E-7 4.854861488374305E-7 4.876007992752302E-7 4.824841371277816E-7 1.1366626561419283E-6 1.0791380492745226E-6 1.0871260897759597E-6 1.0178702388483408E-6 9.882643607164916E-7 0:36.0 1:28.0 2:52.0 3:394.0 4:329.0 5:39.0 6:0.0 7:0.0 8:377.0 9:191.0 10:85.0 11:376.0 12:400.0 13:349.0 14:141.0 15:0.0 16:400.0 17:236.0 18:90.0 19:381.0 20:400.0 21:396.0 22:217.0 23:207.0 24:400.0 25:391.0 26:357.0 27:400.0 28:326.0 29:119.0 30:55.0 31:148.0 32:400.0 33:257.0 34:317.0 35:400.0 36:241.0 37:39.0 38:0.0 39:37.0 40:394.0 41:96.0 42:121.0 43:400.0 44:392.0 45:361.0 46:97.0 47:94.0 48:266.0 49:22.0 50:113.0 51:400.0 52:388.0 53:289.0 54:77.0 55:0.0 56:0.0 57:0.0 58:178.0 59:390.0 60:101.0 61:8.0 62:0.0 63:0.0 
-5.074655798783808E-7 -5.008680042513676E-7 -1.0024640566512487E-6 -1.1158964470415075E-6 -1.5070840485703046E-6 -8.678220270586909E-6 2.363700183541319E-6 1.635173230252013E-6 4.45225667081617E-7 4.489291468595386E-7 4.566317427099313E-7 4.6316130750437106E-7 4.7146027039660887E-7 4.678558470635379E-7 4.68813582842173E-7 4.804294655078068E-7 4.930503323035977E-7 5.033599275161705E-7 5.169444036632749E-7 5.317097045794296E-7 5.748827957700124E-7 5.897424329411251E-7 6.222424934998994E-7 6.724601348820539E-7 6.702976691404002E-7 6.986823898151671E-7 7.045478564131468E-7 7.221428868022972E-7 7.621123467916022E-7 8.23830449102931E-7 8.201205085075201E-7 8.950083593780766E-7 9.592445757117354E-7 1.0391656331298473E-6 9.74965803074457E-7 9.926799778433828E-7 9.716586601993066E-7 9.212149351050139E-7 8.941720547984402E-7 8.168863478277563E-7 7.952156644762451E-7 6.698408190277662E-7 6.130456105934282E-7 5.972680957301304E-7 5.729908719689141E-7 5.175821357561008E-7 5.179652357272737E-7 5.309862325889614E-7 5.156651332504487E-7 5.084504464194919E-7 1.4042646111977465E-6 1.2891872641190177E-6 1.3292578288301402E-6 1.174945232865333E-6 1.1462487290967216E-6 0:36.0 1:29.0 2:39.0 3:381.0 4:297.0 5:20.0 6:0.0 7:0.0 8:389.0 9:220.0 10:73.0 11:355.0 12:400.0 13:327.0 14:130.0 15:0.0 16:400.0 17:240.0 18:124.0 19:390.0 20:395.0 21:374.0 22:208.0 23:112.0 24:400.0 25:396.0 26:383.0 27:400.0 28:295.0 29:57.0 30:18.0 31:20.0 32:400.0 33:264.0 34:331.0 35:400.0 36:287.0 37:54.0 38:18.0 39:20.0 40:400.0 41:157.0 42:187.0 43:400.0 44:399.0 45:397.0 46:259.0 47:281.0 48:319.0 49:174.0 50:230.0 51:400.0 52:397.0 53:339.0 54:249.0 55:104.0 56:10.0 57:21.0 58:338.0 59:398.0 60:198.0 61:20.0 62:15.0 63:0.0 
-4.198941656755415E-7 -4.1328743914084156E-7 -7.269600022971936E-7 -7.657395857501989E-7 -8.952723799070439E-7 -1.3567554550049013E-6 -2.363700183541319E-6 2.404684325065227E-5 3.1036791788906363E-7 3.1235802351712325E-7 3.1655196406248863E-7 3.227790501548613E-7 3.2679087116237226E-7 3.325068321841343E-7 3.301782054319267E-7 3.40637567929518E-7 3.570214698431105E-7 3.6224133930765897E-7 3.7698513302580143E-7 3.8310638749448806E-7 4.040917522650858E-7 4.1811263954509346E-7 4.4330387283562423E-7 4.757687411848973E-7 4.823691658052358E-7 5.025537267625439E-7 5.046295980902797E-7 5.325411960555739E-7 5.671631802200707E-7 6.187711020282388E-7 6.296125018376815E-7 6.503534183063431E-7 6.987941956756519E-7 3.1716228559829494E-6 2.5280007685122334E-6 2.6428353394655923E-6 2.479356259940669E-6 1.91022514868715E-6 1.5777835454531828E-6 1.2290191075600651E-6 1.1733522321266187E-6 9.039388684222063E-7 7.792826158023708E-7 7.476627129016304E-7 6.721319959698966E-7 5.007797140147209E-7 4.812736425676912E-7 5.130669164960505E-7 4.807416112391619E-7 4.671994453408185E-7 1.3466381179385663E-6 1.1492218618773228E-6 1.356743490005549E-6 1.0279668665719567E-6 1.099265306032713E-6 0:26.0 1:21.0 2:40.0 3:391.0 4:236.0 5:6.0 6:0.0 7:0.0 8:352.0 9:222.0 10:107.0 11:376.0 12:399.0 13:306.0 14:143.0 15:0.0 16:400.0 17:327.0 18:334.0 19:400.0 20:397.0 21:379.0 22:237.0 23:187.0 24:400.0 25:400.0 26:400.0 27:400.0 28:302.0 29:81.0 30:30.0 31:182.0 32:400.0 33:373.0 34:398.0 35:400.0 36:352.0 37:317.0 38:202.0 39:280.0 40:400.0 41:337.0 42:312.0 43:400.0 44:400.0 45:400.0 46:382.0 47:400.0 48:398.0 49:400.0 50:381.0 51:400.0 52:400.0 53:400.0 54:400.0 55:356.0 56:76.0 57:319.0 58:399.0 59:400.0 60:346.0 61:333.0 62:324.0 63:43.0 
-4.1900295732287277E-7 -4.0990275876853733E-7 -7.068061902086138E-7 -7.348696763744175E-7 -7.210091243704689E-7 -1.0477084520736246E-6 -1.635173230252013E-6 -2.404684325065227E-5 2.8942404037118053E-7 2.9021308605630596E-7 2.9295191384752935E-7 2.9648279495516733E-7 3.002843843261761E-7 3.042246613941491E-7 3.0218391336024584E-7 3.102334537763012E-7 3.237489087638344E-7 3.277679429185572E-7 3.403160515170439E-7 3.446883440017248E-7 3.605165192274275E-7 3.726896734213564E-7 3.932954917521019E-7 4.186239078625524E-7 4.2462024619057256E-7 4.400297724144016E-7 4.41418276923756E-7 4.6393626258050165E-7 4.916308452142073E-7 5.330018772326116E-7 5.412426932236414E-7 5.537806884490763E-7 5.888095566146277E-7 5.131823721855154E-6 4.098528628222468E-6 4.263083402963695E-6 3.824998661250468E-6 2.698436256189538E-6 2.0416746632257643E-6 1.5218696472991E-6 1.4286724561236831E-6 1.0514340509020254E-6 8.861406712870041E-7 8.369293397297053E-7 7.415160369527102E-7 5.193379376103756E-7 4.946184278503809E-7 5.3002316201218E-7 4.948807065312871E-7 4.798542778529016E-7 1.1528646669460443E-6 1.028672708747267E-6 1.183106423380549E-6 9.20703914971152E-7 1.0008537282301802E-6 0:7.0 1:10.0 2:43.0 3:385.0 4:198.0 5:5.0 6:0.0 7:0.0 8:322.0 9:182.0 10:76.0 11:380.0 12:391.0 13:274.0 14:52.0 15:0.0 16:400.0 17:316.0 18:339.0 19:400.0 20:387.0 21:371.0 22:209.0 23:138.0 24:400.0 25:400.0 26:400.0 27:400.0 28:226.0 29:83.0 30:30.0 31:190.0 32:400.0 33:392.0 34:400.0 35:400.0 36:376.0 37:363.0 38:291.0 39:339.0 40:400.0 41:372.0 42:316.0 43:400.0 44:400.0 45:400.0 46:388.0 47:400.0 48:400.0 49:400.0 50:384.0 51:400.0 52:400.0 53:400.0 54:400.0 55:398.0 56:209.0 57:390.0 58:400.0 59:400.0 60:400.0 61:400.0 62:387.0 63:129.0 
-6.178163405008267E-7 -6.344195441822459E-7 -5.819519249514797E-7 -5.831922251145317E-7 -4.820208628269849E-7 -5.047728799665235E-7 -4.45225667081617E-7 -3.1036791788906363E-7 -2.8942404037118053E-7 2.5761244783347932E-5 1.4982058984366221E-5 6.1611637206035475E-6 5.611562062473521E-6 3.2251666201705146E-6 3.6206434607558454E-6 2.3151202820742553E-6 1.4020693141006813E-6 1.3459511769670067E-6 1.1638503428121185E-6 1.1364779298827211E-6 9.374417028441044E-7 9.212925919323329E-7 7.432521070268169E-7 6.763515702516231E-7 6.499776245202759E-7 6.115472972208539E-7 6.138867317591231E-7 5.548519724294055E-7 5.175191889646279E-7 4.875185500808306E-7 4.792310833114484E-7 4.798952676567866E-7 4.6110551892584547E-7 2.602862862834203E-7 2.5996173363280926E-7 2.6410115285435246E-7 2.6521013261832683E-7 2.7985852591797795E-7 2.876767342016568E-7 3.0446502526526894E-7 3.09836135413883E-7 3.2069372466519573E-7 3.315647668668655E-7 3.4049994926550754E-7 3.6374965511985826E-7 4.7056398740864883E-7 4.951665554605111E-7 4.7110034908535866E-7 4.896166986712782E-7 5.079223183606299E-7 4.157351600736267E-7 4.4535306366166174E-7 4.0933454687381994E-7 4.824870470321136E-7 4.462534567908397E-7 0:293.0 1:390.0 2:400.0 3:400.0 4:400.0 5:400.0 6:397.0 7:349.0 8:400.0 9:300.0 10:190.0 11:308.0 12:258.0 13:185.0 14:207.0 15:168.0 16:227.0 17:19.0 18:0.0 19:0.0 20:23.0 21:8.0 22:0.0 23:0.0 24:0.0 25:0.0 26:0.0 27:0.0 28:241.0 29:23.0 30:0.0 31:0.0 32:0.0 33:0.0 34:0.0 35:0.0 36:0.0 37:0.0 38:0.0 39:0.0 40:0.0 41:0.0 42:0.0 43:0.0 44:0.0 45:0.0 46:0.0 47:0.0 48:0.0 49:0.0 50:0.0 51:0.0 52:0.0 53:0.0 54:0.0 55:0.0 56:0.0 57:0.0 58:0.0 59:0.0 60:0.0 61:0.0 62:0.0 63:0.0 
-5.759884249366125E-7 -5.907930806314397E-7 -5.769418275324717E-7 -5.805446147085042E-7 -4.943798894171063E-7 -5.109131038992888E-7 -4.489291468595386E-7 -3.1235802351712325E-7 -2.9021308605630596E-7 -2.5761244783347932E-5 3.08856458960698E-5 1.0782484931477307E-5 1.0847810640617458E-5 4.587608410921261E-6 5.382942531705532E-6 2.9647198339756892E-6 1.635546309267087E-6 1.5626758010276157E-6 1.3231346117459952E-6 1.2949719476701836E-6 1.044923344423453E-6 1.021377951207754E-6 8.074782172657415E-7 7.283750898632768E-7 6.993835982656685E-7 6.556119563952487E-7 6.561550625643853E-7 5.915659846009459E-7 5.47728965085291E-7 5.112424777059937E-7 5.037877280332178E-7 5.014446620714277E-7 4.797663346043943E-7 2.6030898416110937E-7 2.594979493174555E-7 2.6323998404765695E-7 2.640930621696196E-7 2.762963687473441E-7 2.831738120858583E-7 2.981444829034264E-7 3.0268812786030823E-7 3.110637602942663E-7 3.210963513821592E-7 3.3015514980955E-7 3.5063574643775996E-7 4.485162745251502E-7 4.704108074060537E-7 4.497290607273648E-7 4.6558662984186814E-7 4.798174390607861E-7 4.239040332137288E-7 4.5100923463958387E-7 4.1746916416202563E-7 4.902913728084895E-7 4.563555265110616E-7 0:400.0 1:400.0 2:400.0 3:400.0 4:400.0 5:400.0 6:400.0 7:394.0 8:400.0 9:281.0 10:183.0 11:303.0 12:255.0 13:168.0 14:217.0 15:217.0 16:267.0 17:35.0 18:0.0 19:17.0 20:42.0 21:10.0 22:0.0 23:0.0 24:0.0 25:0.0 26:0.0 27:207.0 28:363.0 29:47.0 30:0.0 31:0.0 32:0.0 33:0.0 34:0.0 35:0.0 36:0.0 37:0.0 38:0.0 39:0.0 40:0.0 41:0.0 42:0.0 43:0.0 44:0.0 45:0.0 46:0.0 47:0.0 48:0.0 49:0.0 50:0.0 51:0.0 52:0.0 53:0.0 54:0.0 55:0.0 56:0.0 57:0.0 58:0.0 59:0.0 60:0.0 61:0.0 62:0.0 63:0.0 
-5.570700122806085E-7 -5.683153399960729E-7 -5.727749197900322E-7 -5.773982090262353E-7 -5.249948747375354E-7 -5.208293999863022E-7 -4.566317427099313E-7 -3.1655196406248863E-7 -2.9295191384752935E-7 -1.4982058984366221E-5 -3.08856458960698E-5 2.771349785913229E-5 1.8022239443473246E-5 6.077327920459932E-6 7.676335010612534E-6 3.703875179406454E-6 1.8576932651188367E-6 1.7702357865555903E-6 1.4817767392169255E-6 1.4339713549882128E-6 1.1274154170676037E-6 1.1071487487558416E-6 8.61533477898651E-7 7.756558849205902E-7 7.436757811570405E-7 6.927438544960808E-7 6.97831592999493E-7 6.225235236076484E-7 5.765931990832168E-7 5.392851721115145E-7 5.297416847109928E-7 5.293970194418408E-7 5.064148839385709E-7 2.616383953298593E-7 2.600196964920093E-7 2.6383494380381657E-7 2.6467941830345524E-7 2.760887664036415E-7 2.819610219902811E-7 2.963190360386175E-7 3.003863569322863E-7 3.0716620287129753E-7 3.16852011891456E-7 3.2514874335700794E-7 3.4506175225118285E-7 4.386736439171977E-7 4.595784654399292E-7 4.3983565101064334E-7 4.5456725311145605E-7 4.680998166687068E-7 4.4520049381638775E-7 4.7483764113955334E-7 4.3703237535836654E-7 5.168492867479843E-7 4.788424653778941E-7 0:361.0 1:397.0 2:400.0 3:400.0 4:400.0 5:400.0 6:393.0 7:280.0 8:400.0 9:300.0 10:234.0 11:354.0 12:314.0 13:238.0 14:326.0 15:354.0 16:294.0 17:38.0 18:0.0 19:13.0 20:38.0 21:7.0 22:0.0 23:0.0 24:0.0 25:0.0 26:0.0 27:225.0 28:324.0 29:26.0 30:0.0 31:0.0 32:0.0 33:0.0 34:0.0 35:36.0 36:35.0 37:0.0 38:0.0 39:0.0 40:0.0 41:0.0 42:0.0 43:0.0 44:0.0 45:0.0 46:0.0 47:0.0 48:0.0 49:0.0 50:0.0 51:0.0 52:0.0 53:0.0 54:0.0 55:0.0 56:0.0 57:0.0 58:0.0 59:0.0 60:0.0 61:0.0 62:0.0 63:0.0 
-4.992673252002686E-7 -5.06157661025202E-7 -5.427496784208155E-7 -5.502004242595472E-7 -5.761390845841313E-7 -5.362074050242634E-7 -4.6316130750437106E-7 -3.227790501548613E-7 -2.9648279495516733E-7 -6.1611637206035475E-6 -1.0782484931477307E-5 -2.771349785913229E-5 5.2769056225429405E-5 1.4138772047647663E-5 2.152389151958674E-5 6.729520387082012E-6 2.6645527881214236E-6 2.5066865864694074E-6 2.0079192334567533E-6 1.9328881891833644E-6 1.4196237429231756E-6 1.3900733472201661E-6 1.0336606419756149E-6 9.155740053890686E-7 8.749063303410079E-7 8.072487710646522E-7 8.110464526855776E-7 7.151732954291487E-7 6.548730577692993E-7 6.063384192999945E-7 5.943469286230943E-7 5.931753984062564E-7 5.644933672029354E-7 2.6136783458447936E-7 2.581995794961648E-7 2.618113575861412E-7 2.624828303418603E-7 2.7058012107378096E-7 2.7457162022241947E-7 2.8585169870945103E-7 2.8900167982226397E-7 2.9232064885829783E-7 3.0020383840627787E-7 3.0738303307134054E-7 3.2439963764560473E-7 4.044289008936868E-7 4.2197805165559926E-7 4.0565927136292995E-7 4.174457247504823E-7 4.2778753846344705E-7 4.5998805411023473E-7 4.808067937999963E-7 4.5033147774247927E-7 5.281207114947849E-7 4.883694808144049E-7 0:400.0 1:400.0 2:400.0 3:400.0 4:400.0 5:400.0 6:399.0 7:292.0 8:400.0 9:365.0 10:316.0 11:363.0 12:370.0 13:334.0 14:354.0 15:397.0 16:361.0 17:92.0 18:0.0 19:37.0 20:60.0 21:23.0 22:0.0 23:96.0 24:29.0 25:0.0 26:17.0 27:314.0 28:382.0 29:101.0 30:0.0 31:72.0 32:0.0 33:0.0 34:0.0 35:76.0 36:76.0 37:0.0 38:0.0 39:0.0 40:0.0 41:0.0 42:0.0 43:0.0 44:0.0 45:0.0 46:0.0 47:0.0 48:0.0 49:0.0 50:0.0 51:0.0 52:0.0 53:0.0 54:0.0 55:0.0 56:0.0 57:0.0 58:0.0 59:0.0 60:0.0 61:0.0 62:0.0 63:0.0 
-4.966990622073356E-7 -5.044804167008242E-7 -5.508726787258205E-7 -5.620680507030347E-7 -5.895098490884262E-7 -5.506742868974487E-7 -4.7146027039660887E-7 -3.2679087116237226E-7 -3.002843843261761E-7 -5.611562062473521E-6 -1.0847810640617458E-5 -1.8022239443473246E-5 -5.2769056225429405E-5 1.988111095648025E-5 3.370464618547667E-5 9.085746734809766E-6 3.1989456275211692E-6 2.978446472104615E-6 2.3030463545655017E-6 2.2281937815567945E-6 1.5897455055907375E-6 1.54810024877971E-6 1.1235298611766503E-6 9.82721302695359E-7 9.357609467654955E-7 8.615987999651914E-7 8.619549051052296E-7 7.558956077929813E-7 6.88145049966212E-7 6.326561276700065E-7 6.203360422374405E-7 6.177409645345646E-7 5.852777479448703E-7 2.649283130477724E-7 2.6210976606572325E-7 2.6533338410045414E-7 2.656934845713786E-7 2.7341195841021336E-7 2.774871485295748E-7 2.878376227375603E-7 2.905154266596711E-7 2.925603226472262E-7 2.9959158177614366E-7 3.061457066814923E-7 3.2292075363245485E-7 4.0254407857660415E-7 4.1989055132889063E-7 4.0388545889162927E-7 4.153024845263486E-7 4.255358080935634E-7 4.6628198402984204E-7 4.862443893475524E-7 4.582390697380293E-7 5.35390661180697E-7 4.979525436287345E-7 0:400.0 1:400.0 2:400.0 3:400.0 4:400.0 5:400.0 6:400.0 7:352.0 8:400.0 9:318.0 10:233.0 11:351.0 12:362.0 13:324.0 14:334.0 15:393.0 16:362.0 17:89.0 18:0.0 19:85.0 20:148.0 21:26.0 22:0.0 23:95.0 24:34.0 25:0.0 26:30.0 27:350.0 28:387.0 29:179.0 30:68.0 31:89.0 32:0.0 33:0.0 34:0.0 35:69.0 36:33.0 37:0.0 38:0.0 39:0.0 40:0.0 41:0.0 42:0.0 43:0.0 44:0.0 45:0.0 46:0.0 47:0.0 48:0.0 49:0.0 50:0.0 51:0.0 52:0.0 53:0.0 54:0.0 55:0.0 56:0.0 57:0.0 58:0.0 59:0.0 60:0.0 61:0.0 62:0.0 63:0.0 
-4.550498359204054E-7 -4.594808004798817E-7 -5.184018397044487E-7 -5.308472694012733E-7 -6.488886322173855E-7 -5.587667570658152E-7 -4.678558470635379E-7 -3.325068321841343E-7 -3.042246613941491E-7 -3.2251666201705146E-6 -4.587608410921261E-6 -6.077327920459932E-6 -1.4138772047647663E-5 -1.988111095648025E-5 2.1094821221390148E-4 3.77836132469348E-5 5.8459020226821E-6 5.261316433984947E-6 3.6215416540667196E-6 3.4734765331925418E-6 2.1461599296918007E-6 2.090183037328579E-6 1.4040881430372672E-6 1.1953150820673454E-6 1.1334167528063398E-6 1.0292597975240127E-6 1.0264089901110626E-6 8.857607755012742E-7 7.958488523859548E-7 7.242480042440934E-7 7.069823342789222E-7 7.030383560151083E-7 6.628124124880487E-7 2.653482749177951E-7 2.603535106002281E-7 2.638369624767114E-7 2.639044317603178E-7 2.694739020589019E-7 2.7190844516361207E-7 2.804544034426339E-7 2.824475777295734E-7 2.822127909843173E-7 2.877728896354997E-7 2.9307881196986623E-7 3.078120228913645E-7 3.768225493628119E-7 3.9159480901921166E-7 3.78223766635936E-7 3.874769766023965E-7 3.960479954723793E-7 4.6650995042398757E-7 4.783196820896065E-7 4.610664004776648E-7 5.277774552471107E-7 4.95329660463901E-7 0:400.0 1:400.0 2:400.0 3:400.0 4:400.0 5:400.0 6:400.0 7:356.0 8:400.0 9:376.0 10:338.0 11:388.0 12:393.0 13:329.0 14:353.0 15:400.0 16:393.0 17:111.0 18:0.0 19:123.0 20:194.0 21:27.0 22:17.0 23:214.0 24:64.0 25:6.0 26:43.0 27:367.0 28:390.0 29:202.0 30:127.0 31:318.0 32:0.0 33:0.0 34:14.0 35:112.0 36:85.0 37:0.0 38:0.0 39:37.0 40:0.0 41:0.0 42:0.0 43:0.0 44:0.0 45:0.0 46:0.0 47:0.0 48:0.0 49:0.0 50:0.0 51:0.0 52:0.0 53:0.0 54:0.0 55:0.0 56:0.0 57:0.0 58:0.0 59:0.0 60:0.0 61:0.0 62:0.0 63:0.0 
-4.622578058008732E-7 -4.668614723970489E-7 -5.23573641418026E-7 -5.354567405837925E-7 -6.336810341167532E-7 -5.562332330444814E-7 -4.68813582842173E-7 -3.301782054319267E-7 -3.0218391336024584E-7 -3.6206434607558454E-6 -5.382942531705532E-6 -7.676335010612534E-6 -2.152389151958674E-5 -3.370464618547667E-5 -2.1094821221390148E-4 2.4976272541085968E-5 4.868537320989968E-6 4.423076072485371E-6 3.1536986577858514E-6 3.046797282866183E-6 1.967663419366137E-6 1.91220859136198E-6 1.3141908297078095E-6 1.131037478057873E-6 1.0738433767219749E-6 9.805079913852567E-7 9.772448535842898E-7 8.486583348220215E-7 7.648625216981937E-7 6.982581949327403E-7 6.816209764765785E-7 6.797796154486715E-7 6.418316334422521E-7 2.642442515314606E-7 2.597517967681162E-7 2.631596953031784E-7 2.6339175889329106E-7 2.6935170814772754E-7 2.720459953605276E-7 2.808462177386684E-7 2.82922687556169E-7 2.831512010424495E-7 2.890568566165259E-7 2.946549590429607E-7 3.099100718449024E-7 3.812546977727291E-7 3.967481726275104E-7 3.8248128614687205E-7 3.922783921293263E-7 4.0110271157466103E-7 4.6804570091832907E-7 4.823988343314567E-7 4.606247591796181E-7 5.317945326735891E-7 4.972158399044551E-7 0:400.0 1:400.0 2:400.0 3:400.0 4:400.0 5:400.0 6:400.0 7:354.0 8:400.0 9:367.0 10:327.0 11:380.0 12:391.0 13:357.0 14:363.0 15:400.0 16:394.0 17:105.0 18:0.0 19:113.0 20:175.0 21:25.0 22:0.0 23:168.0 24:46.0 25:9.0 26:38.0 27:363.0 28:391.0 29:194.0 30:117.0 31:259.0 32:0.0 33:0.0 34:13.0 35:113.0 36:80.0 37:0.0 38:0.0 39:0.0 40:0.0 41:0.0 42:0.0 43:0.0 44:0.0 45:0.0 46:0.0 47:0.0 48:0.0 49:0.0 50:0.0 51:0.0 52:0.0 53:0.0 54:0.0 55:0.0 56:0.0 57:0.0 58:0.0 59:0.0 60:0.0 61:0.0 62:0.0 63:0.0 
-4.3024372446503493E-7 -4.343818442289331E-7 -5.077611288545416E-7 -5.253835102606086E-7 -7.050590099138347E-7 -5.818117501537437E-7 -4.804294655078068E-7 -3.40637567929518E-7 -3.102334537763012E-7 -2.3151202820742553E-6 -2.9647198339756892E-6 -3.703875179406454E-6 -6.729520387082012E-6 -9.085746734809766E-6 -3.77836132469348E-5 -2.4976272541085968E-5 1.1063966321286519E-5 1.0370754472387866E-5 5.925188569126212E-6 5.509444565346145E-6 2.8418294561306787E-6 2.7627858274612624E-6 1.7085912238211788E-6 1.418993224307354E-6 1.3337841523768366E-6 1.189331458946954E-6 1.193647883423573E-6 1.0013041987188314E-6 8.928240605370426E-7 8.051270490483399E-7 7.839878325088394E-7 7.790965285016883E-7 7.299659032926572E-7 2.6896690752204955E-7 2.6331297221890156E-7 2.664082151768498E-7 2.6640707960829635E-7 2.7032440821256366E-7 2.72213432752938E-7 2.787069169622005E-7 2.7977337796837803E-7 2.7684580712872416E-7 2.800991775167751E-7 2.8375628626582686E-7 2.9710658297570364E-7 3.596329945290831E-7 3.730661880973606E-7 3.609284812995735E-7 3.693403212522114E-7 3.770433392466297E-7 4.778982798290367E-7 4.85826143713689E-7 4.719696070451847E-7 5.358750960891032E-7 5.058678137050719E-7 0:400.0 1:400.0 2:400.0 3:400.0 4:400.0 5:400.0 6:400.0 7:283.0 8:400.0 9:385.0 10:348.0 11:390.0 12:400.0 13:377.0 14:381.0 15:400.0 16:399.0 17:152.0 18:0.0 19:194.0 20:315.0 21:36.0 22:18.0 23:249.0 24:170.0 25:6.0 26:77.0 27:370.0 28:392.0 29:259.0 30:193.0 31:357.0 32:0.0 33:0.0 34:16.0 35:108.0 36:80.0 37:0.0 38:0.0 39:37.0 40:0.0 41:0.0 42:0.0 43:0.0 44:0.0 45:0.0 46:0.0 47:0.0 48:0.0 49:0.0 50:0.0 51:0.0 52:0.0 53:0.0 54:0.0 55:0.0 56:0.0 57:0.0 58:0.0 59:0.0 60:0.0 61:0.0 62:0.0 63:0.0 
-3.8272845970740026E-7 -3.8537984482680547E-7 -4.667979458089597E-7 -4.883103387994793E-7 -8.215424870966483E-7 -6.096421613887405E-7 -4.930503323035977E-7 -3.570214698431105E-7 -3.237489087638344E-7 -1.4020693141006813E-6 -1.635546309267087E-6 -1.8576932651188367E-6 -2.6645527881214236E-6 -3.1989456275211692E-6 -5.8459020226821E-6 -4.868537320989968E-6 -1.1063966321286519E-5 6.410461873778005E-5 2.5487772241267252E-5 1.5135920566688865E-5 5.256117463713079E-6 5.518977002422831E-6 2.7756805968823554E-6 2.119081801855256E-6 1.9765384881457103E-6 1.6805734116480544E-6 1.6789524008599594E-6 1.34232151821933E-6 1.1675873092600182E-6 1.0258719783582047E-6 9.936273708570085E-7 9.738971223774777E-7 8.966683837866216E-7 2.775557331912248E-7 2.697895708794533E-7 2.718698569869398E-7 2.715736402477566E-7 2.714175964641887E-7 2.7112486316667064E-7 2.751881805575698E-7 2.752934077139415E-7 2.6851537713723134E-7 2.700156163531718E-7 2.7208422639312225E-7 2.822535348021431E-7 3.2817604675852316E-7 3.38207123453717E-7 3.294910829004507E-7 3.355883190431437E-7 3.411023370114967E-7 4.795454676239673E-7 4.782446508335804E-7 4.79899643386575E-7 5.277610213653495E-7 5.041159809555064E-7 0:400.0 1:400.0 2:400.0 3:400.0 4:400.0 5:400.0 6:398.0 7:272.0 8:400.0 9:397.0 10:379.0 11:400.0 12:400.0 13:400.0 14:400.0 15:400.0 16:397.0 17:99.0 18:21.0 19:337.0 20:315.0 21:130.0 22:170.0 23:378.0 24:319.0 25:9.0 26:263.0 27:400.0 28:374.0 29:370.0 30:309.0 31:400.0 32:66.0 33:0.0 34:61.0 35:133.0 36:74.0 37:66.0 38:53.0 39:117.0 40:0.0 41:0.0 42:0.0 43:0.0 44:0.0 45:0.0 46:0.0 47:0.0 48:0.0 49:0.0 50:0.0 51:0.0 52:0.0 53:0.0 54:0.0 55:0.0 56:0.0 57:0.0 58:0.0 59:0.0 60:0.0 61:0.0 62:0.0 63:0.0 
-3.792864105471965E-7 -3.819578394936767E-7 -4.7319850961397413E-7 -4.965661211308499E-7 -8.512514673447168E-7 -6.260113996675879E-7 -5.033599275161705E-7 -3.6224133930765897E-7 -3.277679429185572E-7 -1.3459511769670067E-6 -1.5626758010276157E-6 -1.7702357865555903E-6 -2.5066865864694074E-6 -2.978446472104615E-6 -5.261316433984947E-6 -4.423076072485371E-6 -1.0370754472387866E-5 -6.410461873778005E-5 5.425052894265719E-5 3.355761002701388E-5 6.771397616468039E-6 6.934740623363835E-6 3.1484213028482194E-6 2.3687420795186715E-6 2.1796915954361616E-6 1.8265557460247298E-6 1.8334158370460005E-6 1.4356914325831607E-6 1.236879032612171E-6 1.0814060874511474E-6 1.0438053803992137E-6 1.0231571149834197E-6 9.389891781497218E-7 2.8039978841031967E-7 2.7249983445635056E-7 2.746994650502618E-7 2.7449594994950646E-7 2.741385128698437E-7 2.7410792944900466E-7 2.7695211428705946E-7 2.768164174280848E-7 2.6964105921479443E-7 2.6975642074232653E-7 2.713191755369949E-7 2.8098581625747403E-7 3.253985440692943E-7 3.3520652325302513E-7 3.268444896797218E-7 3.3302007245184697E-7 3.3821570247570513E-7 4.902423390442481E-7 4.860044095180075E-7 4.888494658952948E-7 5.388394099600693E-7 5.103965219539408E-7 0:400.0 1:400.0 2:400.0 3:400.0 4:400.0 5:400.0 6:392.0 7:258.0 8:400.0 9:397.0 10:376.0 11:400.0 12:400.0 13:400.0 14:400.0 15:400.0 16:400.0 17:174.0 18:27.0 19:312.0 20:358.0 21:140.0 22:178.0 23:374.0 24:397.0 25:52.0 26:174.0 27:399.0 28:382.0 29:343.0 30:337.0 31:399.0 32:124.0 33:16.0 34:50.0 35:124.0 36:83.0 37:31.0 38:61.0 39:114.0 40:0.0 41:0.0 42:0.0 43:0.0 44:0.0 45:0.0 46:0.0 47:0.0 48:0.0 49:0.0 50:0.0 51:0.0 52:0.0 53:0.0 54:0.0 55:0.0 56:0.0 57:0.0 58:0.0 59:0.0 60:0.0 61:0.0 62:0.0 63:0.0 
-3.6577555207418515E-7 -3.6767558071600407E-7 -4.6228558616656614E-7 -4.865428334065174E-7 -9.260133827454075E-7 -6.469359818029847E-7 -5.169444036632749E-7 -3.7698513302580143E-7 -3.403160515170439E-7 -1.1638503428121185E-6 -1.3231346117459952E-6 -1.4817767392169255E-6 -2.0079192334567533E-6 -2.3030463545655017E-6 -3.6215416540667196E-6 -3.1536986577858514E-6 -5.925188569126212E-6 -2.5487772241267252E-5 -5.425052894265719E-5 6.427354822122955E-5 9.199970560094207E-6 1.0572668594416574E-5 4.20623153201468E-6 3.0325176871594104E-6 2.7741598110242337E-6 2.2349739904901857E-6 2.2637596973806037E-6 1.7092424722824967E-6 1.4437087144423567E-6 1.2437408740513366E-6 1.195038677426795E-6 1.1587472088676607E-6 1.0520225132817842E-6 2.898175641906055E-7 2.8046447160213087E-7 2.8236614926834693E-7 2.820853782172543E-7 2.7879234960337605E-7 2.7699281092858514E-7 2.781001808624526E-7 2.7755569467263765E-7 2.697308814076931E-7 2.694463470350393E-7 2.708562714738238E-7 2.793066324571903E-7 3.1683755564261546E-7 3.2532941636716026E-7 3.183546413400693E-7 3.2381091773842684E-7 3.279597134288024E-7 4.960931424796868E-7 4.853119136067144E-7 4.954945915526596E-7 5.382836771126894E-7 5.134930570603755E-7 0:400.0 1:400.0 2:400.0 3:400.0 4:400.0 5:400.0 6:384.0 7:216.0 8:400.0 9:400.0 10:393.0 11:400.0 12:400.0 13:400.0 14:400.0 15:400.0 16:400.0 17:228.0 18:94.0 19:324.0 20:373.0 21:185.0 22:232.0 23:388.0 24:400.0 25:74.0 26:245.0 27:397.0 28:390.0 29:363.0 30:349.0 31:400.0 32:221.0 33:13.0 34:61.0 35:144.0 36:90.0 37:68.0 38:107.0 39:161.0 40:0.0 41:0.0 42:0.0 43:0.0 44:0.0 45:0.0 46:0.0 47:0.0 48:0.0 49:0.0 50:0.0 51:0.0 52:0.0 53:0.0 54:0.0 55:0.0 56:0.0 57:0.0 58:0.0 59:0.0 60:0.0 61:0.0 62:0.0 63:0.0 
-3.622203455183654E-7 -3.641073861914094E-7 -4.630106573478055E-7 -4.872178399684283E-7 -9.811467741611072E-7 -6.705183475611739E-7 -5.317097045794296E-7 -3.8310638749448806E-7 -3.446883440017248E-7 -1.1364779298827211E-6 -1.2949719476701836E-6 -1.4339713549882128E-6 -1.9328881891833644E-6 -2.2281937815567945E-6 -3.4734765331925418E-6 -3.046797282866183E-6 -5.509444565346145E-6 -1.5135920566688865E-5 -3.355761002701388E-5 -6.427354822122955E-5 1.585326220503024E-5 1.697274177670661E-5 5.3854936343465245E-6 3.731071806342449E-6 3.3297261300258055E-6 2.632694378407694E-6 2.62688856870036E-6 1.940202945228071E-6 1.6012656403621423E-6 1.3591711774160118E-6 1.2950692182120403E-6 1.262977887151663E-6 1.1407913327237704E-6 2.9265094935967975E-7 2.830736533584778E-7 2.850320411643274E-7 2.848056336832788E-7 2.8152174326146035E-7 2.8011679189521277E-7 2.7962344788014666E-7 2.7892929086690666E-7 2.7043293202438387E-7 2.6886508686022714E-7 2.70062285815289E-7 2.7817270574974637E-7 3.1469598794084977E-7 3.2314792613355446E-7 3.1622788203371844E-7 3.218964076199961E-7 3.2564236620209984E-7 5.130749453703452E-7 4.981853598268308E-7 5.105820686640978E-7 5.576230980870182E-7 5.269513205004879E-7 0:400.0 1:400.0 2:400.0 3:400.0 4:400.0 5:400.0 6:397.0 7:272.0 8:400.0 9:400.0 10:395.0 11:400.0 12:400.0 13:400.0 14:400.0 15:400.0 16:400.0 17:264.0 18:86.0 19:319.0 20:395.0 21:185.0 22:258.0 23:384.0 24:400.0 25:183.0 26:177.0 27:395.0 28:399.0 29:368.0 30:374.0 31:398.0 32:221.0 33:22.0 34:58.0 35:137.0 36:119.0 37:53.0 38:92.0 39:127.0 40:0.0 41:0.0 42:0.0 43:39.0 44:36.0 45:0.0 46:0.0 47:0.0 48:0.0 49:0.0 50:0.0 51:38.0 52:34.0 53:0.0 54:0.0 55:0.0 56:0.0 57:0.0 58:0.0 59:0.0 60:0.0 61:0.0 62:0.0 63:0.0 
-3.400385535712039E-7 -3.425215891357632E-7 -4.485537952809449E-7 -4.745567580560162E-7 -1.1797252419911402E-6 -7.405690384377548E-7 -5.748827957700124E-7 -4.040917522650858E-7 -3.605165192274275E-7 -9.374417028441044E-7 -1.044923344423453E-6 -1.1274154170676037E-6 -1.4196237429231756E-6 -1.5897455055907375E-6 -2.1461599296918007E-6 -1.967663419366137E-6 -2.8418294561306787E-6 -5.256117463713079E-6 -6.771397616468039E-6 -9.199970560094207E-6 -1.585326220503024E-5 1.0692328254477412E-4 1.6269553970177906E-5 8.821220327620122E-6 6.739021291937772E-6 4.578157154400639E-6 4.632696646390898E-6 2.8868818644637833E-6 2.1985777400599553E-6 1.777070108969939E-6 1.6669778358626944E-6 1.6219758260722882E-6 1.4365752047119668E-6 3.03127074052277E-7 2.9148425824689126E-7 2.9283485812443957E-7 2.9212594951888315E-7 2.8520401498804137E-7 2.825415858833182E-7 2.7883086774814935E-7 2.7763082623905595E-7 2.6674562337118454E-7 2.6285070526786985E-7 2.6350794423750287E-7 2.697829474785209E-7 2.9865219756499905E-7 3.0613380404467044E-7 3.002828965168085E-7 3.053445370350862E-7 3.0798503562308917E-7 5.443689253531389E-7 5.143412484450822E-7 5.40542147557736E-7 5.817147846593667E-7 5.477192150307298E-7 0:400.0 1:400.0 2:400.0 3:400.0 4:400.0 5:400.0 6:399.0 7:288.0 8:400.0 9:400.0 10:388.0 11:399.0 12:400.0 13:400.0 14:400.0 15:400.0 16:400.0 17:292.0 18:107.0 19:330.0 20:400.0 21:268.0 22:368.0 23:394.0 24:400.0 25:346.0 26:305.0 27:400.0 28:395.0 29:360.0 30:388.0 31:400.0 32:274.0 33:88.0 34:16.0 35:98.0 36:80.0 37:0.0 38:88.0 39:99.0 40:0.0 41:0.0 42:0.0 43:205.0 44:152.0 45:0.0 46:0.0 47:0.0 48:0.0 49:0.0 50:0.0 51:94.0 52:83.0 53:0.0 54:0.0 55:0.0 56:0.0 57:0.0 58:0.0 59:0.0 60:0.0 61:0.0 62:0.0 63:0.0 
-3.427583305269995E-7 -3.4479899166982874E-7 -4.5620323489151827E-7 -4.834855829434022E-7 -1.2591231340582104E-6 -7.651674358512315E-7 -5.897424329411251E-7 -4.1811263954509346E-7 -3.726896734213564E-7 -9.212925919323329E-7 -1.021377951207754E-6 -1.1071487487558416E-6 -1.3900733472201661E-6 -1.54810024877971E-6 -2.090183037328579E-6 -1.91220859136198E-6 -2.7627858274612624E-6 -5.518977002422831E-6 -6.934740623363835E-6 -1.0572668594416574E-5 -1.697274177670661E-5 -1.0692328254477412E-4 2.3266094320746377E-5 1.0855347072584279E-5 8.324176738920521E-6 5.323651386012639E-6 5.3835655893254665E-6 3.272411931213901E-6 2.4740900915165926E-6 1.9734083228496015E-6 1.8418835100774053E-6 1.7781334044586694E-6 1.5592657417622043E-6 3.122402551377573E-7 2.998140703043008E-7 3.0122899925551254E-7 3.0045860499172915E-7 2.9299646162823117E-7 2.895990920489266E-7 2.8599611445678897E-7 2.847460677279912E-7 2.7327358388604055E-7 2.6964974789770946E-7 2.7026913806171894E-7 2.762250095781022E-7 3.0242243393808747E-7 3.0929014818091E-7 3.04119742891087E-7 3.087798302544639E-7 3.110936138236314E-7 5.529899892222251E-7 5.245788811886538E-7 5.513922378309112E-7 5.899642363679914E-7 5.609873152353216E-7 0:384.0 1:400.0 2:400.0 3:400.0 4:400.0 5:400.0 6:392.0 7:255.0 8:400.0 9:400.0 10:394.0 11:400.0 12:400.0 13:400.0 14:400.0 15:400.0 16:400.0 17:271.0 18:127.0 19:340.0 20:398.0 21:275.0 22:371.0 23:396.0 24:400.0 25:299.0 26:305.0 27:400.0 28:393.0 29:374.0 30:380.0 31:400.0 32:300.0 33:85.0 34:59.0 35:133.0 36:83.0 37:67.0 38:98.0 39:152.0 40:0.0 41:0.0 42:0.0 43:208.0 44:133.0 45:0.0 46:0.0 47:0.0 48:0.0 49:0.0 50:0.0 51:141.0 52:90.0 53:0.0 54:0.0 55:0.0 56:0.0 57:0.0 58:0.0 59:0.0 60:0.0 61:0.0 62:0.0 63:0.0 
-3.20725352457117E-7 -3.220328257720294E-7 -4.3821910385507917E-7 -4.65480002979072E-7 -1.4818140664163882E-6 -8.1705854837293E-7 -6.222424934998994E-7 -4.4330387283562423E-7 -3.932954917521019E-7 -7.432521070268169E-7 -8.074782172657415E-7 -8.61533477898651E-7 -1.0336606419756149E-6 -1.1235298611766503E-6 -1.4040881430372672E-6 -1.3141908297078095E-6 -1.7085912238211788E-6 -2.7756805968823554E-6 -3.1484213028482194E-6 -4.20623153201468E-6 -5.3854936343465245E-6 -1.6269553970177906E-5 -2.3266094320746377E-5 3.997841165770484E-5 2.479789713832267E-5 1.0998075336816057E-5 1.1156294102225122E-5 5.258176464402145E-6 3.66049629008701E-6 2.7147024211073545E-6 2.4829637648682973E-6 2.336123833252153E-6 1.9821585905266696E-6 3.2709925761552494E-7 3.126459177119071E-7 3.134996229383285E-7 3.122960804187391E-7 3.0030052575114544E-7 2.9488230288924207E-7 2.8767152054823285E-7 2.857988005024343E-7 2.720472165148983E-7 2.674728297756104E-7 2.6780160988937783E-7 2.7194811665051293E-7 2.8843854658123885E-7 2.937150846193159E-7 2.9033471382650847E-7 2.936283672016527E-7 2.9484030932876215E-7 5.691633014886466E-7 5.262673174839159E-7 5.672365313939894E-7 5.916165567443104E-7 5.652807396133197E-7 0:383.0 1:400.0 2:400.0 3:400.0 4:400.0 5:400.0 6:391.0 7:252.0 8:400.0 9:400.0 10:393.0 11:400.0 12:400.0 13:400.0 14:400.0 15:400.0 16:400.0 17:338.0 18:160.0 19:383.0 20:400.0 21:387.0 22:392.0 23:400.0 24:400.0 25:377.0 26:372.0 27:400.0 28:382.0 29:381.0 30:388.0 31:400.0 32:360.0 33:90.0 34:70.0 35:178.0 36:81.0 37:73.0 38:117.0 39:216.0 40:28.0 41:0.0 42:46.0 43:381.0 44:160.0 45:0.0 46:0.0 47:0.0 48:0.0 49:0.0 50:15.0 51:229.0 52:144.0 53:0.0 54:0.0 55:0.0 56:0.0 57:0.0 58:0.0 59:0.0 60:0.0 61:0.0 62:0.0 63:0.0 
-3.1352394962422585E-7 -3.145179273646008E-7 -4.361390009887271E-7 -4.6469146461688163E-7 -1.8877470116964806E-6 -8.959256883397064E-7 -6.724601348820539E-7 -4.757687411848973E-7 -4.186239078625524E-7 -6.763515702516231E-7 -7.283750898632768E-7 -7.756558849205902E-7 -9.155740053890686E-7 -9.82721302695359E-7 -1.1953150820673454E-6 -1.131037478057873E-6 -1.418993224307354E-6 -2.119081801855256E-6 -2.3687420795186715E-6 -3.0325176871594104E-6 -3.731071806342449E-6 -8.821220327620122E-6 -1.0855347072584279E-5 -3.997841165770484E-5 1.0292831043178426E-4 2.9315626694809667E-5 2.8845044421368408E-5 9.96745625532636E-6 6.089707480901155E-6 4.222527182518738E-6 3.584756182808226E-6 3.4795800842754296E-6 2.82926249614513E-6 3.448838974225619E-7 3.283681874273075E-7 3.291141990067992E-7 3.2793605246976837E-7 3.1257990323776514E-7 3.0511218517380565E-7 2.950867901890134E-7 2.9280609106942885E-7 2.769236222495946E-7 2.700699805333558E-7 2.700492677884153E-7 2.728087557424538E-7 2.848184503113564E-7 2.898800693683006E-7 2.8690123711813446E-7 2.9036223850702707E-7 2.904604087939793E-7 6.05625840116595E-7 5.540465482207487E-7 5.958397870230265E-7 6.12921049946017E-7 5.901080192729279E-7 0:363.0 1:400.0 2:400.0 3:400.0 4:400.0 5:400.0 6:392.0 7:218.0 8:400.0 9:400.0 10:398.0 11:400.0 12:400.0 13:400.0 14:400.0 15:400.0 16:400.0 17:370.0 18:218.0 19:384.0 20:400.0 21:400.0 22:399.0 23:400.0 24:400.0 25:396.0 26:386.0 27:400.0 28:397.0 29:377.0 30:399.0 31:400.0 32:400.0 33:209.0 34:117.0 35:202.0 36:100.0 37:79.0 38:120.0 39:170.0 40:99.0 41:9.0 42:107.0 43:389.0 44:231.0 45:17.0 46:0.0 47:0.0 48:0.0 49:0.0 50:14.0 51:248.0 52:228.0 53:14.0 54:0.0 55:0.0 56:0.0 57:0.0 58:0.0 59:0.0 60:0.0 61:0.0 62:0.0 63:0.0 
-3.0797208848962017E-7 -3.078728158925179E-7 -4.27196070821419E-7 -4.547778046601991E-7 -1.939339402819218E-6 -8.857062510932937E-7 -6.702976691404002E-7 -4.823691658052358E-7 -4.2462024619057256E-7 -6.499776245202759E-7 -6.993835982656685E-7 -7.436757811570405E-7 -8.749063303410079E-7 -9.357609467654955E-7 -1.1334167528063398E-6 -1.0738433767219749E-6 -1.3337841523768366E-6 -1.9765384881457103E-6 -2.1796915954361616E-6 -2.7741598110242337E-6 -3.3297261300258055E-6 -6.739021291937772E-6 -8.324176738920521E-6 -2.479789713832267E-5 -1.0292831043178426E-4 5.723770820216359E-5 5.166490144920049E-5 1.4296947601687039E-5 7.648125062141016E-6 4.872451403387815E-6 4.122988754548172E-6 3.836422612642163E-6 3.0589973524377915E-6 3.501719344198001E-7 3.32930764550531E-7 3.336275372165688E-7 3.324189043306704E-7 3.1543258661502826E-7 3.072462334300186E-7 2.960226398114928E-7 2.936770451155487E-7 2.770525542375396E-7 2.6997165972502035E-7 2.7013553104795974E-7 2.7221054287765195E-7 2.814188689100253E-7 2.861128818319464E-7 2.8353821095611494E-7 2.8621143497684046E-7 2.863621596460449E-7 5.968820077678225E-7 5.461597866918337E-7 5.891456974984285E-7 6.025243359579294E-7 5.864258254896436E-7 0:391.0 1:400.0 2:400.0 3:400.0 4:400.0 5:400.0 6:391.0 7:218.0 8:400.0 9:400.0 10:397.0 11:400.0 12:400.0 13:400.0 14:400.0 15:400.0 16:400.0 17:371.0 18:222.0 19:388.0 20:400.0 21:400.0 22:400.0 23:400.0 24:400.0 25:397.0 26:397.0 27:400.0 28:396.0 29:382.0 30:398.0 31:400.0 32:397.0 33:206.0 34:154.0 35:263.0 36:114.0 37:94.0 38:143.0 39:203.0 40:64.0 41:8.0 42:206.0 43:394.0 44:235.0 45:14.0 46:0.0 47:0.0 48:0.0 49:0.0 50:17.0 51:263.0 52:228.0 53:16.0 54:0.0 55:0.0 56:0.0 57:0.0 58:0.0 59:0.0 60:0.0 61:0.0 62:0.0 63:0.0 
-3.033273340242119E-7 -3.0264186677977404E-7 -4.2493619051929117E-7 -4.53358685151007E-7 -2.2819510224852045E-6 -9.24963706736557E-7 -6.986823898151671E-7 -5.025537267625439E-7 -4.400297724144016E-7 -6.115472972208539E-7 -6.556119563952487E-7 -6.927438544960808E-7 -8.072487710646522E-7 -8.615987999651914E-7 -1.0292597975240127E-6 -9.805079913852567E-7 -1.189331458946954E-6 -1.6805734116480544E-6 -1.8265557460247298E-6 -2.2349739904901857E-6 -2.632694378407694E-6 -4.578157154400639E-6 -5.323651386012639E-6 -1.0998075336816057E-5 -2.9315626694809667E-5 -5.723770820216359E-5 1.041612416019999E-4 3.96463545177021E-5 1.4805602439963282E-5 7.639331864035172E-6 5.987217291083536E-6 5.558195698512349E-6 4.169454989691023E-6 3.6110951621074786E-7 3.4253279366149917E-7 3.432226651892075E-7 3.420073815453159E-7 3.2264054181671466E-7 3.129510896565753E-7 2.996967668113403E-7 2.9734541903700523E-7 2.791231903222407E-7 2.712829990335543E-7 2.7126622053319815E-7 2.7254209276351687E-7 2.7951644772609176E-7 2.839855439998682E-7 2.8167399418089695E-7 2.841933236451829E-7 2.8366126703261805E-7 6.16870038437172E-7 5.581447269276923E-7 6.022590737857705E-7 6.102953158003627E-7 5.903747078752148E-7 0:380.0 1:400.0 2:400.0 3:400.0 4:400.0 5:400.0 6:396.0 7:266.0 8:400.0 9:400.0 10:391.0 11:400.0 12:400.0 13:400.0 14:400.0 15:400.0 16:400.0 17:396.0 18:259.0 19:398.0 20:400.0 21:400.0 22:400.0 23:400.0 24:400.0 25:400.0 26:400.0 27:400.0 28:393.0 29:381.0 30:399.0 31:400.0 32:400.0 33:224.0 34:222.0 35:323.0 36:104.0 37:84.0 38:123.0 39:179.0 40:171.0 41:60.0 42:262.0 43:400.0 44:275.0 45:20.0 46:0.0 47:0.0 48:0.0 49:0.0 50:34.0 51:292.0 52:250.0 53:21.0 54:0.0 55:0.0 56:0.0 57:0.0 58:0.0 59:0.0 60:0.0 61:0.0 62:0.0 63:0.0 
-3.05513386221774E-7 -3.050338206248618E-7 -4.285514703172395E-7 -4.574855268735004E-7 -2.3506955708194053E-6 -9.351763789409502E-7 -7.045478564131468E-7 -5.046295980902797E-7 -4.41418276923756E-7 -6.138867317591231E-7 -6.561550625643853E-7 -6.97831592999493E-7 -8.110464526855776E-7 -8.619549051052296E-7 -1.0264089901110626E-6 -9.772448535842898E-7 -1.193647883423573E-6 -1.6789524008599594E-6 -1.8334158370460005E-6 -2.2637596973806037E-6 -2.62688856870036E-6 -4.632696646390898E-6 -5.3835655893254665E-6 -1.1156294102225122E-5 -2.8845044421368408E-5 -5.166490144920049E-5 -1.041612416019999E-4 3.117547113930759E-5 1.3671754838092243E-5 7.247164546871037E-6 6.0396320656145625E-6 5.362735424085118E-6 4.118497407405882E-6 3.6218059519672474E-7 3.435277482821036E-7 3.4423230172649713E-7 3.430457592168677E-7 3.2321602530910767E-7 3.129178431073743E-7 2.997947455274746E-7 2.974823916453855E-7 2.793237571838579E-7 2.7169018190472747E-7 2.71584445381109E-7 2.7269820557763274E-7 2.80629558739485E-7 2.851557470788289E-7 2.829756473987605E-7 2.8537754021682985E-7 2.851226968501355E-7 6.133262923474972E-7 5.569502518111326E-7 6.018340893874081E-7 6.08344848794367E-7 5.922833767970618E-7 0:388.0 1:400.0 2:400.0 3:400.0 4:400.0 5:400.0 6:391.0 7:170.0 8:400.0 9:400.0 10:380.0 11:400.0 12:400.0 13:400.0 14:400.0 15:400.0 16:400.0 17:392.0 18:297.0 19:397.0 20:400.0 21:400.0 22:397.0 23:400.0 24:400.0 25:398.0 26:397.0 27:400.0 28:382.0 29:375.0 30:390.0 31:400.0 32:399.0 33:204.0 34:207.0 35:297.0 36:91.0 37:37.0 38:103.0 39:214.0 40:146.0 41:67.0 42:260.0 43:400.0 44:313.0 45:33.0 46:0.0 47:0.0 48:0.0 49:0.0 50:32.0 51:281.0 52:232.0 53:18.0 54:0.0 55:0.0 56:0.0 57:0.0 58:0.0 59:0.0 60:0.0 61:0.0 62:0.0 63:0.0 
-2.9267831536117747E-7 -2.9158493176548116E-7 -4.088890015605249E-7 -4.3596578191770885E-7 -2.790704164428289E-6 -9.491083364456178E-7 -7.221428868022972E-7 -5.325411960555739E-7 -4.6393626258050165E-7 -5.548519724294055E-7 -5.915659846009459E-7 -6.225235236076484E-7 -7.151732954291487E-7 -7.558956077929813E-7 -8.857607755012742E-7 -8.486583348220215E-7 -1.0013041987188314E-6 -1.34232151821933E-6 -1.4356914325831607E-6 -1.7092424722824967E-6 -1.940202945228071E-6 -2.8868818644637833E-6 -3.272411931213901E-6 -5.258176464402145E-6 -9.96745625532636E-6 -1.4296947601687039E-5 -3.96463545177021E-5 -3.117547113930759E-5 5.482756730083886E-5 1.610241133609758E-5 1.1782934775564549E-5 9.898490975050853E-6 6.637087380573909E-6 3.7869248844514544E-7 3.5780550015036776E-7 3.584269858243919E-7 3.575013160517197E-7 3.338104040357678E-7 3.2068976520217807E-7 3.046034413487597E-7 3.020678051602243E-7 2.8197620769352347E-7 2.727263181851591E-7 2.7233274922497504E-7 2.7138146735959403E-7 2.730931679189809E-7 2.7698414127299144E-7 2.755496147058625E-7 2.7745642928280706E-7 2.764767626119368E-7 6.237077554940857E-7 5.613650601895618E-7 6.072003026286308E-7 6.049811729858967E-7 5.9506719052415E-7 0:400.0 1:400.0 2:400.0 3:400.0 4:400.0 5:400.0 6:394.0 7:258.0 8:400.0 9:400.0 10:400.0 11:400.0 12:400.0 13:400.0 14:400.0 15:400.0 16:400.0 17:400.0 18:369.0 19:381.0 20:400.0 21:400.0 22:400.0 23:400.0 24:400.0 25:400.0 26:400.0 27:400.0 28:397.0 29:380.0 30:398.0 31:400.0 32:400.0 33:276.0 34:322.0 35:364.0 36:112.0 37:85.0 38:131.0 39:207.0 40:213.0 41:102.0 42:326.0 43:400.0 44:324.0 45:84.0 46:0.0 47:0.0 48:0.0 49:0.0 50:34.0 51:330.0 52:277.0 53:92.0 54:0.0 55:0.0 56:0.0 57:0.0 58:0.0 59:29.0 60:0.0 61:0.0 62:0.0 63:0.0 
-2.9058063968712603E-7 -2.897915283213985E-7 -4.0836453068195857E-7 -4.3527049014068813E-7 -3.3989962763995793E-6 -9.994997503749373E-7 -7.621123467916022E-7 -5.671631802200707E-7 -4.916308452142073E-7 -5.175191889646279E-7 -5.47728965085291E-7 -5.765931990832168E-7 -6.548730577692993E-7 -6.88145049966212E-7 -7.958488523859548E-7 -7.648625216981937E-7 -8.928240605370426E-7 -1.1675873092600182E-6 -1.236879032612171E-6 -1.4437087144423567E-6 -1.6012656403621423E-6 -2.1985777400599553E-6 -2.4740900915165926E-6 -3.66049629008701E-6 -6.089707480901155E-6 -7.648125062141016E-6 -1.4805602439963282E-5 -1.3671754838092243E-5 -5.482756730083886E-5 4.988650819385897E-5 3.0673435271383216E-5 2.0428383195611982E-5 1.0629308191476358E-5 3.979858730934487E-7 3.749922892210529E-7 3.756495685382968E-7 3.7458100773153927E-7 3.4842993117637785E-7 3.3396023234949204E-7 3.1494188219976826E-7 3.122247543649801E-7 2.8966796375153035E-7 2.7913168274395375E-7 2.7849214881896356E-7 2.7604620130061927E-7 2.7416121063010745E-7 2.775035118069419E-7 2.7706859761313716E-7 2.7889712363634995E-7 2.770937794801804E-7 6.489983359682666E-7 5.804042747935648E-7 6.296658237540173E-7 6.181031280345E-7 6.106182234734468E-7 0:377.0 1:400.0 2:400.0 3:400.0 4:400.0 5:400.0 6:394.0 7:201.0 8:400.0 9:400.0 10:398.0 11:400.0 12:400.0 13:400.0 14:400.0 15:400.0 16:400.0 17:400.0 18:357.0 19:400.0 20:400.0 21:400.0 22:399.0 23:400.0 24:400.0 25:400.0 26:400.0 27:400.0 28:390.0 29:391.0 30:398.0 31:400.0 32:400.0 33:298.0 34:376.0 35:367.0 36:111.0 37:85.0 38:134.0 39:244.0 40:308.0 41:151.0 42:353.0 43:400.0 44:312.0 45:135.0 46:0.0 47:0.0 48:0.0 49:0.0 50:95.0 51:386.0 52:317.0 53:152.0 54:0.0 55:0.0 56:0.0 57:0.0 58:5.0 59:34.0 60:15.0 61:0.0 62:0.0 63:0.0 
-2.897583183818041E-7 -2.888215100397245E-7 -4.0993182833694757E-7 -4.3693317478484867E-7 -4.4003432267716884E-6 -1.0749786885474995E-6 -8.23830449102931E-7 -6.187711020282388E-7 -5.330018772326116E-7 -4.875185500808306E-7 -5.112424777059937E-7 -5.392851721115145E-7 -6.063384192999945E-7 -6.326561276700065E-7 -7.242480042440934E-7 -6.982581949327403E-7 -8.051270490483399E-7 -1.0258719783582047E-6 -1.0814060874511474E-6 -1.2437408740513366E-6 -1.3591711774160118E-6 -1.777070108969939E-6 -1.9734083228496015E-6 -2.7147024211073545E-6 -4.222527182518738E-6 -4.872451403387815E-6 -7.639331864035172E-6 -7.247164546871037E-6 -1.610241133609758E-5 -4.988650819385897E-5 4.758958739827726E-5 5.762360262763628E-5 2.278579078086905E-5 4.258079652915411E-7 3.9965294138570067E-7 4.0045796372731855E-7 3.9927587327622626E-7 3.6972089399991055E-7 3.532199709158676E-7 3.3066503185874917E-7 3.273499759152255E-7 3.023968274944034E-7 2.896388088198493E-7 2.8841117743286365E-7 2.838744145267622E-7 2.765487872851717E-7 2.796612575052342E-7 2.798781858184044E-7 2.816361143115926E-7 2.793967265879513E-7 6.931974111849482E-7 6.175033167646902E-7 6.691548072917799E-7 6.462304890898522E-7 6.41849347688508E-7 0:290.0 1:397.0 2:400.0 3:400.0 4:400.0 5:400.0 6:389.0 7:160.0 8:400.0 9:400.0 10:398.0 11:400.0 12:400.0 13:400.0 14:400.0 15:399.0 16:400.0 17:400.0 18:356.0 19:400.0 20:400.0 21:400.0 22:400.0 23:400.0 24:400.0 25:400.0 26:400.0 27:400.0 28:391.0 29:380.0 30:400.0 31:400.0 32:400.0 33:356.0 34:382.0 35:383.0 36:156.0 37:94.0 38:176.0 39:255.0 40:382.0 41:181.0 42:352.0 43:400.0 44:325.0 45:172.0 46:37.0 47:0.0 48:33.0 49:0.0 50:84.0 51:394.0 52:350.0 53:249.0 54:39.0 55:0.0 56:0.0 57:0.0 58:8.0 59:45.0 60:33.0 61:0.0 62:0.0 63:0.0 
-2.845396248458862E-7 -2.8384407763589675E-7 -3.988285607513611E-7 -4.241516172370976E-7 -4.250941583560759E-6 -1.04313901392069E-6 -8.201205085075201E-7 -6.296125018376815E-7 -5.412426932236414E-7 -4.792310833114484E-7 -5.037877280332178E-7 -5.297416847109928E-7 -5.943469286230943E-7 -6.203360422374405E-7 -7.069823342789222E-7 -6.816209764765785E-7 -7.839878325088394E-7 -9.936273708570085E-7 -1.0438053803992137E-6 -1.195038677426795E-6 -1.2950692182120403E-6 -1.6669778358626944E-6 -1.8418835100774053E-6 -2.4829637648682973E-6 -3.584756182808226E-6 -4.122988754548172E-6 -5.987217291083536E-6 -6.0396320656145625E-6 -1.1782934775564549E-5 -3.0673435271383216E-5 -4.758958739827726E-5 3.4817729187702375E-5 1.857320629260229E-5 4.319716937588514E-7 4.0494683048115783E-7 4.05814674989114E-7 4.0451339869730506E-7 3.7384253677582496E-7 3.563780444039916E-7 3.3190894609118304E-7 3.289927672585082E-7 3.0269669458236485E-7 2.894237890725733E-7 2.8798036204315157E-7 2.82015173262367E-7 2.730584553984271E-7 2.7531603183148895E-7 2.7655150232455366E-7 2.773104326680564E-7 2.751358620886994E-7 6.791293697305928E-7 5.999921401029646E-7 6.605859727871609E-7 6.322541282242985E-7 6.352695289794078E-7 0:371.0 1:400.0 2:400.0 3:400.0 4:400.0 5:400.0 6:392.0 7:156.0 8:400.0 9:400.0 10:397.0 11:400.0 12:400.0 13:400.0 14:400.0 15:400.0 16:400.0 17:400.0 18:365.0 19:400.0 20:400.0 21:400.0 22:398.0 23:400.0 24:400.0 25:400.0 26:400.0 27:400.0 28:372.0 29:391.0 30:385.0 31:400.0 32:400.0 33:337.0 34:400.0 35:368.0 36:105.0 37:86.0 38:149.0 39:297.0 40:334.0 41:269.0 42:363.0 43:400.0 44:327.0 45:276.0 46:41.0 47:33.0 48:33.0 49:0.0 50:156.0 51:400.0 52:331.0 53:257.0 54:50.0 55:0.0 56:0.0 57:0.0 58:8.0 59:67.0 60:18.0 61:0.0 62:0.0 63:0.0 
-2.917670345265438E-7 -2.9075168323418216E-7 -4.1524876515398464E-7 -4.4305924433144464E-7 -6.173220569170936E-6 -1.1771671942337643E-6 -8.950083593780766E-7 -6.503534183063431E-7 -5.537806884490763E-7 -4.798952676567866E-7 -5.014446620714277E-7 -5.293970194418408E-7 -5.931753984062564E-7 -6.177409645345646E-7 -7.030383560151083E-7 -6.797796154486715E-7 -7.790965285016883E-7 -9.738971223774777E-7 -1.0231571149834197E-6 -1.1587472088676607E-6 -1.262977887151663E-6 -1.6219758260722882E-6 -1.7781334044586694E-6 -2.336123833252153E-6 -3.4795800842754296E-6 -3.836422612642163E-6 -5.558195698512349E-6 -5.362735424085118E-6 -9.898490975050853E-6 -2.0428383195611982E-5 -5.762360262763628E-5 -3.4817729187702375E-5 6.396724876863046E-5 4.374836900611799E-7 4.0990242272826954E-7 4.108493817949352E-7 4.093780319560492E-7 3.7891001985867416E-7 3.619747023120048E-7 3.382778847957453E-7 3.3511205225469256E-7 3.078066223363569E-7 2.939589092478297E-7 2.924111698727602E-7 2.8734331707688517E-7 2.7965601750534807E-7 2.8301789338178224E-7 2.8309637223322836E-7 2.8497197443117456E-7 2.8257655564045414E-7 7.408979757555956E-7 6.521997883611687E-7 7.114310970089658E-7 6.862822136581828E-7 6.877077737111325E-7 0:241.0 1:392.0 2:400.0 3:400.0 4:400.0 5:400.0 6:392.0 7:143.0 8:400.0 9:400.0 10:391.0 11:400.0 12:400.0 13:400.0 14:400.0 15:398.0 16:400.0 17:400.0 18:347.0 19:400.0 20:400.0 21:400.0 22:398.0 23:400.0 24:400.0 25:400.0 26:400.0 27:400.0 28:394.0 29:382.0 30:383.0 31:400.0 32:400.0 33:365.0 34:400.0 35:392.0 36:158.0 37:89.0 38:108.0 39:189.0 40:381.0 41:204.0 42:344.0 43:400.0 44:326.0 45:260.0 46:46.0 47:0.0 48:0.0 49:0.0 50:94.0 51:399.0 52:369.0 53:279.0 54:83.0 55:0.0 56:0.0 57:0.0 58:10.0 59:141.0 60:34.0 61:0.0 62:0.0 63:0.0 
-2.906169944099821E-7 -2.8935444733445235E-7 -4.151506747859068E-7 -4.430716116707721E-7 -8.222331853313599E-6 -1.2364424089854744E-6 -9.592445757117354E-7 -6.987941956756519E-7 -5.888095566146277E-7 -4.6110551892584547E-7 -4.797663346043943E-7 -5.064148839385709E-7 -5.644933672029354E-7 -5.852777479448703E-7 -6.628124124880487E-7 -6.418316334422521E-7 -7.299659032926572E-7 -8.966683837866216E-7 -9.389891781497218E-7 -1.0520225132817842E-6 -1.1407913327237704E-6 -1.4365752047119668E-6 -1.5592657417622043E-6 -1.9821585905266696E-6 -2.82926249614513E-6 -3.0589973524377915E-6 -4.169454989691023E-6 -4.118497407405882E-6 -6.637087380573909E-6 -1.0629308191476358E-5 -2.278579078086905E-5 -1.857320629260229E-5 -6.396724876863046E-5 4.5923391975208716E-7 4.2863927604540835E-7 4.297548506429992E-7 4.2826607486005333E-7 3.946496556879079E-7 3.758638290451029E-7 3.493389371956712E-7 3.461855287871442E-7 3.164850411762863E-7 3.009886876411637E-7 2.985955260835136E-7 2.918134792439638E-7 2.8022778595809387E-7 2.8321796213630744E-7 2.8381370695326554E-7 2.8524021647450507E-7 2.8279383339766893E-7 7.704359087850111E-7 6.764620628237082E-7 7.412060534298383E-7 7.020862140808304E-7 7.067127820314035E-7 0:205.0 1:369.0 2:400.0 3:400.0 4:400.0 5:400.0 6:382.0 7:132.0 8:400.0 9:400.0 10:399.0 11:400.0 12:400.0 13:400.0 14:400.0 15:392.0 16:400.0 17:400.0 18:356.0 19:400.0 20:400.0 21:400.0 22:400.0 23:400.0 24:400.0 25:400.0 26:400.0 27:400.0 28:394.0 29:372.0 30:381.0 31:400.0 32:400.0 33:382.0 34:400.0 35:400.0 36:201.0 37:85.0 38:66.0 39:201.0 40:393.0 41:240.0 42:353.0 43:400.0 44:373.0 45:295.0 46:140.0 47:18.0 48:72.0 49:0.0 50:53.0 51:400.0 52:376.0 53:284.0 54:141.0 55:0.0 56:0.0 57:0.0 58:6.0 59:160.0 60:37.0 61:0.0 62:0.0 63:0.0 
-4.4179846435271774E-7 -4.2942405002274873E-7 -6.352112188464628E-7 -6.33058438257494E-7 -5.34577116090103E-7 -7.446346282653625E-7 -1.0391656331298473E-6 -3.1716228559829494E-6 -5.131823721855154E-6 -2.602862862834203E-7 -2.6030898416110937E-7 -2.616383953298593E-7 -2.6136783458447936E-7 -2.649283130477724E-7 -2.653482749177951E-7 -2.642442515314606E-7 -2.6896690752204955E-7 -2.775557331912248E-7 -2.8039978841031967E-7 -2.898175641906055E-7 -2.9265094935967975E-7 -3.03127074052277E-7 -3.122402551377573E-7 -3.2709925761552494E-7 -3.448838974225619E-7 -3.501719344198001E-7 -3.6110951621074786E-7 -3.6218059519672474E-7 -3.7869248844514544E-7 -3.979858730934487E-7 -4.258079652915411E-7 -4.319716937588514E-7 -4.374836900611799E-7 -4.5923391975208716E-7 3.9397222495814046E-5 5.1646223369916076E-5 3.533381622882179E-5 7.610031543580748E-6 4.036709839278397E-6 2.437579678385737E-6 2.2101645467505055E-6 1.4410540445703604E-6 1.1416939198519452E-6 1.0503114961319653E-6 9.114449227504856E-7 5.796563796981149E-7 5.452860025083156E-7 5.872450952555588E-7 5.472586582476395E-7 5.240327992129027E-7 8.741870060843415E-7 8.381351492928235E-7 9.162770198639696E-7 7.63013384017769E-7 8.14138988994062E-7 0:0.0 1:0.0 2:0.0 3:43.0 4:38.0 5:0.0 6:0.0 7:0.0 8:0.0 9:0.0 10:82.0 11:325.0 12:356.0 13:189.0 14:37.0 15:0.0 16:377.0 17:315.0 18:378.0 19:400.0 20:389.0 21:337.0 22:183.0 23:0.0 24:400.0 25:400.0 26:400.0 27:387.0 28:144.0 29:98.0 30:19.0 31:157.0 32:400.0 33:400.0 34:400.0 35:400.0 36:390.0 37:388.0 38:365.0 39:386.0 40:400.0 41:400.0 42:378.0 43:400.0 44:400.0 45:400.0 46:400.0 47:400.0 48:400.0 49:400.0 50:400.0 51:400.0 52:400.0 53:400.0 54:400.0 55:400.0 56:231.0 57:392.0 58:400.0 59:400.0 60:400.0 61:400.0 62:400.0 63:355.0 
-4.591092087665985E-7 -4.435659866504381E-7 -6.53306547764875E-7 -6.471899175577123E-7 -4.96896878990703E-7 -7.044158420305209E-7 -9.74965803074457E-7 -2.5280007685122334E-6 -4.098528628222468E-6 -2.5996173363280926E-7 -2.594979493174555E-7 -2.600196964920093E-7 -2.581995794961648E-7 -2.6210976606572325E-7 -2.603535106002281E-7 -2.597517967681162E-7 -2.6331297221890156E-7 -2.697895708794533E-7 -2.7249983445635056E-7 -2.8046447160213087E-7 -2.830736533584778E-7 -2.9148425824689126E-7 -2.998140703043008E-7 -3.126459177119071E-7 -3.283681874273075E-7 -3.32930764550531E-7 -3.4253279366149917E-7 -3.435277482821036E-7 -3.5780550015036776E-7 -3.749922892210529E-7 -3.9965294138570067E-7 -4.0494683048115783E-7 -4.0990242272826954E-7 -4.2863927604540835E-7 -3.9397222495814046E-5 1.4652014652014652E-4 7.759757895553658E-5 1.2527089831761183E-5 5.464839224430017E-6 3.1351254755593454E-6 2.7720604031961857E-6 1.6919529027989976E-6 1.299399937109043E-6 1.1736469317935085E-6 1.008675110286015E-6 6.136597594146913E-7 5.74501827921191E-7 6.207995152797384E-7 5.763811677828288E-7 5.533535159805729E-7 8.314172629660561E-7 8.159731642745733E-7 8.666250975494875E-7 7.348361958264978E-7 7.848880788843915E-7 0:0.0 1:0.0 2:0.0 3:28.0 4:29.0 5:0.0 6:0.0 7:0.0 8:0.0 9:0.0 10:17.0 11:307.0 12:350.0 13:156.0 14:0.0 15:0.0 16:351.0 17:280.0 18:359.0 19:400.0 20:388.0 21:327.0 22:86.0 23:0.0 24:400.0 25:400.0 26:368.0 27:362.0 28:133.0 29:106.0 30:50.0 31:65.0 32:400.0 33:400.0 34:400.0 35:400.0 36:393.0 37:382.0 38:376.0 39:383.0 40:400.0 41:400.0 42:361.0 43:400.0 44:400.0 45:400.0 46:399.0 47:400.0 48:400.0 49:400.0 50:400.0 51:400.0 52:400.0 53:400.0 54:400.0 55:400.0 56:371.0 57:400.0 58:400.0 59:400.0 60:400.0 61:400.0 62:400.0 63:371.0 
-4.679395871275435E-7 -4.52831282309512E-7 -6.7106212357609E-7 -6.637367115761988E-7 -5.00194825884682E-7 -7.14289285732143E-7 -9.926799778433828E-7 -2.6428353394655923E-6 -4.263083402963695E-6 -2.6410115285435246E-7 -2.6323998404765695E-7 -2.6383494380381657E-7 -2.618113575861412E-7 -2.6533338410045414E-7 -2.638369624767114E-7 -2.631596953031784E-7 -2.664082151768498E-7 -2.718698569869398E-7 -2.746994650502618E-7 -2.8236614926834693E-7 -2.850320411643274E-7 -2.9283485812443957E-7 -3.0122899925551254E-7 -3.134996229383285E-7 -3.291141990067992E-7 -3.336275372165688E-7 -3.432226651892075E-7 -3.4423230172649713E-7 -3.584269858243919E-7 -3.756495685382968E-7 -4.0045796372731855E-7 -4.05814674989114E-7 -4.108493817949352E-7 -4.297548506429992E-7 -5.1646223369916076E-5 -1.4652014652014652E-4 1.645548790521639E-4 1.596169193934557E-5 6.145261695969323E-6 3.3346282806489855E-6 2.937750535037816E-6 1.7591541986612836E-6 1.3424458558025208E-6 1.2134685299071454E-6 1.036807173046746E-6 6.26367242245965E-7 5.861130477263063E-7 6.342054927269314E-7 5.88237370249542E-7 5.635679259967685E-7 8.483933762535542E-7 8.339174229950228E-7 8.85696053028394E-7 7.49864368282387E-7 8.045233520948179E-7 0:0.0 1:0.0 2:0.0 3:33.0 4:28.0 5:0.0 6:0.0 7:0.0 8:0.0 9:0.0 10:18.0 11:303.0 12:340.0 13:148.0 14:0.0 15:0.0 16:390.0 17:287.0 18:351.0 19:400.0 20:364.0 21:286.0 22:82.0 23:0.0 24:400.0 25:398.0 26:340.0 27:341.0 28:118.0 29:79.0 30:18.0 31:99.0 32:400.0 33:400.0 34:400.0 35:400.0 36:395.0 37:388.0 38:375.0 39:383.0 40:400.0 41:400.0 42:358.0 43:400.0 44:400.0 45:400.0 46:400.0 47:400.0 48:400.0 49:400.0 50:400.0 51:400.0 52:400.0 53:400.0 54:400.0 55:400.0 56:300.0 57:400.0 58:400.0 59:400.0 60:400.0 61:400.0 62:400.0 63:362.0 
-4.760986571637375E-7 -4.605610093655081E-7 -6.70989178957511E-7 -6.608636231914227E-7 -4.961764641671281E-7 -7.002869776034219E-7 -9.716586601993066E-7 -2.479356259940669E-6 -3.824998661250468E-6 -2.6521013261832683E-7 -2.640930621696196E-7 -2.6467941830345524E-7 -2.624828303418603E-7 -2.656934845713786E-7 -2.639044317603178E-7 -2.6339175889329106E-7 -2.6640707960829635E-7 -2.715736402477566E-7 -2.7449594994950646E-7 -2.820853782172543E-7 -2.848056336832788E-7 -2.9212594951888315E-7 -3.0045860499172915E-7 -3.122960804187391E-7 -3.2793605246976837E-7 -3.324189043306704E-7 -3.420073815453159E-7 -3.430457592168677E-7 -3.575013160517197E-7 -3.7458100773153927E-7 -3.9927587327622626E-7 -4.0451339869730506E-7 -4.093780319560492E-7 -4.2826607486005333E-7 -3.533381622882179E-5 -7.759757895553658E-5 -1.645548790521639E-4 1.8520919378437945E-5 6.721152812130337E-6 3.5170091354312293E-6 3.090984679534436E-6 1.8523012064037757E-6 1.3994919844096593E-6 1.2637703577607506E-6 1.074639633032058E-6 6.412848269765441E-7 5.993229448691813E-7 6.493645643055988E-7 6.015395804020811E-7 5.754319335951548E-7 8.369114786175394E-7 8.258541913132526E-7 8.691008152600198E-7 7.447865869893976E-7 7.936029255378247E-7 0:0.0 1:0.0 2:0.0 3:13.0 4:13.0 5:0.0 6:0.0 7:0.0 8:0.0 9:0.0 10:81.0 11:261.0 12:322.0 13:149.0 14:0.0 15:0.0 16:376.0 17:283.0 18:373.0 19:400.0 20:355.0 21:259.0 22:65.0 23:0.0 24:400.0 25:394.0 26:328.0 27:330.0 28:117.0 29:74.0 30:55.0 31:59.0 32:400.0 33:400.0 34:400.0 35:400.0 36:397.0 37:378.0 38:378.0 39:382.0 40:400.0 41:400.0 42:361.0 43:400.0 44:400.0 45:400.0 46:400.0 47:400.0 48:400.0 49:400.0 50:400.0 51:400.0 52:400.0 53:400.0 54:400.0 55:400.0 56:286.0 57:400.0 58:400.0 59:400.0 60:400.0 61:400.0 62:400.0 63:371.0 
-5.397551238953912E-7 -5.1918330389564E-7 -7.508319217693204E-7 -7.30594941725921E-7 -4.597005786251183E-7 -6.74737425930699E-7 -9.212149351050139E-7 -1.91022514868715E-6 -2.698436256189538E-6 -2.7985852591797795E-7 -2.762963687473441E-7 -2.760887664036415E-7 -2.7058012107378096E-7 -2.7341195841021336E-7 -2.694739020589019E-7 -2.6935170814772754E-7 -2.7032440821256366E-7 -2.714175964641887E-7 -2.741385128698437E-7 -2.7879234960337605E-7 -2.8152174326146035E-7 -2.8520401498804137E-7 -2.9299646162823117E-7 -3.0030052575114544E-7 -3.1257990323776514E-7 -3.1543258661502826E-7 -3.2264054181671466E-7 -3.2321602530910767E-7 -3.338104040357678E-7 -3.4842993117637785E-7 -3.6972089399991055E-7 -3.7384253677582496E-7 -3.7891001985867416E-7 -3.946496556879079E-7 -7.610031543580748E-6 -1.2527089831761183E-5 -1.596169193934557E-5 -1.8520919378437945E-5 2.6532236667551075E-5 8.520536623396541E-6 6.822841508803171E-6 3.089203850383679E-6 2.0350807214768173E-6 1.7464899917391022E-6 1.42392232218948E-6 7.594770393002786E-7 7.015158705689188E-7 7.684062102589913E-7 7.043553106277356E-7 6.714261830697202E-7 8.287925859530431E-7 8.652685945139376E-7 8.668594851114717E-7 7.651680213328844E-7 8.176153593950955E-7 0:0.0 1:0.0 2:0.0 3:15.0 4:16.0 5:0.0 6:0.0 7:0.0 8:0.0 9:0.0 10:15.0 11:240.0 12:315.0 13:92.0 14:0.0 15:0.0 16:326.0 17:160.0 18:236.0 19:396.0 20:315.0 21:135.0 22:0.0 23:0.0 24:400.0 25:380.0 26:204.0 27:210.0 28:109.0 29:40.0 30:37.0 31:32.0 32:400.0 33:400.0 34:395.0 35:400.0 36:398.0 37:385.0 38:373.0 39:370.0 40:400.0 41:400.0 42:266.0 43:400.0 44:400.0 45:400.0 46:398.0 47:400.0 48:400.0 49:400.0 50:400.0 51:400.0 52:400.0 53:400.0 54:400.0 55:400.0 56:310.0 57:400.0 58:400.0 59:400.0 60:400.0 61:400.0 62:400.0 63:384.0 
-5.953887144069184E-7 -5.71346950435652E-7 -7.963920255673695E-7 -7.65733429050012E-7 -4.3935186812414324E-7 -6.618492863279145E-7 -8.941720547984402E-7 -1.5777835454531828E-6 -2.0416746632257643E-6 -2.876767342016568E-7 -2.831738120858583E-7 -2.819610219902811E-7 -2.7457162022241947E-7 -2.774871485295748E-7 -2.7190844516361207E-7 -2.720459953605276E-7 -2.72213432752938E-7 -2.7112486316667064E-7 -2.7410792944900466E-7 -2.7699281092858514E-7 -2.8011679189521277E-7 -2.825415858833182E-7 -2.895990920489266E-7 -2.9488230288924207E-7 -3.0511218517380565E-7 -3.072462334300186E-7 -3.129510896565753E-7 -3.129178431073743E-7 -3.2068976520217807E-7 -3.3396023234949204E-7 -3.532199709158676E-7 -3.563780444039916E-7 -3.619747023120048E-7 -3.758638290451029E-7 -4.036709839278397E-6 -5.464839224430017E-6 -6.145261695969323E-6 -6.721152812130337E-6 -2.6532236667551075E-5 1.7858577921440115E-5 1.2993340912782198E-5 4.813802133477105E-6 2.713866228105884E-6 2.2505238094166417E-6 1.7561529012084967E-6 8.622990358203331E-7 7.910450535755039E-7 8.755256437083414E-7 7.931245617986796E-7 7.540437481101779E-7 8.200361061897555E-7 8.811415011919641E-7 8.607500145251565E-7 7.765376902274673E-7 8.196956470062666E-7 0:0.0 1:0.0 2:0.0 3:0.0 4:0.0 5:0.0 6:0.0 7:0.0 8:0.0 9:0.0 10:0.0 11:137.0 12:277.0 13:72.0 14:0.0 15:0.0 16:218.0 17:138.0 18:41.0 19:371.0 20:329.0 21:94.0 22:0.0 23:0.0 24:400.0 25:377.0 26:146.0 27:189.0 28:102.0 29:33.0 30:33.0 31:0.0 32:400.0 33:389.0 34:386.0 35:400.0 36:397.0 37:361.0 38:366.0 39:354.0 40:400.0 41:371.0 42:233.0 43:397.0 44:400.0 45:400.0 46:398.0 47:400.0 48:400.0 49:400.0 50:400.0 51:400.0 52:400.0 53:400.0 54:400.0 55:400.0 56:281.0 57:399.0 58:400.0 59:400.0 60:400.0 61:400.0 62:400.0 63:357.0 
