svm_type c_svc
kernel_type linear
nr_class 48
total_sv 48
rho 11.812363949669194 7.099873727125809 1.14128290096992 1.4403148600771605 1.4780561158263237 1.2978865458074107 1.3195970616370243 0.49500422584759596 0.5487583042521673 0.7440460596208869 0.7266334498010203 0.7684994659543609 0.7663039471808046 0.764280035440846 0.7354098724405806 0.8275236977558759 0.8437886224284649 0.8351583030970429 0.8629833845588532 0.8794232638857602 0.9270559892561037 0.9793922322823735 0.9880766184096879 1.0022564862438277 0.9980473390666662 1.0470934628291941 1.0771355152872373 1.1162432874093016 1.0995242761107529 1.1216406173539557 1.3628801001986903 1.510911223523376 1.5336298093833323 1.5484623402982554 1.6021487411395254 1.5870465647381697 1.538747812174589 1.537117739432064 1.4400644745870024 1.4032396963004474 1.3593790588588346 1.3086839395907912 1.9157242135864614 2.2019917480225084 1.9855823975794333 2.0375207163259983 2.484524621975667 7.595024609485339 1.108279009592648 1.4045016695616521 1.4573498076061635 1.3031494667798766 1.32770160767138 0.3852933430884198 0.44948296368939067 0.6723882507727053 0.6613290777306577 0.7118323151476798 0.7075611956426018 0.7112395822177519 0.6889121599566704 0.7803502352228759 0.7962779665959691 0.7895300026816966 0.8180150078070204 0.8338541672328418 0.8807617074561722 0.9341638145349285 0.9424794335469908 0.9578473988299743 0.9527716626187664 1.0038246024110742 1.0353709614467903 1.0791656744306877 1.064209234745718 1.0870891187606424 1.3726124810943905 1.5237824945450156 1.5466470260889769 1.5616209267694876 1.6151077938944711 1.5966336256562423 1.5442373207129407 1.5427058096438393 1.4383142578346118 1.3982998068008095 1.3516984892597266 1.3005566710934273 1.9584096266787494 2.2589579928004353 2.0367728627216444 2.128184373633508 2.6103631455662093 1.0552288025211194 1.3854792830193452 1.4865084524400174 1.2863259736450772 1.26092214899958 -1.3527630471881933 -1.1056549259116708 -0.30326954160747777 -0.24539323124914647 0.01024753267312617 -0.03550836962416848 0.07104016468361474 0.14690791907212208 0.29843777088376267 0.3396539330953643 0.3392411263027315 0.4039048645799108 0.4261210720645463 0.5302219257738487 0.6263853979713455 0.6507158384113934 0.6740856095164955 0.6615125632539649 0.7731604514480469 0.8588304999192053 0.9772140915941927 0.9758107077156528 1.008123766121808 1.206297576448001 1.2793959842464846 1.2861634467017051 1.2632403846087712 1.2146745619524562 1.026611392672086 0.7869512381652493 0.7816554834768012 0.49581696211826687 0.3982525244207129 0.2716198370305207 -0.020624951410405323 -0.7612733391759328 -1.0311882857991836 -0.8390721878350389 -1.0497440354353387 -1.5553445187578516 -0.49826385691807484 0.0734319359840303 0.19560218670663615 -0.0069870543873651325 -1.43030102977313 -1.4518357575161132 -1.6147963510486099 -1.6409253142713958 -1.7867139532391636 -1.752535933023793 -1.8443571895728952 -1.9432407882315337 -2.055965078193181 -2.147954880302467 -2.1008093457425083 -2.1798452346813253 -2.216103129459868 -2.5027602352950704 -2.6029819574870183 -2.773600484863343 -2.668587497966947 -2.7022712468189143 -2.998428876253144 -3.783111088883193 -6.179517313097026 -10.080198193911436 -7.189789262418461 -0.23052402486701423 -0.3391456711419454 -0.355554420889203 -0.3856772581157504 -0.44839889662580323 -0.5293409914183012 -0.5937117592044674 -0.5949093109220239 -0.6513050666327538 -0.668523878596081 -0.6887716413553747 -0.7281708725697142 -0.8207664598356041 -0.8502119529848653 -0.827245715131296 -0.8293935800747192 -0.8716434186219586 3.311576868210249 0.7925455357585984 0.25033857373894985 -1.2983100308913884 -1.2782664806567405 -1.2467800761750758 -1.2543184520330848 -1.2660544678028691 -1.262793800090192 -1.2793434800385395 -1.29150233647574 -1.2885554865976276 -1.3030839483849759 -1.2754257913833928 -1.2591971376139899 -1.2698343966094003 -1.2681703860378106 -1.2097580226334461 -1.2111959239594028 -1.1659820930782834 -1.201022122377648 -1.0762039336051776 -0.9227698963649626 -0.4004715479414762 -0.12432685887863348 -0.09434826922541895 -0.32949903756590393 -0.5508088563876697 -0.578338928685082 -0.6324207421971 -0.7120482127997042 -0.8384556117236314 -0.9125126982023763 -0.9154079237588009 -0.9805326502604775 -0.9974635585910976 -1.0174175639685386 -1.0500927821190293 -1.139884919196584 -1.1787919513603793 -1.1471422671574096 -1.1388503155804495 -1.1935383179557668 0.881134704788348 -0.17003669222597972 -1.204097906617121 -1.1788845890213728 -1.1110419120054242 -1.1096592839183135 -1.0924162797137336 -1.0959011548042215 -1.0923326951988788 -1.0839797275074672 -1.0701886137004861 -1.0717220435604413 -1.0553692207367806 -1.0368931804706352 -1.041745576967261 -1.022217950502443 -0.9801606572293473 -0.9742022273647462 -0.9500216262123417 -0.9708724285836325 -0.8862177470964108 -0.7878262000042645 -0.5084576349818127 -0.3636369964392183 -0.34602594911777373 -1.071094768037082 -1.2248041984771072 -1.2344019422611596 -1.2636650191818248 -1.2463793733337178 -1.3173056616563896 -1.3224947030228327 -1.325695242292365 -1.3411567508817503 -1.3420606497914815 -1.3434681247919955 -1.3373077070404267 -1.3648937602259026 -1.3921585371867116 -1.3685599499647418 -1.3507433648795018 -1.388797734681954 -9.710981861017288 -0.9512766118903648 -0.9268061529006393 -0.8414042998573277 -0.8369432649716744 -0.8016647447022778 -0.808885192768366 -0.793885592592418 -0.777254463233501 -0.7524060741625354 -0.7437638109889312 -0.7386706739046449 -0.7194190003494907 -0.7183236279972272 -0.6852387288449834 -0.6538561690112323 -0.6423121410171444 -0.6332833148782482 -0.6429372999086789 -0.5850617383194043 -0.5182077720915399 -0.37505957862545364 -0.3093260633088785 -0.3031871696386796 -4.644230998516795 -2.837964774429299 -2.6671549185880066 -2.502877116310021 -2.05308491752013 -1.9164010286763022 -1.7680553640929089 -1.7720293981323494 -1.6907625750146886 -1.6621572328676313 -1.6338293159510895 -1.5736204481485223 -1.4684855278916185 -1.4582362207343005 -1.4641518110344487 -1.4464110761292677 -1.4328761268659052 -0.8890905381728862 -0.8596017943740456 -0.7516510355022101 -0.7440482276406657 -0.6964795985497878 -0.706350456755209 -0.6842081214632504 -0.6603253016292963 -0.6263589038704598 -0.6141589081042296 -0.6093231403609354 -0.5854353604817908 -0.5825061693425957 -0.540420726918683 -0.5022622821107328 -0.48758381623787356 -0.47827865439108025 -0.487995678046213 -0.42078907293345286 -0.34323828916476196 -0.18549079107725974 -0.11876185089551178 -0.11239077113487422 -8.43945190611857 -3.568078956927115 -3.2524035224477337 -2.999332809624759 -2.302971208303527 -2.153360161673847 -1.9657953373500214 -1.9725304207847958 -1.8743696943915333 -1.8374437422472127 -1.8022365762460675 -1.725437881673206 -1.5690297087829022 -1.5500345891084968 -1.562066058240497 -1.5386301089475078 -1.5139263387116186 18.334661331383103 3.8693162668210324 2.9383750640580093 2.2156720503966145 2.3752954698727162 1.9347265019067303 1.544804505456756 1.6813551580784016 1.67019205005628 1.640592801581684 1.6516599925288367 1.6690927517058867 1.6783858178231452 1.7254562467839663 1.705893189652343 1.7393243552467768 1.7282732303216377 1.7292040266059052 1.6634603526640594 1.5580234431837954 1.4762908417826295 1.519293872488822 0.8106382985020448 0.8131325366148835 0.8134464060266493 0.7985468712272145 0.7770499639401598 0.6996030077823538 0.6149397867822699 0.612354556200597 0.5149881973668973 0.48355144451948895 0.4425594973187277 0.3598008061082864 0.31610764855436946 0.31441961829353393 0.3141202747087093 0.29338698151026854 0.2825549539378618 4.72298977579479 3.3645313835576864 2.422744889262261 2.623109336007256 2.077217682762818 1.6211160765876254 1.773520405413021 1.7577218649022393 1.7271164108260884 1.7380998675618151 1.7552446031300522 1.75829555612272 1.8073376872620317 1.7821568496698832 1.8210949635271432 1.8074492421045274 1.802853759372281 1.7222738689684647 1.598365270940493 1.5081187907201024 1.55502083685057 0.774315798170389 0.7678490906003732 0.7667090575382857 0.7502072239820746 0.7236451229497805 0.643765751495225 0.5577159591994121 0.5552164847313165 0.4585790498911772 0.4274560690552206 0.3869874332536611 0.3044221481715855 0.24557555682669885 0.2387627706868849 0.24234784685612842 0.22119207969115773 0.20359343027225085 5.148794278655898 4.4342913797443515 5.2063756081908465 3.271012138639506 2.165178330620785 2.5697977866286683 2.516043422388515 2.4722581396622596 2.4882168265393894 2.5069745022966714 2.4408754943633197 2.5008045545609243 2.417981450175115 2.5055278043854763 2.4726984106015673 2.3982745965010634 2.177450059037567 1.8972269421080274 1.7402159599629246 1.8149151580571616 0.6371444665800731 0.5926454834781681 0.5854619062741497 0.5624088874765769 0.5147818907219035 0.42644993670016945 0.33564654322962933 0.33352743022629494 0.2404480857998953 0.21074648894682657 0.17258531480859796 0.09196914350022523 -0.011876803339660624 -0.03309635587481391 -0.018668334714332768 -0.04102601783083326 -0.07680766182493537 7.654040560847484 10.333570041145393 4.87675341915774 2.8139659141544104 3.219551021956735 3.0694947295400725 3.035495082952746 2.9869478025980305 2.9901084317184417 2.783536890624654 2.811670658758711 2.681619638625894 2.793267029631262 2.7551597447138843 2.610799331884461 2.3103899796897007 1.9651551591262522 1.785947589953783 1.869240506632017 0.625290969565819 0.5730820406372251 0.5647461087182675 0.5407534142723194 0.48961753988528184 0.4015203213276686 0.31160254470358534 0.30960113373500237 0.21883191693263032 0.18993118871650566 0.15295048520013343 0.07486111017728958 -0.0279509959973272 -0.0491190233506702 -0.034685918649120684 -0.0563571095371731 -0.09166035004996548 -28.653936424074015 11.911978371325045 4.021771018992752 5.3969302986776455 4.91814817104537 4.874758429094005 4.660817128347476 4.620877510914967 3.9662637696229126 3.9068748760062872 3.616163911323107 3.814440999696105 3.7527274882059123 3.3789268827491763 2.8164627168370457 2.2523772535276114 2.0003082275575323 2.1091442209527695 0.5631814384057385 0.4943306825077449 0.4835867361745214 0.4571598464442072 0.3986974928410613 0.30903536087623873 0.2193888865083089 0.21752670209069352 0.12995701088676492 0.10223553640591365 0.06687285976551993 -0.008545975122028704 -0.1202596150163312 -0.1444900072182279 -0.1277056650464478 -0.1488159029712377 -0.18733715640078896 8.592169986426455 3.586643103848541 4.5958147255617945 4.266891330917922 4.221826122147659 4.090943786033778 4.072862120962707 3.6015865692227464 3.5819738608734335 3.3459819710659 3.518038931304566 3.4625767072888607 3.1676024247279733 2.6845886475578844 2.1816589376609414 1.948482773977981 2.0509851978962237 0.5761340772594638 0.5108778580006277 0.5006370911587087 0.4746766403757761 0.41762959621340534 0.3280322782038984 0.23803828691358686 0.23614249279328847 0.14763168153156292 0.11957356980384898 0.08375394037039685 0.007465988063264484 -0.10342591473132345 -0.12729522481159944 -0.11080261764572302 -0.1321800840636827 -0.17043828568646768 6.02054061287302 8.27806048454093 6.9926592715033955 7.011529071166279 6.33105568256741 6.1857295287922085 4.842315023118397 4.638464923365479 4.201308228322494 4.4586999198101 4.388118346451728 3.805282381519425 3.0649742187996196 2.3776370368925193 2.089857649693359 2.2102137390352232 0.545597461918367 0.47020931678848105 0.45857219675515 0.43134729180978915 0.370430125811236 0.28083071671384896 0.19192332968796122 0.19012196685886545 0.1042675826816919 0.07715869298272082 0.04263340069265953 -0.03107897601426285 -0.14278828930790122 -0.16723772019452515 -0.15024925416875173 -0.1707978959871173 -0.20923475420958743 27.119722931097357 16.340022311528074 18.277824539641756 12.881231435216101 11.832405693622007 7.081499076718831 6.313131043599094 5.472603002790381 5.859079043251262 5.778772542615409 4.647597071468787 3.5263441394422106 2.6000073427246178 2.2494061121680478 2.388246580047655 0.5135799872660798 0.42846762239587705 0.4155955625369496 0.3874704654066288 0.3238010923781108 0.23552345275536846 0.14907879256602657 0.14738066989545762 0.06531502443906484 0.039521370149085244 0.0067464539103394006 -0.06322959534813494 -0.17179063286451712 -0.195733352573904 -0.17903004464570593 -0.19818914615860178 -0.23522184616376285 31.44107133036357 43.490147609294354 22.749129873090652 20.118561428355832 9.237114001815094 8.127415277107065 6.734795613160516 7.40155615337579 7.2583240326665095 5.553659310217171 4.002165138680274 2.8356555541855135 2.4125284983910813 2.580957142187371 0.46914011956474044 0.37798245518278345 0.3642067164495989 0.33465441117732475 0.26792947352741 0.17659406532826527 0.08827048624626954 0.08653635635266388 0.0034676749402360874 -0.022566340317864197 -0.05566337510805913 -0.12683739980779213 -0.24563427010875105 -0.27290919137668707 -0.2536969094179855 -0.2733939900109498 -0.31483933530686714 6.9642969984201955 40.2176332492827 36.239780315796054 12.359461550510495 10.093249909105218 8.125513876133681 8.902122592754907 8.79396795075878 6.34906512540835 4.411808250013219 3.0242476748289464 2.5495008331537425 2.7299098080198476 0.45329161425945597 0.35990874375282605 0.3458289850795588 0.3158474009739489 0.2482201344535903 0.15622975767402736 0.06767930393549215 0.06594120324247299 -0.0170280743804353 -0.042998319928515105 -0.07600032422890901 -0.14696543348260777 -0.26708861126703765 -0.29499641979709795 -0.27524975885888114 -0.2945428667382623 -0.33673607727642907 42.72975070326902 32.63395256455192 10.78885034750467 9.32345152944757 7.495696213697141 8.365225719590367 8.169142469957553 6.051088890145403 4.238684760500944 2.942976825094541 2.4857742119757518 2.6674280649496254 0.44864032754121796 0.35513428659099183 0.3410648305342698 0.31126055514208056 0.2440395681780954 0.15290956898799113 0.06531422205308673 0.06359705483154315 -0.018421728102725687 -0.04408578705787786 -0.07670364874431196 -0.14692395678796233 -0.26612239303881813 -0.29369895191264617 -0.27422820826153166 -0.2935879450800868 -0.33524127558910766 95.18694601128118 13.65238641261476 11.695451311880149 8.90539735228431 10.231165844654907 9.910423492892512 6.95366887079007 4.650218991492581 3.1252775883440425 2.6095994974347736 2.813377149081206 0.4199280984568424 0.3239759477411268 0.309568903070576 0.279335044033969 0.21134272981575442 0.1197255865157531 0.03232533070607618 0.030609987919777315 -0.0508365179318947 -0.07627844497798375 -0.1086060973198617 -0.17833371567011563 -0.29996457856268577 -0.32851523205704014 -0.3082688832098077 -0.3273618372848835 -0.3701685573762864 15.384621127286294 12.911046969299392 9.615133885671241 11.099345694784617 10.789502630493459 7.344430133095544 4.824827262990961 3.2007988343663696 2.661001515456372 2.8720696494180227 0.41488476460371815 0.3177193620562783 0.3031270393666397 0.27256041958686356 0.20384718105704375 0.11140824309932162 0.023389183632145427 0.021661282841733298 -0.060249094378627355 -0.08582239259445862 -0.11831178412110982 -0.1884095818283178 -0.3117210368445007 -0.3408588362705793 -0.32015756461115896 -0.3392728267584425 -0.38288574729168434 39.14795327791222 22.425901595783955 24.746791284503672 25.919735313431318 11.964648736886112 6.610295673470121 3.86989894374876 3.115421981231553 3.380547375739211 0.3639136916698902 0.2628852718150913 0.24772850343509434 0.2163086801859173 0.14610139498789954 0.05220492598462667 -0.036027976629122105 -0.03776374464223198 -0.11924308368789177 -0.14461412841433813 -0.17676996804936213 -0.24601979946208663 -0.37224245449791593 -0.40299407763588574 -0.3808951399854788 -0.3987630231430565 -0.4443364017221885 29.840390879478832 66.41404303510762 63.62037871956727 16.63934888309491 7.613112902255082 4.178707367657255 3.282615357348135 3.6167511405785686 0.31858119035616544 0.21468424876920073 0.19908515881339944 0.16705627192530637 0.09585695934278682 0.0010202910694720457 -0.087063240462662 -0.08879908049386381 -0.16966455122760254 -0.19479095598092044 -0.226612132189266 -0.29537802369860805 -0.42608718714097865 -0.45850036415092404 -0.4351094523986402 -0.4528429462391925 -0.5004953702116144 26.290794379122644 7.459837877671362 24.29448695310967 9.322431627438185 4.634568394508425 3.5730272391502096 3.9393935130206725 0.3010020117097338 0.19595521849042974 0.18018632409018548 0.14791535450397564 0.07632880716400836 -0.01885779386446962 -0.10684183649366391 -0.10857443665826072 -0.18914931087412312 -0.2141637293831824 -0.24578033755749684 -0.3138734459193303 -0.443989226362254 -0.4766175298911316 -0.4529580324689382 -0.4698757784407847 -0.5177486049630857 -87.97518878101437 21.471598588995477 8.347678355203005 4.391740213242558 3.3961379415241004 3.7793736942660052 0.29123701579789185 0.18624921860820914 0.17047901967843898 0.13826358659546578 0.06686373270440127 -0.028058514129661483 -0.11565071316667852 -0.11737758333332199 -0.19753861341122936 -0.22242072222581333 -0.25391181993560336 -0.32206114828701793 -0.4542980782479339 -0.4873629315042274 -0.46344627374786096 -0.48093803396673296 -0.5293504200312364 21.874190371011537 8.599831937816994 4.453237841784312 3.4457984323332975 3.8155084053784574 0.3008703074617403 0.1954774452572795 0.17965348159677264 0.14728961298971843 0.0755002575720537 -0.019923283932317404 -0.10810307943180708 -0.10984160304818913 -0.19058476359970955 -0.2156471704860511 -0.24735468255529863 -0.31583109867069215 -0.4476317117421547 -0.48062522622910436 -0.4567418004494514 -0.47411703171827346 -0.522492931772675 13.363704057279236 5.4699196294956405 3.9774632501831233 4.543863137291289 0.22493427072320915 0.11694010686749673 0.10071006800349552 0.0679815385383733 -0.004017691737004725 -0.09919793890302997 -0.18555497163723844 -0.1872561895173815 -0.26565957588983014 -0.2899289361134561 -0.3205272512406169 -0.386599641877729 -0.5198044867472632 -0.5539564792745927 -0.529038247728365 -0.5451284253349998 -0.5947350009262004 9.02840426996939 5.591858000223137 6.675614111905382 0.13815391396492926 0.027734040442162988 0.011129216112083562 -0.02179842914926533 -0.0935348684746416 -0.187748335790753 -0.27131214893732464 -0.27294798440569296 -0.34811940521545376 -0.3713148455183638 -0.40030174343930963 -0.4621740111735809 -0.5908628062821474 -0.6250579885415275 -0.5997679734396928 -0.6130413138997854 -0.6623884729276192 12.786165068437015 24.52146532800751 -0.030285276723940102 -0.140987321992592 -0.15766142761541657 -0.18966472078369367 -0.25803878641293343 -0.3470018835819351 -0.42247540845048726 -0.4239339656695549 -0.4908904091001909 -0.5114477426951847 -0.5366656670215224 -0.5892422482882389 -0.705516790217073 -0.7383486208158679 -0.7135756247036291 -0.7222616185961047 -0.7692557534861191 5.303556581986129 -0.09575991935765776 -0.2038498039440071 -0.22017149573743916 -0.25108208873913157 -0.31674664206231784 -0.4019430360294164 -0.4729832255164429 -0.47432524640104606 -0.5371348039659762 -0.5564087147126467 -0.5796885724699421 -0.6269373457333864 -0.7314669393809803 -0.7621473642216741 -0.7386949469179971 -0.7446226845682632 -0.7886432528582072 -0.10235834134010818 -0.21033755874074472 -0.22663634566473856 -0.2574797157981186 -0.3229391540860659 -0.40784370063731745 -0.478654795634547 -0.480009271041879 -0.5425720824607163 -0.5617696327775026 -0.5851309686481687 -0.6334005992238647 -0.7430649777495382 -0.7746686800287953 -0.7506720270631722 -0.7577917423050082 -0.8029249213161336 -4.123411451743312 -3.6112627907513932 -3.4405863623765462 -2.470384220207941 -2.4774115222944046 -2.2729446803328144 -2.287031380063649 -2.186848875713715 -2.1390779752185853 -2.0960172710824425 -1.9917389588834808 -1.7365757098532144 -1.703742199889172 -1.7247034991128172 -1.687237707193245 -1.6464364720683335 -28.474317213730842 -17.38923405735872 -5.7580850759540105 -5.026155307462522 -3.998674391236671 -4.025590163771951 -3.533740650059525 -3.3731156752794917 -3.2170500087852143 -2.8940768411119695 -2.2756312112468082 -2.1946302091959895 -2.245820393425417 -2.155703185491232 -2.062967207503778 -36.15689575998772 -7.1054472938459945 -5.841362673208883 -4.459438988265534 -4.488711542035095 -3.855632491169341 -3.6603409167275416 -3.469749439804441 -3.0846943279921613 -2.3767732638261294 -2.284991519693495 -2.342749313742197 -2.2400147595618103 -2.1365620726042813 -8.441141567897802 -6.945321140641106 -5.064092282069956 -5.10097749190879 -4.283860639558309 -4.040340313975781 -3.803995221508844 -3.334120686176062 -2.4912484744262717 -2.3836809268547325 -2.451241650713568 -2.3318928039422167 -2.2130848240125807 -18.76064151494296 -9.149046802124278 -9.182041101729414 -6.569898510984631 -5.988112714065884 -5.430184301325214 -4.441995322589658 -2.9459162344657033 -2.7676686962772985 -2.8785593986288385 -2.6849448564977765 -2.5019654300755256 -17.432154385842125 -17.632279303473965 -10.009642056465406 -8.705710487641483 -7.553665443901698 -5.682523734778971 -3.2283662475470942 -2.9793577615156903 -3.131715975146323 -2.860650016749498 -2.6253052744589884 -358.0420168067212 -22.502891227075267 -16.860617924929784 -12.947370481534648 -8.08959296833072 -3.5227151148588263 -3.163962232390973 -3.3808909277386823 -3.0060760410068132 -2.70032150800979 -22.53816880726353 -16.84858944268028 -12.94934412549516 -8.097137386585082 -3.5189135341947964 -3.160020237878009 -3.3771731592633465 -3.00305629720452 -2.697082955588626 -65.60479775871136 -29.964400295091565 -11.768457165031194 -3.463314238964874 -3.03920440110789 -3.290341490848486 -2.855296688190797 -2.5344380682224266 -53.51204722296757 -13.627492943117758 -3.371648840841038 -2.940818923391901 -3.1931720070652956 -2.750149856497983 -2.4395902430366823 -17.367467560424473 -3.2430918332358463 -2.8046820561091295 -3.0595020903611214 -2.616744013063882 -2.3184700933867255 -3.0886741066989174 -2.589162589054128 -2.8821162175738557 -2.449787565838678 -2.150651186331249 -11.112423418958315 -38.879527841205274 -9.824603150697328 -6.650585006500066 13.654697134566504 -3.9517449702172858 -11.795269691780845 -11.755948455835028 -7.954648158664513 -9.000949015149601
label 0 1 2 3 4 5 6 7 8 9 10 11 12 13 14 15 16 17 18 19 20 21 22 23 24 25 26 27 28 29 30 31 32 33 34 35 36 37 38 39 40 41 42 43 44 45 46 47
nr_sv 1 1 1 1 1 1 1 1 1 1 1 1 1 1 1 1 1 1 1 1 1 1 1 1 1 1 1 1 1 1 1 1 1 1 1 1 1 1 1 1 1 1 1 1 1 1 1 1
SV
3.3488496691990565E-5 1.1042664992598653E-6 8.20283847741537E-8 1.0631202675533515E-7 1.0557037323719251E-7 9.001657655257216E-8 9.499857668382484E-8 2.4730636993199694E-7 2.1802017406076637E-7 1.4734740776125948E-7 1.3833636001761022E-7 1.184990600950801E-7 1.2276225131974023E-7 1.1177256875382192E-7 9.967993768807735E-8 9.96106865731319E-8 9.81900143701086E-8 9.693707911131964E-8 9.529442785844928E-8 9.585939191019585E-8 9.368587640912341E-8 9.369126143478423E-8 9.27341151561114E-8 9.326250232806522E-8 9.358098980800082E-8 9.186709770708911E-8 8.903535798847046E-8 8.511832489860387E-8 8.189498777696834E-8 8.336402518860694E-8 1.0518001586009459E-7 1.229430173253144E-7 1.2595634718280052E-7 1.2969054215510015E-7 1.4099073768398323E-7 1.5166802599134962E-7 1.625276561122832E-7 1.627216299109693E-7 1.723274362597433E-7 1.7580292492116338E-7 1.8165522057121848E-7 2.059315917904547E-7 3.901151073635787E-7 4.7011778566060834E-7 4.107110990362048E-7 4.4443713592265373E-7 5.855508877390622E-7 0:3200.0 1:3133.0 2:2692.0 3:2039.0 
-3.3488496691990565E-5 1.2498468937555149E-6 8.172824174560082E-8 1.0643981078833475E-7 1.0678164914646758E-7 9.26481342912471E-8 9.807239684720782E-8 2.3367341383070876E-7 2.0768263766918607E-7 1.4315651380390263E-7 1.3496710109427277E-7 1.1607444132500832E-7 1.2014045380173052E-7 1.0967313184295224E-7 9.806602520698919E-8 9.809741053246392E-8 9.662750209065679E-8 9.555306087747619E-8 9.39897104764456E-8 9.452663824471217E-8 9.22975225406702E-8 9.248532246371835E-8 9.14832020602749E-8 9.215486126799836E-8 9.239144870946469E-8 9.08834411233666E-8 8.815335686881039E-8 8.456556638972008E-8 8.140327524449881E-8 8.297121583323118E-8 1.0889543979655718E-7 1.276542347186073E-7 1.3081509051488558E-7 1.347742134341049E-7 1.466843039873781E-7 1.579071117731279E-7 1.6941943601794525E-7 1.6964791780083368E-7 1.7970323807264683E-7 1.8328355046630085E-7 1.8956406236923043E-7 2.166794182504307E-7 4.29670371929119E-7 5.215564496192117E-7 4.5445724852494536E-7 5.029066748539874E-7 6.709882785057628E-7 0:3200.0 1:3086.0 2:2775.0 3:1814.0 
-1.1042664992598653E-6 -1.2498468937555149E-6 1.410022084470898E-7 1.9463072226487878E-7 1.96337789743039E-7 1.6101590732504031E-7 1.689969943884548E-7 3.0550825269443E-7 2.825965194282281E-7 2.1977821520968545E-7 2.0851948041115872E-7 1.836936269516759E-7 1.895660208215526E-7 1.739811684523079E-7 1.5493036848251513E-7 1.5890523193887106E-7 1.5696139071559248E-7 1.5518984723189033E-7 1.5378205038991824E-7 1.5525781763866988E-7 1.529836789362127E-7 1.5566597288936981E-7 1.5399921722197885E-7 1.5614224964912886E-7 1.5618021916613976E-7 1.5561486037884594E-7 1.515133953371601E-7 1.4619049498639698E-7 1.3947059750598676E-7 1.4350028036367277E-7 1.8478533026220114E-7 2.1832578617478158E-7 2.238211006895033E-7 2.2925584241320203E-7 2.4618402452780675E-7 2.544608902517814E-7 2.590263226434465E-7 2.5910004707847855E-7 2.5729104943615954E-7 2.565403026098102E-7 2.577529842318323E-7 2.766667303000146E-7 5.012238633683797E-7 5.907431726334681E-7 5.26066046540011E-7 5.689681904108946E-7 7.113599922604032E-7 0:2375.0 1:2297.0 2:2342.0 3:1483.0 
-8.20283847741537E-8 -8.172824174560082E-8 -1.410022084470898E-7 1.364088062797158E-6 8.401486895150704E-7 3.87301919274661E-7 3.096480926838671E-7 1.2007545781920274E-7 1.2739579740373734E-7 1.821815843931595E-7 1.8946992472833566E-7 2.405380451208481E-7 2.2845986182976017E-7 2.606698014816993E-7 2.973336604003598E-7 3.6676406086302884E-7 4.037629088048981E-7 3.965437248938254E-7 4.4877723909549843E-7 4.6761399026240627E-7 6.229021822443602E-7 7.523356259507641E-7 8.512348012026245E-7 8.427162768120717E-7 8.319280681715136E-7 1.1920514012564223E-6 2.0838673243351944E-6 7.731649895429435E-6 2.0688299732086518E-5 1.5679879578524836E-5 2.412165515561181E-7 2.0886653042302888E-7 2.0464924194339422E-7 1.9541839616018485E-7 1.758589456500015E-7 1.534624858267803E-7 1.3354856019294028E-7 1.3317974157669764E-7 1.1721058728071731E-7 1.1270971685684835E-7 1.071188510432037E-7 9.634026920650445E-8 9.116989482549763E-8 9.212042848343382E-8 9.111870950029634E-8 8.890705754002528E-8 9.013694099829637E-8 0:165.0 1:52.0 2:315.0 3:1872.0 
-1.0631202675533515E-7 -1.0643981078833475E-7 -1.9463072226487878E-7 -1.364088062797158E-6 7.315556530963093E-6 9.106468734533232E-7 7.304719286942522E-7 1.1244272027275905E-7 1.1587959507497815E-7 1.467077712500155E-7 1.512076272756181E-7 1.7925885426703296E-7 1.7284773031052613E-7 1.9065706047422703E-7 2.0931004814863692E-7 2.458880147296756E-7 2.6300649297279527E-7 2.585744917556755E-7 2.8031827898031984E-7 2.90320890228365E-7 3.471937716214921E-7 3.909260588769828E-7 4.186565937890201E-7 4.1621741199759177E-7 4.165976676779575E-7 5.005414607251395E-7 6.363247916274929E-7 9.227944060203107E-7 1.0193316242539768E-6 1.0116312300677033E-6 5.580945758230081E-7 4.37681008452058E-7 4.214954236134381E-7 3.93217006635537E-7 3.2595597182306195E-7 2.718687113368709E-7 2.2363372374190655E-7 2.2317806909459113E-7 1.888750338558498E-7 1.7920315168166926E-7 1.677604789695883E-7 1.4598712773099945E-7 1.31971884973569E-7 1.329852488772388E-7 1.3165119962547867E-7 1.2705422057921352E-7 1.2826931219557683E-7 0:1337.0 1:112.0 2:241.0 3:1583.0 
-1.0557037323719251E-7 -1.0678164914646758E-7 -1.96337789743039E-7 -8.401486895150704E-7 -7.315556530963093E-6 2.1098225955670517E-6 1.5462379258145968E-6 1.003491145695876E-7 1.0265752617741253E-7 1.2412395638904793E-7 1.2684698726989006E-7 1.4535718257080165E-7 1.4125181596865903E-7 1.5249957090433237E-7 1.6366999186805647E-7 1.8798020718802475E-7 1.9820110693336212E-7 1.9597573624409563E-7 2.0969778878924166E-7 2.158353426704422E-7 2.489992099255069E-7 2.763139661650785E-7 2.9117782156768686E-7 2.919502172328579E-7 2.910632379999357E-7 3.4049212348083056E-7 4.140283572162141E-7 5.734572995092926E-7 6.328028547002381E-7 6.338173902378812E-7 1.026861674544407E-6 7.157796486667173E-7 6.76463206827949E-7 6.131316865842495E-7 4.7262039177394755E-7 3.724651419185307E-7 2.9174400921911067E-7 2.9108208893314633E-7 2.3762050626949824E-7 2.229788141139346E-7 2.0613624307008602E-7 1.7490917403865108E-7 1.50153205068962E-7 1.4942523583037846E-7 1.493054980107282E-7 1.4344927070749396E-7 1.4232960833026732E-7 0:1480.0 1:203.0 2:139.0 3:1099.0 
-9.001657655257216E-8 -9.26481342912471E-8 -1.6101590732504031E-7 -3.87301919274661E-7 -9.106468734533232E-7 -2.1098225955670517E-6 1.840586779065166E-5 7.6612533910144E-8 7.78743692516791E-8 8.981012522944242E-8 9.131303904084418E-8 1.0105407994984484E-7 9.89325621737977E-8 1.0472744943104195E-7 1.1039614885242651E-7 1.2312874322922738E-7 1.2768740488884427E-7 1.2729472611584966E-7 1.341614673508007E-7 1.3697461161876184E-7 1.5150292798346195E-7 1.6491088792804477E-7 1.706749974270744E-7 1.7247743132811072E-7 1.71301896123558E-7 1.9370403766381308E-7 2.23320562374773E-7 2.8755897654884655E-7 3.117327963632005E-7 3.1464855801285593E-7 3.1794328845563815E-6 1.3331404723450008E-6 1.1894078473561545E-6 1.009780226382629E-6 6.720843385194721E-7 4.846303130929906E-7 3.571323982654794E-7 3.564014784246128E-7 2.7892333917538267E-7 2.5824268692219004E-7 2.3559135078185703E-7 1.9515688906257853E-7 1.5445317860007964E-7 1.498025116038898E-7 1.5277350754605644E-7 1.470855368585324E-7 1.4081973278751604E-7 0:1607.0 1:142.0 2:20.0 3:143.0 
-9.499857668382484E-8 -9.807239684720782E-8 -1.689969943884548E-7 -3.096480926838671E-7 -7.304719286942522E-7 -1.5462379258145968E-6 -1.840586779065166E-5 7.478185944644823E-8 7.557804926252829E-8 8.501782334903145E-8 8.613616836175468E-8 9.404992226303676E-8 9.23512053540796E-8 9.701103660609605E-8 1.0138586878691554E-7 1.1218789048397632E-7 1.1593859451467843E-7 1.1550633907451816E-7 1.2108945392591687E-7 1.235010904220026E-7 1.352628305586869E-7 1.4612101669542206E-7 1.506859563777718E-7 1.521201170868541E-7 1.5128653692787119E-7 1.688026247457727E-7 1.9144697249108025E-7 2.3882370726518433E-7 2.5557936135318026E-7 2.577938492192133E-7 9.044453488897933E-6 2.2284072904572916E-6 1.8966442672978699E-6 1.5373050120755308E-6 9.112738241150392E-7 6.28396482990564E-7 4.4443861736035014E-7 4.438236830530809E-7 3.3869189063232423E-7 3.109666429191807E-7 2.8127373686645025E-7 2.2896671671115871E-7 1.7472414333844547E-7 1.6835779263404354E-7 1.7248573154907193E-7 1.653337596739883E-7 1.5692179692405033E-7 0:1899.0 1:264.0 2:13.0 3:51.0 
-2.4730636993199694E-7 -2.3367341383070876E-7 -3.0550825269443E-7 -1.2007545781920274E-7 -1.1244272027275905E-7 -1.003491145695876E-7 -7.6612533910144E-8 -7.478185944644823E-8 3.557199767838343E-5 1.2694519712367572E-6 9.038167276592321E-7 4.941619704807405E-7 5.601324601241702E-7 4.000484058571087E-7 2.873451335443692E-7 2.6662798783323166E-7 2.533725469578508E-7 2.480528163978787E-7 2.3413235291190993E-7 2.327068283746417E-7 2.1262123928840773E-7 2.0415210679360028E-7 1.9713653272126382E-7 1.988927837620749E-7 1.994894466591652E-7 1.840296663183292E-7 1.6476010393396876E-7 1.4020539810411456E-7 1.2922212287912576E-7 1.326529387235617E-7 7.399026776411991E-8 7.903743782124767E-8 7.99510891217189E-8 8.035216747962972E-8 8.300112823433609E-8 8.267226523246821E-8 8.236510747184545E-8 8.225354309193207E-8 8.103699476573947E-8 8.085728777650463E-8 8.07338545914655E-8 8.264895180053634E-8 1.08662374321777E-7 1.1721875528217016E-7 1.1088231162120918E-7 1.1358759196406407E-7 1.2605776647571856E-7 0:677.0 1:2676.0 2:3098.0 3:3200.0 
-2.1802017406076637E-7 -2.0768263766918607E-7 -2.825965194282281E-7 -1.2739579740373734E-7 -1.1587959507497815E-7 -1.0265752617741253E-7 -7.78743692516791E-8 -7.557804926252829E-8 -3.557199767838343E-5 1.8648801115198306E-6 1.2298837144947946E-6 6.105289378505963E-7 7.041579116366319E-7 4.807476202391864E-7 3.335145985176277E-7 3.062772127303511E-7 2.892693648845215E-7 2.8320528914198E-7 2.6580669341125016E-7 2.636654854892359E-7 2.383044353459811E-7 2.277278465496897E-7 2.1899374345824626E-7 2.2128566751540785E-7 2.2182577027612316E-7 2.030032915968716E-7 1.7976243495408643E-7 1.5083170108294145E-7 1.3824512741223922E-7 1.421704090064954E-7 7.416399929662863E-8 7.857229118293963E-8 7.93786997419716E-8 7.96173209392519E-8 8.180019321205637E-8 8.100797904291178E-8 8.023998495660762E-8 8.012596442615507E-8 7.852982739536587E-8 7.821869744436831E-8 7.79229209064041E-8 7.931919384095978E-8 1.0259429685485384E-7 1.1018592883818084E-7 1.0457332618888369E-7 1.069858038932027E-7 1.1795351593481228E-7 0:502.0 1:2516.0 2:3099.0 3:3200.0 
-1.4734740776125948E-7 -1.4315651380390263E-7 -2.1977821520968545E-7 -1.821815843931595E-7 -1.467077712500155E-7 -1.2412395638904793E-7 -8.981012522944242E-8 -8.501782334903145E-8 -1.2694519712367572E-6 -1.8648801115198306E-6 2.5356898340117537E-5 3.0886456752011095E-6 4.365658854320147E-6 1.8292102933321627E-6 9.300162752848175E-7 7.887713663373678E-7 7.099801915526557E-7 6.933125154695355E-7 6.210659354650386E-7 6.07826249219703E-7 5.037135018641177E-7 4.627866326857869E-7 4.3137121261467464E-7 4.397966732020452E-7 4.403375627756238E-7 3.7778146324583035E-7 3.0893546399944146E-7 2.3525910555664362E-7 2.0775169351389864E-7 2.159295085163678E-7 8.056969542520033E-8 8.1858009832866E-8 8.215533873940108E-8 8.162604634898327E-8 8.153153066847253E-8 7.876297083371747E-8 7.597247426090559E-8 7.585860850506237E-8 7.270980386639471E-8 7.187104293759377E-8 7.091513571525927E-8 7.0456029114404E-8 8.548152684367839E-8 9.050410560562067E-8 8.678707939998017E-8 8.820769807986837E-8 9.523000068803675E-8 0:72.0 1:1589.0 2:2931.0 3:3200.0 
-1.3833636001761022E-7 -1.3496710109427277E-7 -2.0851948041115872E-7 -1.8946992472833566E-7 -1.512076272756181E-7 -1.2684698726989006E-7 -9.131303904084418E-8 -8.613616836175468E-8 -9.038167276592321E-7 -1.2298837144947946E-6 -2.5356898340117537E-5 6.209560238943878E-6 1.0442991708264583E-5 3.076511297718613E-6 1.3241849806966934E-6 1.0538895903109607E-6 9.187988542578287E-7 9.026659788351908E-7 7.853543970618321E-7 7.62502854620062E-7 5.995502174268864E-7 5.406286483986444E-7 4.963861844804363E-7 5.08424983291884E-7 5.090450950323561E-7 4.2484772926323546E-7 3.3752055711143155E-7 2.4997643972055634E-7 2.1850811834137478E-7 2.2789848991042108E-7 8.1154569834116E-8 8.143993625533309E-8 8.157267550299955E-8 8.086620645708572E-8 8.012270311245453E-8 7.704812603162625E-8 7.392795137108072E-8 7.382625301423363E-8 7.050218778864036E-8 6.959140312344311E-8 6.85681365172399E-8 6.791429297723424E-8 8.172973130247483E-8 8.636433277421064E-8 8.294931257830934E-8 8.434672763585527E-8 9.078859793261652E-8 0:83.0 1:1316.0 2:2996.0 3:3200.0 
-1.184990600950801E-7 -1.1607444132500832E-7 -1.836936269516759E-7 -2.405380451208481E-7 -1.7925885426703296E-7 -1.4535718257080165E-7 -1.0105407994984484E-7 -9.404992226303676E-8 -4.941619704807405E-7 -6.105289378505963E-7 -3.0886456752011095E-6 -6.209560238943878E-6 1.1786892811219261E-4 3.378949145850768E-5 4.506524320585127E-6 2.961602819445884E-6 2.3329246826930814E-6 2.28841592417105E-6 1.8130607456937541E-6 1.7185541116836761E-6 1.1630977013700127E-6 9.845654595730038E-7 8.672556778145157E-7 8.951273296248208E-7 8.978276610826275E-7 6.878030847280546E-7 5.018141837277217E-7 3.3978967698573935E-7 2.8819780975428543E-7 3.026269380039968E-7 8.701389037537619E-8 8.516708717915961E-8 8.497985340125489E-8 8.381500419326466E-8 8.173004191198279E-8 7.767302189920947E-8 7.35629884007719E-8 7.346334876798292E-8 6.944817246092447E-8 6.831133958673552E-8 6.700600068888869E-8 6.556980620581497E-8 7.637398031666867E-8 8.021144378272677E-8 7.736080219438557E-8 7.82919361458798E-8 8.354970618492575E-8 0:21.0 1:805.0 2:2757.0 3:3200.0 
-1.2276225131974023E-7 -1.2014045380173052E-7 -1.895660208215526E-7 -2.2845986182976017E-7 -1.7284773031052613E-7 -1.4125181596865903E-7 -9.89325621737977E-8 -9.23512053540796E-8 -5.601324601241702E-7 -7.041579116366319E-7 -4.365658854320147E-6 -1.0442991708264583E-5 -1.1786892811219261E-4 1.4425226835942231E-5 3.158554708536468E-6 2.2251445787690053E-6 1.814735470547297E-6 1.7788925504427218E-6 1.4538909392789718E-6 1.3891464597949758E-6 9.858753636647748E-7 8.505784571442424E-7 7.582510030712957E-7 7.810160002842898E-7 7.828772225395049E-7 6.143840201173903E-7 4.5846039372120153E-7 3.17478156709123E-7 2.712310880733452E-7 2.843632757910027E-7 8.579275421851552E-8 8.447968749274003E-8 8.43717598607596E-8 8.331326872111633E-8 8.154718495447914E-8 7.770016825971437E-8 7.38005501019204E-8 7.369956020524443E-8 6.982266509342238E-8 6.873183847083207E-8 6.748292892782279E-8 6.620779369015891E-8 7.767536582864139E-8 8.169040984813834E-8 7.87129302438928E-8 7.973790151771128E-8 8.525648518374435E-8 0:29.0 1:925.0 2:2807.0 3:3200.0 
-1.1177256875382192E-7 -1.0967313184295224E-7 -1.739811684523079E-7 -2.606698014816993E-7 -1.9065706047422703E-7 -1.5249957090433237E-7 -1.0472744943104195E-7 -9.701103660609605E-8 -4.000484058571087E-7 -4.807476202391864E-7 -1.8292102933321627E-6 -3.076511297718613E-6 -3.378949145850768E-5 -1.4425226835942231E-5 1.1151255631384095E-5 5.632232138079803E-6 3.98303228247665E-6 3.944259721614149E-6 2.854198954792343E-6 2.647681028571126E-6 1.5837231271880124E-6 1.2829081989380086E-6 1.1006464096363794E-6 1.140681374612311E-6 1.1465457443088336E-6 8.344730844878964E-7 5.826918381771534E-7 3.788335827636781E-7 3.17211633609778E-7 3.3402465302354107E-7 8.915309507673875E-8 8.624986906191754E-8 8.59059996793129E-8 8.454712354410382E-8 8.185053919656575E-8 7.744628316119155E-8 7.298042190711708E-8 7.288587504175905E-8 6.865375580154272E-8 6.744190006762736E-8 6.604934744895954E-8 6.436316270927079E-8 7.409298150528042E-8 7.764417932062974E-8 7.500031406381514E-8 7.579843226102554E-8 8.063745195973401E-8 0:39.0 1:573.0 2:2686.0 3:3200.0 
-9.967993768807735E-8 -9.806602520698919E-8 -1.5493036848251513E-7 -2.973336604003598E-7 -2.0931004814863692E-7 -1.6366999186805647E-7 -1.1039614885242651E-7 -1.0138586878691554E-7 -2.873451335443692E-7 -3.335145985176277E-7 -9.300162752848175E-7 -1.3241849806966934E-6 -4.506524320585127E-6 -3.158554708536468E-6 -1.1151255631384095E-5 2.916514764855997E-5 1.3440679560758592E-5 1.476690441382773E-5 7.675362852778865E-6 6.586790849630151E-6 2.8127377642391335E-6 2.0525914993975645E-6 1.6698867649784668E-6 1.7391637057404577E-6 1.757880137184966E-6 1.1560600087629349E-6 7.470865492296417E-7 4.532546060299633E-7 3.719062744121603E-7 3.9299633373720255E-7 9.204134589298859E-8 8.723208029538527E-8 8.661540391729424E-8 8.493511403197306E-8 8.123884362192823E-8 7.631410504064203E-8 7.133318367631398E-8 7.124690454464412E-8 6.672645579527442E-8 6.54134004256777E-8 6.389897622977254E-8 6.182209178447768E-8 6.963408610797893E-8 7.266076566790448E-8 7.039522236073265E-8 7.09537741128419E-8 7.503910193803114E-8 0:45.0 1:177.0 2:2536.0 3:3200.0 
-9.96106865731319E-8 -9.809741053246392E-8 -1.5890523193887106E-7 -3.6676406086302884E-7 -2.458880147296756E-7 -1.8798020718802475E-7 -1.2312874322922738E-7 -1.1218789048397632E-7 -2.6662798783323166E-7 -3.062772127303511E-7 -7.887713663373678E-7 -1.0538895903109607E-6 -2.961602819445884E-6 -2.2251445787690053E-6 -5.632232138079803E-6 -2.916514764855997E-5 1.099928504647198E-4 1.4125291334133767E-4 3.0397446614484382E-5 2.321774764630083E-5 5.817606404021129E-6 3.7875559848119005E-6 2.869090570016569E-6 3.034620467604668E-6 3.07884143196915E-6 1.7971050434854493E-6 1.0559076714332098E-6 5.89970153409939E-7 4.713399393196962E-7 5.014339758123293E-7 1.0089000114510151E-7 9.492407734983367E-8 9.415152388478227E-8 9.213822318254822E-8 8.76754374544033E-8 8.18941393769461E-8 7.609350842094518E-8 7.59942113689316E-8 7.079777338170803E-8 6.928800271996984E-8 6.752907827433898E-8 6.495706175825126E-8 7.231097450282499E-8 7.531304053581312E-8 7.304665394827026E-8 7.343216004774266E-8 7.746031185366631E-8 0:67.0 1:128.0 2:2309.0 3:3081.0 
-9.81900143701086E-8 -9.662750209065679E-8 -1.5696139071559248E-7 -4.037629088048981E-7 -2.6300649297279527E-7 -1.9820110693336212E-7 -1.2768740488884427E-7 -1.1593859451467843E-7 -2.533725469578508E-7 -2.892693648845215E-7 -7.099801915526557E-7 -9.187988542578287E-7 -2.3329246826930814E-6 -1.814735470547297E-6 -3.98303228247665E-6 -1.3440679560758592E-5 -1.099928504647198E-4 3.15955766192733E-4 8.694896095991653E-5 6.241028521500344E-5 9.493115118260482E-6 5.426554300815611E-6 3.941523556515535E-6 4.13438401812514E-6 4.244932611694789E-6 2.2638929450304154E-6 1.2589289536034324E-6 6.689936495777814E-7 5.275629204511613E-7 5.61558932521394E-7 1.0386663814488783E-7 9.737531176531849E-8 9.653400914862459E-8 9.43886201304026E-8 8.960764976921774E-8 8.352194328166818E-8 7.74203298353796E-8 7.731623891908496E-8 7.188890949304912E-8 7.031205862703823E-8 6.846049596617066E-8 6.565409019893748E-8 7.252399456360136E-8 7.545609151556239E-8 7.322561966722983E-8 7.347170946112102E-8 7.740399089558779E-8 0:74.0 1:93.0 2:2179.0 3:3084.0 
-9.693707911131964E-8 -9.555306087747619E-8 -1.5518984723189033E-7 -3.965437248938254E-7 -2.585744917556755E-7 -1.9597573624409563E-7 -1.2729472611584966E-7 -1.1550633907451816E-7 -2.480528163978787E-7 -2.8320528914198E-7 -6.933125154695355E-7 -9.026659788351908E-7 -2.28841592417105E-6 -1.7788925504427218E-6 -3.944259721614149E-6 -1.476690441382773E-5 -1.4125291334133767E-4 -3.15955766192733E-4 9.700261907071492E-5 5.8418039490594695E-5 8.429464349687899E-6 5.0727946025465426E-6 3.6753085421521136E-6 3.925216770096129E-6 3.985731082723849E-6 2.17473566088042E-6 1.2171832189383972E-6 6.542055769062814E-7 5.167329764258665E-7 5.512053206747194E-7 1.0332269781143412E-7 9.665999599924277E-8 9.579354727959977E-8 9.36346552720782E-8 8.88051002900419E-8 8.272171995661907E-8 7.66474703077281E-8 7.654599662332645E-8 7.115149986472321E-8 6.958231164755363E-8 6.774887362416435E-8 6.499555934089693E-8 7.18317063571563E-8 7.470303768323768E-8 7.252855240588632E-8 7.283305810934559E-8 7.667191447585296E-8 0:52.0 1:51.0 2:2228.0 3:3043.0 
-9.529442785844928E-8 -9.39897104764456E-8 -1.5378205038991824E-7 -4.4877723909549843E-7 -2.8031827898031984E-7 -2.0969778878924166E-7 -1.341614673508007E-7 -1.2108945392591687E-7 -2.3413235291190993E-7 -2.6580669341125016E-7 -6.210659354650386E-7 -7.853543970618321E-7 -1.8130607456937541E-6 -1.4538909392789718E-6 -2.854198954792343E-6 -7.675362852778865E-6 -3.0397446614484382E-5 -8.694896095991653E-5 -9.700261907071492E-5 8.058017727639E-4 1.6264526255011508E-5 8.369251370464912E-6 5.569448234763382E-6 6.051620321341039E-6 6.1590007637160945E-6 2.9691828511875247E-6 1.528736422909644E-6 7.701427960265252E-7 5.971544990963559E-7 6.395837077562956E-7 1.0762898459317992E-7 1.0019186240691613E-7 9.92235213723248E-8 9.686683730405837E-8 9.158811268726621E-8 8.503355445317111E-8 7.85287296964951E-8 7.842008928205585E-8 7.26849119605821E-8 7.101756992434321E-8 6.905810749433085E-8 6.602448392539854E-8 7.236248685264068E-8 7.513979288843188E-8 7.302406109952402E-8 7.321120143095686E-8 7.691152540358843E-8 0:38.0 1:12.0 2:2102.0 3:2988.0 
-9.585939191019585E-8 -9.452663824471217E-8 -1.5525781763866988E-7 -4.6761399026240627E-7 -2.90320890228365E-7 -2.158353426704422E-7 -1.3697461161876184E-7 -1.235010904220026E-7 -2.327068283746417E-7 -2.636654854892359E-7 -6.07826249219703E-7 -7.62502854620062E-7 -1.7185541116836761E-6 -1.3891464597949758E-6 -2.647681028571126E-6 -6.586790849630151E-6 -2.321774764630083E-5 -6.241028521500344E-5 -5.8418039490594695E-5 -8.058017727639E-4 2.1329920546045965E-5 1.009224310195184E-5 6.493000545412046E-6 7.058308688072164E-6 7.236570733860638E-6 3.3026189768486408E-6 1.6502222024195557E-6 8.124014709341033E-7 6.25833727869346E-7 6.709446094968184E-7 1.0965635507648887E-7 1.0198255618971142E-7 1.0098217790787648E-7 9.855471967465117E-8 9.310609425474414E-8 8.637278814944617E-8 7.968785946695356E-8 7.957665537646343E-8 7.369590761834761E-8 7.198624112576115E-8 6.997368359733588E-8 6.683202915640836E-8 7.311504835646511E-8 7.591204814919026E-8 7.377587472089204E-8 7.392210664993662E-8 7.764805591591803E-8 0:61.0 1:14.0 2:2059.0 3:2978.0 
-9.368587640912341E-8 -9.22975225406702E-8 -1.529836789362127E-7 -6.229021822443602E-7 -3.471937716214921E-7 -2.489992099255069E-7 -1.5150292798346195E-7 -1.352628305586869E-7 -2.1262123928840773E-7 -2.383044353459811E-7 -5.037135018641177E-7 -5.995502174268864E-7 -1.1630977013700127E-6 -9.858753636647748E-7 -1.5837231271880124E-6 -2.8127377642391335E-6 -5.817606404021129E-6 -9.493115118260482E-6 -8.429464349687899E-6 -1.6264526255011508E-5 -2.1329920546045965E-5 7.015328492756673E-5 2.9524217239190447E-5 2.9071035074203816E-5 3.367513596336145E-5 7.962892918997472E-6 3.001304066616945E-6 1.2023349344426878E-6 8.82390572539123E-7 9.4976096890815E-7 1.1883943781815546E-7 1.098027623959358E-7 1.086281728252504E-7 1.0581037574428341E-7 9.951475609779156E-8 9.181567892277438E-8 8.42248427659051E-8 8.409453605002414E-8 7.749065423964542E-8 7.557670124477094E-8 7.32854815781369E-8 6.948886423578405E-8 7.467698005545885E-8 7.732858205904207E-8 7.526283097676628E-8 7.508433378515332E-8 7.861146370536235E-8 0:57.0 1:2.0 2:1757.0 3:2929.0 
-9.369126143478423E-8 -9.248532246371835E-8 -1.5566597288936981E-7 -7.523356259507641E-7 -3.909260588769828E-7 -2.763139661650785E-7 -1.6491088792804477E-7 -1.4612101669542206E-7 -2.0415210679360028E-7 -2.277278465496897E-7 -4.627866326857869E-7 -5.406286483986444E-7 -9.845654595730038E-7 -8.505784571442424E-7 -1.2829081989380086E-6 -2.0525914993975645E-6 -3.7875559848119005E-6 -5.426554300815611E-6 -5.0727946025465426E-6 -8.369251370464912E-6 -1.009224310195184E-5 -7.015328492756673E-5 1.4806040864672785E-4 2.2650056625141563E-4 3.0057108506161706E-4 1.761679937988866E-5 4.62960819625835E-6 1.570577430645264E-6 1.1042811323077875E-6 1.2050486719158588E-6 1.272189772548371E-7 1.1692249015205712E-7 1.1558029949976268E-7 1.1239964187226106E-7 1.0532533864861166E-7 9.671463761049467E-8 8.831788432741736E-8 8.81732707050348E-8 8.091438105454499E-8 7.881456898341698E-8 7.629760675007978E-8 7.207057871773828E-8 7.687307985460226E-8 7.946989447947676E-8 7.743675362827005E-8 7.7159725802112E-8 8.059059041190375E-8 0:57.0 1:0.0 2:1653.0 3:2796.0 
-9.27341151561114E-8 -9.14832020602749E-8 -1.5399921722197885E-7 -8.512348012026245E-7 -4.186565937890201E-7 -2.9117782156768686E-7 -1.706749974270744E-7 -1.506859563777718E-7 -1.9713653272126382E-7 -2.1899374345824626E-7 -4.3137121261467464E-7 -4.963861844804363E-7 -8.672556778145157E-7 -7.582510030712957E-7 -1.1006464096363794E-6 -1.6698867649784668E-6 -2.869090570016569E-6 -3.941523556515535E-6 -3.6753085421521136E-6 -5.569448234763382E-6 -6.493000545412046E-6 -2.9524217239190447E-5 -1.4806040864672785E-4 2.8677946659019213E-4 7.369196757553427E-4 3.269897325223988E-5 6.4609082744852275E-6 1.8846784126107603E-6 1.2893967106200514E-6 1.4070317820338927E-6 1.3071962920592858E-7 1.1988089832751163E-7 1.1847025285994595E-7 1.1513355117752552E-7 1.0772361631842584E-7 9.873578210908615E-8 8.998450016984574E-8 8.983194464375907E-8 8.229670686847081E-8 8.011956723736235E-8 7.749289409534369E-8 7.299387555836209E-8 7.729243368135282E-8 7.982170067077767E-8 7.782191707210913E-8 7.74038441071099E-8 8.074824228235553E-8 0:61.0 1:0.0 2:1537.0 3:2790.0 
-9.326250232806522E-8 -9.215486126799836E-8 -1.5614224964912886E-7 -8.427162768120717E-7 -4.1621741199759177E-7 -2.919502172328579E-7 -1.7247743132811072E-7 -1.521201170868541E-7 -1.988927837620749E-7 -2.2128566751540785E-7 -4.397966732020452E-7 -5.08424983291884E-7 -8.951273296248208E-7 -7.810160002842898E-7 -1.140681374612311E-6 -1.7391637057404577E-6 -3.034620467604668E-6 -4.13438401812514E-6 -3.925216770096129E-6 -6.051620321341039E-6 -7.058308688072164E-6 -2.9071035074203816E-5 -2.2650056625141563E-4 -2.8677946659019213E-4 0.0010787486515641855 3.2967395246101606E-5 6.177873328885264E-6 1.8550896703969428E-6 1.2674953974073382E-6 1.395574076374187E-6 1.3172319293067968E-7 1.2071322442948366E-7 1.1927736286815777E-7 1.1589061386273093E-7 1.083892111330244E-7 9.92629675031408E-8 9.042191407639531E-8 9.026854123735512E-8 8.26501164767429E-8 8.044941941866364E-8 7.78076784040587E-8 7.333450106303859E-8 7.784469827005727E-8 8.038707017385271E-8 7.83891991598716E-8 7.804748299599E-8 8.139390977395568E-8 0:47.0 1:0.0 2:1590.0 3:2727.0 
-9.358098980800082E-8 -9.239144870946469E-8 -1.5618021916613976E-7 -8.319280681715136E-7 -4.165976676779575E-7 -2.910632379999357E-7 -1.71301896123558E-7 -1.5128653692787119E-7 -1.994894466591652E-7 -2.2182577027612316E-7 -4.403375627756238E-7 -5.090450950323561E-7 -8.978276610826275E-7 -7.828772225395049E-7 -1.1465457443088336E-6 -1.757880137184966E-6 -3.07884143196915E-6 -4.244932611694789E-6 -3.985731082723849E-6 -6.1590007637160945E-6 -7.236570733860638E-6 -3.367513596336145E-5 -3.0057108506161706E-4 -7.369196757553427E-4 -0.0010787486515641855 2.9848073306868042E-5 6.002220821704031E-6 1.8184248258630927E-6 1.2480429127075105E-6 1.367728981766805E-6 1.3123939134582517E-7 1.2033383735161107E-7 1.1891135937028349E-7 1.15557019791393E-7 1.080986480156142E-7 9.906389081059079E-8 9.027706120360448E-8 9.012551916242029E-8 8.25576389571996E-8 8.037016246466677E-8 7.774114701309572E-8 7.327663700098656E-8 7.778945397481939E-8 8.035665820604806E-8 7.833575684581075E-8 7.797249068150764E-8 8.135971942938036E-8 0:70.0 1:0.0 2:1580.0 3:2762.0 
-9.186709770708911E-8 -9.08834411233666E-8 -1.5561486037884594E-7 -1.1920514012564223E-6 -5.005414607251395E-7 -3.4049212348083056E-7 -1.9370403766381308E-7 -1.688026247457727E-7 -1.840296663183292E-7 -2.030032915968716E-7 -3.7778146324583035E-7 -4.2484772926323546E-7 -6.878030847280546E-7 -6.143840201173903E-7 -8.344730844878964E-7 -1.1560600087629349E-6 -1.7971050434854493E-6 -2.2638929450304154E-6 -2.17473566088042E-6 -2.9691828511875247E-6 -3.3026189768486408E-6 -7.962892918997472E-6 -1.761679937988866E-5 -3.269897325223988E-5 -3.2967395246101606E-5 -2.9848073306868042E-5 1.909307875894988E-5 3.1874084616132432E-6 1.9611669335488E-6 2.2091733715078492E-6 1.4421826453653405E-7 1.3115633920885315E-7 1.2945279591177714E-7 1.254840311217965E-7 1.1675094041423117E-7 1.0621145287655399E-7 9.612703225763659E-8 9.59494231400744E-8 8.734904174825613E-8 8.487317677033034E-8 8.187944774277604E-8 7.66610876560125E-8 8.012706871064408E-8 8.250765516338063E-8 8.060408895676828E-8 8.000805841164323E-8 8.31232082532701E-8 0:51.0 1:0.0 2:1379.0 3:2600.0 
-8.903535798847046E-8 -8.815335686881039E-8 -1.515133953371601E-7 -2.0838673243351944E-6 -6.363247916274929E-7 -4.140283572162141E-7 -2.23320562374773E-7 -1.9144697249108025E-7 -1.6476010393396876E-7 -1.7976243495408643E-7 -3.0893546399944146E-7 -3.3752055711143155E-7 -5.018141837277217E-7 -4.5846039372120153E-7 -5.826918381771534E-7 -7.470865492296417E-7 -1.0559076714332098E-6 -1.2589289536034324E-6 -1.2171832189383972E-6 -1.528736422909644E-6 -1.6502222024195557E-6 -3.001304066616945E-6 -4.62960819625835E-6 -6.4609082744852275E-6 -6.177873328885264E-6 -6.002220821704031E-6 -1.909307875894988E-5 8.884663737689188E-6 4.210145186856769E-6 4.919782939176723E-6 1.6068977048117668E-7 1.4468587935990098E-7 1.4260272940198047E-7 1.3781689358103348E-7 1.273733070256505E-7 1.1490876272966455E-7 1.0315133518056745E-7 1.0293951505709154E-7 9.30481970585883E-8 9.021365435080382E-8 8.674776889075801E-8 8.047753113605262E-8 8.221070505051601E-8 8.430864738199097E-8 8.257466824698067E-8 8.159368125477374E-8 8.432929391799001E-8 0:57.0 1:0.0 2:1084.0 3:2467.0 
-8.511832489860387E-8 -8.456556638972008E-8 -1.4619049498639698E-7 -7.731649895429435E-6 -9.227944060203107E-7 -5.734572995092926E-7 -2.8755897654884655E-7 -2.3882370726518433E-7 -1.4020539810411456E-7 -1.5083170108294145E-7 -2.3525910555664362E-7 -2.4997643972055634E-7 -3.3978967698573935E-7 -3.17478156709123E-7 -3.788335827636781E-7 -4.532546060299633E-7 -5.89970153409939E-7 -6.689936495777814E-7 -6.542055769062814E-7 -7.701427960265252E-7 -8.124014709341033E-7 -1.2023349344426878E-6 -1.570577430645264E-6 -1.8846784126107603E-6 -1.8550896703969428E-6 -1.8184248258630927E-6 -3.1874084616132432E-6 -8.884663737689188E-6 4.0980247520695025E-5 7.197092374680629E-5 1.9361140448616984E-7 1.7099860277041677E-7 1.68058357928674E-7 1.615064025175618E-7 1.474073552142846E-7 1.3094069761275467E-7 1.1586056389684031E-7 1.155852758691117E-7 1.0318331888938841E-7 9.965607691296566E-8 9.531019967343866E-8 8.717796134163047E-8 8.600345020041168E-8 8.758476343924696E-8 8.61856324758495E-8 8.467785896267506E-8 8.67161445863371E-8 0:78.0 1:0.0 2:713.0 3:2172.0 
-8.189498777696834E-8 -8.140327524449881E-8 -1.3947059750598676E-7 -2.0688299732086518E-5 -1.0193316242539768E-6 -6.328028547002381E-7 -3.117327963632005E-7 -2.5557936135318026E-7 -1.2922212287912576E-7 -1.3824512741223922E-7 -2.0775169351389864E-7 -2.1850811834137478E-7 -2.8819780975428543E-7 -2.712310880733452E-7 -3.17211633609778E-7 -3.719062744121603E-7 -4.713399393196962E-7 -5.275629204511613E-7 -5.167329764258665E-7 -5.971544990963559E-7 -6.25833727869346E-7 -8.82390572539123E-7 -1.1042811323077875E-6 -1.2893967106200514E-6 -1.2674953974073382E-6 -1.2480429127075105E-6 -1.9611669335488E-6 -4.210145186856769E-6 -4.0980247520695025E-5 1.8475750577367207E-4 2.044269473148827E-7 1.793659878680433E-7 1.7611704879956859E-7 1.689245972964294E-7 1.5357241691962602E-7 1.356963495646522E-7 1.1948786782921191E-7 1.1918546271074225E-7 1.0595488716387268E-7 1.0220330915918462E-7 9.754576322902228E-8 8.866215807771221E-8 8.589968300010484E-8 8.71811534572253E-8 8.597946604000246E-8 8.421876379740216E-8 8.588105199479354E-8 0:62.0 1:0.0 2:511.0 3:2084.0 
-8.336402518860694E-8 -8.297121583323118E-8 -1.4350028036367277E-7 -1.5679879578524836E-5 -1.0116312300677033E-6 -6.338173902378812E-7 -3.1464855801285593E-7 -2.577938492192133E-7 -1.326529387235617E-7 -1.421704090064954E-7 -2.159295085163678E-7 -2.2789848991042108E-7 -3.026269380039968E-7 -2.843632757910027E-7 -3.3402465302354107E-7 -3.9299633373720255E-7 -5.014339758123293E-7 -5.61558932521394E-7 -5.512053206747194E-7 -6.395837077562956E-7 -6.709446094968184E-7 -9.4976096890815E-7 -1.2050486719158588E-6 -1.4070317820338927E-6 -1.395574076374187E-6 -1.367728981766805E-6 -2.2091733715078492E-6 -4.919782939176723E-6 -7.197092374680629E-5 -1.8475750577367207E-4 2.0589584820287412E-7 1.8051510888897012E-7 1.7721907299006766E-7 1.6994670896073762E-7 1.5442557046543016E-7 1.3636688747420365E-7 1.2005008009141094E-7 1.197499596891698E-7 1.0642481839535958E-7 1.0264679376837474E-7 9.798825218844513E-8 8.921402842421396E-8 8.6968523395359E-8 8.832343441081888E-8 8.708256807712416E-8 8.543085299374911E-8 8.716381624281154E-8 0:65.0 1:0.0 2:607.0 3:2044.0 
-1.0518001586009459E-7 -1.0889543979655718E-7 -1.8478533026220114E-7 -2.412165515561181E-7 -5.580945758230081E-7 -1.026861674544407E-6 -3.1794328845563815E-6 -9.044453488897933E-6 -7.399026776411991E-8 -7.416399929662863E-8 -8.056969542520033E-8 -8.1154569834116E-8 -8.701389037537619E-8 -8.579275421851552E-8 -8.915309507673875E-8 -9.204134589298859E-8 -1.0089000114510151E-7 -1.0386663814488783E-7 -1.0332269781143412E-7 -1.0762898459317992E-7 -1.0965635507648887E-7 -1.1883943781815546E-7 -1.272189772548371E-7 -1.3071962920592858E-7 -1.3172319293067968E-7 -1.3123939134582517E-7 -1.4421826453653405E-7 -1.6068977048117668E-7 -1.9361140448616984E-7 -2.044269473148827E-7 -2.0589584820287412E-7 6.172115616069721E-6 4.6196844755503195E-6 3.3799998648000054E-6 1.549712450854744E-6 9.934896622433196E-7 6.512755067981765E-7 6.51335955177665E-7 4.7529488482892E-7 4.2990450101414474E-7 3.828829130650945E-7 3.0165748722933026E-7 2.1580595160443633E-7 2.0592313177783119E-7 2.1232094178775508E-7 2.0150696987420423E-7 1.8892980898629523E-7 0:2299.0 1:509.0 2:1.0 3:20.0 
-1.229430173253144E-7 -1.276542347186073E-7 -2.1832578617478158E-7 -2.0886653042302888E-7 -4.37681008452058E-7 -7.157796486667173E-7 -1.3331404723450008E-6 -2.2284072904572916E-6 -7.903743782124767E-8 -7.857229118293963E-8 -8.1858009832866E-8 -8.143993625533309E-8 -8.516708717915961E-8 -8.447968749274003E-8 -8.624986906191754E-8 -8.723208029538527E-8 -9.492407734983367E-8 -9.737531176531849E-8 -9.665999599924277E-8 -1.0019186240691613E-7 -1.0198255618971142E-7 -1.098027623959358E-7 -1.1692249015205712E-7 -1.1988089832751163E-7 -1.2071322442948366E-7 -1.2033383735161107E-7 -1.3115633920885315E-7 -1.4468587935990098E-7 -1.7099860277041677E-7 -1.793659878680433E-7 -1.8051510888897012E-7 -6.172115616069721E-6 2.5056376847907793E-4 4.970425965505244E-5 6.218093408199178E-6 2.753190259212863E-6 1.4170056262208389E-6 1.4158550277719963E-6 8.984927783642938E-7 7.830553095456791E-7 6.693496431529715E-7 4.876633367388489E-7 3.0839873056914524E-7 2.885541532464939E-7 3.012491900162403E-7 2.7977877891950836E-7 2.5638165999433394E-7 0:2395.0 1:1070.0 2:0.0 3:10.0 
-1.2595634718280052E-7 -1.3081509051488558E-7 -2.238211006895033E-7 -2.0464924194339422E-7 -4.214954236134381E-7 -6.76463206827949E-7 -1.1894078473561545E-6 -1.8966442672978699E-6 -7.99510891217189E-8 -7.93786997419716E-8 -8.215533873940108E-8 -8.157267550299955E-8 -8.497985340125489E-8 -8.43717598607596E-8 -8.59059996793129E-8 -8.661540391729424E-8 -9.415152388478227E-8 -9.653400914862459E-8 -9.579354727959977E-8 -9.92235213723248E-8 -1.0098217790787648E-7 -1.086281728252504E-7 -1.1558029949976268E-7 -1.1847025285994595E-7 -1.1927736286815777E-7 -1.1891135937028349E-7 -1.2945279591177714E-7 -1.4260272940198047E-7 -1.68058357928674E-7 -1.7611704879956859E-7 -1.7721907299006766E-7 -4.6196844755503195E-6 -2.5056376847907793E-4 1.5306903413439462E-4 8.746457684637721E-6 3.4121424501230078E-6 1.6465960331854963E-6 1.6444690749368112E-6 1.0095065229263978E-6 8.727579938086547E-7 7.394100764586989E-7 5.299307539483816E-7 3.2714404070326154E-7 3.0499214187746453E-7 3.191154629950518E-7 2.9507320692495505E-7 2.6933168574163443E-7 0:2401.0 1:1159.0 2:0.0 3:15.0 
-1.2969054215510015E-7 -1.347742134341049E-7 -2.2925584241320203E-7 -1.9541839616018485E-7 -3.93217006635537E-7 -6.131316865842495E-7 -1.009780226382629E-6 -1.5373050120755308E-6 -8.035216747962972E-8 -7.96173209392519E-8 -8.162604634898327E-8 -8.086620645708572E-8 -8.381500419326466E-8 -8.331326872111633E-8 -8.454712354410382E-8 -8.493511403197306E-8 -9.213822318254822E-8 -9.43886201304026E-8 -9.36346552720782E-8 -9.686683730405837E-8 -9.855471967465117E-8 -1.0581037574428341E-7 -1.1239964187226106E-7 -1.1513355117752552E-7 -1.1589061386273093E-7 -1.15557019791393E-7 -1.254840311217965E-7 -1.3781689358103348E-7 -1.615064025175618E-7 -1.689245972964294E-7 -1.6994670896073762E-7 -3.3799998648000054E-6 -4.970425965505244E-5 -1.5306903413439462E-4 1.4650512035395638E-5 4.70639175063654E-6 2.0485275695961637E-6 2.0458181431336205E-6 1.1955701733935423E-6 1.0208602585226518E-6 8.536068517314775E-7 5.970070840860597E-7 3.544239821696383E-7 3.2852277434854753E-7 3.449940160787911E-7 3.170411689054265E-7 2.875400004083068E-7 0:2446.0 1:1264.0 2:0.0 3:11.0 
-1.4099073768398323E-7 -1.466843039873781E-7 -2.4618402452780675E-7 -1.758589456500015E-7 -3.2595597182306195E-7 -4.7262039177394755E-7 -6.720843385194721E-7 -9.112738241150392E-7 -8.300112823433609E-8 -8.180019321205637E-8 -8.153153066847253E-8 -8.012270311245453E-8 -8.173004191198279E-8 -8.154718495447914E-8 -8.185053919656575E-8 -8.123884362192823E-8 -8.76754374544033E-8 -8.960764976921774E-8 -8.88051002900419E-8 -9.158811268726621E-8 -9.310609425474414E-8 -9.951475609779156E-8 -1.0532533864861166E-7 -1.0772361631842584E-7 -1.083892111330244E-7 -1.080986480156142E-7 -1.1675094041423117E-7 -1.273733070256505E-7 -1.474073552142846E-7 -1.5357241691962602E-7 -1.5442557046543016E-7 -1.549712450854744E-6 -6.218093408199178E-6 -8.746457684637721E-6 -1.4650512035395638E-5 2.0855492293895596E-5 4.82570750904217E-6 4.789294967887777E-6 2.184908834678873E-6 1.770785927918388E-6 1.3994557516581802E-6 8.86880990326789E-7 4.5653021967549377E-7 4.143471856503283E-7 4.4088794832793245E-7 3.960676031949189E-7 3.5137750523376793E-7 0:2463.0 1:1633.0 2:0.0 3:3.0 
-1.5166802599134962E-7 -1.579071117731279E-7 -2.544608902517814E-7 -1.534624858267803E-7 -2.718687113368709E-7 -3.724651419185307E-7 -4.846303130929906E-7 -6.28396482990564E-7 -8.267226523246821E-8 -8.100797904291178E-8 -7.876297083371747E-8 -7.704812603162625E-8 -7.767302189920947E-8 -7.770016825971437E-8 -7.744628316119155E-8 -7.631410504064203E-8 -8.18941393769461E-8 -8.352194328166818E-8 -8.272171995661907E-8 -8.503355445317111E-8 -8.637278814944617E-8 -9.181567892277438E-8 -9.671463761049467E-8 -9.873578210908615E-8 -9.92629675031408E-8 -9.906389081059079E-8 -1.0621145287655399E-7 -1.1490876272966455E-7 -1.3094069761275467E-7 -1.356963495646522E-7 -1.3636688747420365E-7 -9.934896622433196E-7 -2.753190259212863E-6 -3.4121424501230078E-6 -4.70639175063654E-6 -2.0855492293895596E-5 1.7496128981462853E-5 1.7326518236160443E-5 4.749781510050538E-6 3.507455095806136E-6 2.5342279157876063E-6 1.3829441498005104E-6 5.813434673126555E-7 5.154567436432586E-7 5.563093547312164E-7 4.865504086901795E-7 4.220141129959668E-7 0:2641.0 1:1886.0 2:3.0 3:17.0 
-1.625276561122832E-7 -1.6941943601794525E-7 -2.590263226434465E-7 -1.3354856019294028E-7 -2.2363372374190655E-7 -2.9174400921911067E-7 -3.571323982654794E-7 -4.4443861736035014E-7 -8.236510747184545E-8 -8.023998495660762E-8 -7.597247426090559E-8 -7.392795137108072E-8 -7.35629884007719E-8 -7.38005501019204E-8 -7.298042190711708E-8 -7.133318367631398E-8 -7.609350842094518E-8 -7.74203298353796E-8 -7.66474703077281E-8 -7.85287296964951E-8 -7.968785946695356E-8 -8.42248427659051E-8 -8.831788432741736E-8 -8.998450016984574E-8 -9.042191407639531E-8 -9.027706120360448E-8 -9.612703225763659E-8 -1.0315133518056745E-7 -1.1586056389684031E-7 -1.1948786782921191E-7 -1.2005008009141094E-7 -6.512755067981765E-7 -1.4170056262208389E-6 -1.6465960331854963E-6 -2.0485275695961637E-6 -4.82570750904217E-6 -1.7496128981462853E-5 0.01680672268907563 2.0253779861666683E-5 1.1348483558884444E-5 6.524859715516116E-6 2.5989315792277796E-6 7.730436584136526E-7 6.614060633078042E-7 7.297243356863295E-7 6.156069915717247E-7 5.168523587978738E-7 0:2776.0 1:2195.0 2:25.0 3:6.0 
-1.627216299109693E-7 -1.6964791780083368E-7 -2.5910004707847855E-7 -1.3317974157669764E-7 -2.2317806909459113E-7 -2.9108208893314633E-7 -3.564014784246128E-7 -4.438236830530809E-7 -8.225354309193207E-8 -8.012596442615507E-8 -7.585860850506237E-8 -7.382625301423363E-8 -7.346334876798292E-8 -7.369956020524443E-8 -7.288587504175905E-8 -7.124690454464412E-8 -7.59942113689316E-8 -7.731623891908496E-8 -7.654599662332645E-8 -7.842008928205585E-8 -7.957665537646343E-8 -8.409453605002414E-8 -8.81732707050348E-8 -8.983194464375907E-8 -9.026854123735512E-8 -9.012551916242029E-8 -9.59494231400744E-8 -1.0293951505709154E-7 -1.155852758691117E-7 -1.1918546271074225E-7 -1.197499596891698E-7 -6.51335955177665E-7 -1.4158550277719963E-6 -1.6444690749368112E-6 -2.0458181431336205E-6 -4.789294967887777E-6 -1.7326518236160443E-5 -0.01680672268907563 2.0682095509917066E-5 1.1505361498458281E-5 6.5966759349963556E-6 2.6192821071600694E-6 7.758364195459572E-7 6.635369838926397E-7 7.322890403425355E-7 6.17683347720208E-7 5.183460820552215E-7 0:2786.0 1:2192.0 2:28.0 3:5.0 
-1.723274362597433E-7 -1.7970323807264683E-7 -2.5729104943615954E-7 -1.1721058728071731E-7 -1.888750338558498E-7 -2.3762050626949824E-7 -2.7892333917538267E-7 -3.3869189063232423E-7 -8.103699476573947E-8 -7.852982739536587E-8 -7.270980386639471E-8 -7.050218778864036E-8 -6.944817246092447E-8 -6.982266509342238E-8 -6.865375580154272E-8 -6.672645579527442E-8 -7.079777338170803E-8 -7.188890949304912E-8 -7.115149986472321E-8 -7.26849119605821E-8 -7.369590761834761E-8 -7.749065423964542E-8 -8.091438105454499E-8 -8.229670686847081E-8 -8.26501164767429E-8 -8.25576389571996E-8 -8.734904174825613E-8 -9.30481970585883E-8 -1.0318331888938841E-7 -1.0595488716387268E-7 -1.0642481839535958E-7 -4.7529488482892E-7 -8.984927783642938E-7 -1.0095065229263978E-6 -1.1955701733935423E-6 -2.184908834678873E-6 -4.749781510050538E-6 -2.0253779861666683E-5 -2.0682095509917066E-5 1.751006828926633E-4 3.431296858647726E-5 5.879482370372112E-6 1.005054923738945E-6 8.275247988494095E-7 9.34209247924187E-7 7.569590080203591E-7 6.161262418024404E-7 0:2955.0 1:2452.0 2:49.0 3:15.0 
-1.7580292492116338E-7 -1.8328355046630085E-7 -2.565403026098102E-7 -1.1270971685684835E-7 -1.7920315168166926E-7 -2.229788141139346E-7 -2.5824268692219004E-7 -3.109666429191807E-7 -8.085728777650463E-8 -7.821869744436831E-8 -7.187104293759377E-8 -6.959140312344311E-8 -6.831133958673552E-8 -6.873183847083207E-8 -6.744190006762736E-8 -6.54134004256777E-8 -6.928800271996984E-8 -7.031205862703823E-8 -6.958231164755363E-8 -7.101756992434321E-8 -7.198624112576115E-8 -7.557670124477094E-8 -7.881456898341698E-8 -8.011956723736235E-8 -8.044941941866364E-8 -8.037016246466677E-8 -8.487317677033034E-8 -9.021365435080382E-8 -9.965607691296566E-8 -1.0220330915918462E-7 -1.0264679376837474E-7 -4.2990450101414474E-7 -7.830553095456791E-7 -8.727579938086547E-7 -1.0208602585226518E-6 -1.770785927918388E-6 -3.507455095806136E-6 -1.1348483558884444E-5 -1.1505361498458281E-5 -1.751006828926633E-4 1.0732492621411322E-4 8.376121353246166E-6 1.0978183604631695E-6 8.917042965879826E-7 1.0145455393983542E-6 8.094881727706797E-7 6.525000212062507E-7 0:3000.0 1:2548.0 2:58.0 3:25.0 
-1.8165522057121848E-7 -1.8956406236923043E-7 -2.577529842318323E-7 -1.071188510432037E-7 -1.677604789695883E-7 -2.0613624307008602E-7 -2.3559135078185703E-7 -2.8127373686645025E-7 -8.07338545914655E-8 -7.79229209064041E-8 -7.091513571525927E-8 -6.85681365172399E-8 -6.700600068888869E-8 -6.748292892782279E-8 -6.604934744895954E-8 -6.389897622977254E-8 -6.752907827433898E-8 -6.846049596617066E-8 -6.774887362416435E-8 -6.905810749433085E-8 -6.997368359733588E-8 -7.32854815781369E-8 -7.629760675007978E-8 -7.749289409534369E-8 -7.78076784040587E-8 -7.774114701309572E-8 -8.187944774277604E-8 -8.674776889075801E-8 -9.531019967343866E-8 -9.754576322902228E-8 -9.798825218844513E-8 -3.828829130650945E-7 -6.693496431529715E-7 -7.394100764586989E-7 -8.536068517314775E-7 -1.3994557516581802E-6 -2.5342279157876063E-6 -6.524859715516116E-6 -6.5966759349963556E-6 -3.431296858647726E-5 -1.0732492621411322E-4 1.5391956162797863E-5 1.2606143730208355E-6 1.001895084552431E-6 1.1550551856491323E-6 9.027006094131814E-7 7.155248499991592E-7 0:3068.0 1:2659.0 2:99.0 3:28.0 
-2.059315917904547E-7 -2.166794182504307E-7 -2.766667303000146E-7 -9.634026920650445E-8 -1.4598712773099945E-7 -1.7490917403865108E-7 -1.9515688906257853E-7 -2.2896671671115871E-7 -8.264895180053634E-8 -7.931919384095978E-8 -7.0456029114404E-8 -6.791429297723424E-8 -6.556980620581497E-8 -6.620779369015891E-8 -6.436316270927079E-8 -6.182209178447768E-8 -6.495706175825126E-8 -6.565409019893748E-8 -6.499555934089693E-8 -6.602448392539854E-8 -6.683202915640836E-8 -6.948886423578405E-8 -7.207057871773828E-8 -7.299387555836209E-8 -7.333450106303859E-8 -7.327663700098656E-8 -7.66610876560125E-8 -8.047753113605262E-8 -8.717796134163047E-8 -8.866215807771221E-8 -8.921402842421396E-8 -3.0165748722933026E-7 -4.876633367388489E-7 -5.299307539483816E-7 -5.970070840860597E-7 -8.86880990326789E-7 -1.3829441498005104E-6 -2.5989315792277796E-6 -2.6192821071600694E-6 -5.879482370372112E-6 -8.376121353246166E-6 -1.5391956162797863E-5 2.1385548288033394E-6 1.5494411165892463E-6 1.8955728895165342E-6 1.3837105443586468E-6 1.0183537903637254E-6 0:3200.0 1:2898.0 2:334.0 3:15.0 
-3.901151073635787E-7 -4.29670371929119E-7 -5.012238633683797E-7 -9.116989482549763E-8 -1.31971884973569E-7 -1.50153205068962E-7 -1.5445317860007964E-7 -1.7472414333844547E-7 -1.08662374321777E-7 -1.0259429685485384E-7 -8.548152684367839E-8 -8.172973130247483E-8 -7.637398031666867E-8 -7.767536582864139E-8 -7.409298150528042E-8 -6.963408610797893E-8 -7.231097450282499E-8 -7.252399456360136E-8 -7.18317063571563E-8 -7.236248685264068E-8 -7.311504835646511E-8 -7.467698005545885E-8 -7.687307985460226E-8 -7.729243368135282E-8 -7.784469827005727E-8 -7.778945397481939E-8 -8.012706871064408E-8 -8.221070505051601E-8 -8.600345020041168E-8 -8.589968300010484E-8 -8.6968523395359E-8 -2.1580595160443633E-7 -3.0839873056914524E-7 -3.2714404070326154E-7 -3.544239821696383E-7 -4.5653021967549377E-7 -5.813434673126555E-7 -7.730436584136526E-7 -7.758364195459572E-7 -1.005054923738945E-6 -1.0978183604631695E-6 -1.2606143730208355E-6 -2.1385548288033394E-6 4.900759614798016E-5 5.104644894794782E-4 3.0121389198469834E-5 9.961796510382683E-6 0:3200.0 1:3131.0 2:1223.0 3:316.0 
-4.7011778566060834E-7 -5.215564496192117E-7 -5.907431726334681E-7 -9.212042848343382E-8 -1.329852488772388E-7 -1.4942523583037846E-7 -1.498025116038898E-7 -1.6835779263404354E-7 -1.1721875528217016E-7 -1.1018592883818084E-7 -9.050410560562067E-8 -8.636433277421064E-8 -8.021144378272677E-8 -8.169040984813834E-8 -7.764417932062974E-8 -7.266076566790448E-8 -7.531304053581312E-8 -7.545609151556239E-8 -7.470303768323768E-8 -7.513979288843188E-8 -7.591204814919026E-8 -7.732858205904207E-8 -7.946989447947676E-8 -7.982170067077767E-8 -8.038707017385271E-8 -8.035665820604806E-8 -8.250765516338063E-8 -8.430864738199097E-8 -8.758476343924696E-8 -8.71811534572253E-8 -8.832343441081888E-8 -2.0592313177783119E-7 -2.885541532464939E-7 -3.0499214187746453E-7 -3.2852277434854753E-7 -4.143471856503283E-7 -5.154567436432586E-7 -6.614060633078042E-7 -6.635369838926397E-7 -8.275247988494095E-7 -8.917042965879826E-7 -1.001895084552431E-6 -1.5494411165892463E-6 -4.900759614798016E-5 9.067827348567283E-5 3.9748787646274564E-5 2.675513698630137E-5 0:3200.0 1:3133.0 2:1345.0 3:477.0 
-4.107110990362048E-7 -4.5445724852494536E-7 -5.26066046540011E-7 -9.111870950029634E-8 -1.3165119962547867E-7 -1.493054980107282E-7 -1.5277350754605644E-7 -1.7248573154907193E-7 -1.1088231162120918E-7 -1.0457332618888369E-7 -8.678707939998017E-8 -8.294931257830934E-8 -7.736080219438557E-8 -7.87129302438928E-8 -7.500031406381514E-8 -7.039522236073265E-8 -7.304665394827026E-8 -7.322561966722983E-8 -7.252855240588632E-8 -7.302406109952402E-8 -7.377587472089204E-8 -7.526283097676628E-8 -7.743675362827005E-8 -7.782191707210913E-8 -7.83891991598716E-8 -7.833575684581075E-8 -8.060408895676828E-8 -8.257466824698067E-8 -8.61856324758495E-8 -8.597946604000246E-8 -8.708256807712416E-8 -2.1232094178775508E-7 -3.012491900162403E-7 -3.191154629950518E-7 -3.449940160787911E-7 -4.4088794832793245E-7 -5.563093547312164E-7 -7.297243356863295E-7 -7.322890403425355E-7 -9.34209247924187E-7 -1.0145455393983542E-6 -1.1550551856491323E-6 -1.8955728895165342E-6 -5.104644894794782E-4 -9.067827348567283E-5 4.702341763599902E-5 1.3449537333482963E-5 0:3200.0 1:3130.0 2:1279.0 3:344.0 
-4.4443713592265373E-7 -5.029066748539874E-7 -5.689681904108946E-7 -8.890705754002528E-8 -1.2705422057921352E-7 -1.4344927070749396E-7 -1.470855368585324E-7 -1.653337596739883E-7 -1.1358759196406407E-7 -1.069858038932027E-7 -8.820769807986837E-8 -8.434672763585527E-8 -7.82919361458798E-8 -7.973790151771128E-8 -7.579843226102554E-8 -7.09537741128419E-8 -7.343216004774266E-8 -7.347170946112102E-8 -7.283305810934559E-8 -7.321120143095686E-8 -7.392210664993662E-8 -7.508433378515332E-8 -7.7159725802112E-8 -7.74038441071099E-8 -7.804748299599E-8 -7.797249068150764E-8 -8.000805841164323E-8 -8.159368125477374E-8 -8.467785896267506E-8 -8.421876379740216E-8 -8.543085299374911E-8 -2.0150696987420423E-7 -2.7977877891950836E-7 -2.9507320692495505E-7 -3.170411689054265E-7 -3.960676031949189E-7 -4.865504086901795E-7 -6.156069915717247E-7 -6.17683347720208E-7 -7.569590080203591E-7 -8.094881727706797E-7 -9.027006094131814E-7 -1.3837105443586468E-6 -3.0121389198469834E-5 -3.9748787646274564E-5 -4.702341763599902E-5 2.6361575363164455E-5 0:3200.0 1:3126.0 2:1480.0 3:298.0 
-5.855508877390622E-7 -6.709882785057628E-7 -7.113599922604032E-7 -9.013694099829637E-8 -1.2826931219557683E-7 -1.4232960833026732E-7 -1.4081973278751604E-7 -1.5692179692405033E-7 -1.2605776647571856E-7 -1.1795351593481228E-7 -9.523000068803675E-8 -9.078859793261652E-8 -8.354970618492575E-8 -8.525648518374435E-8 -8.063745195973401E-8 -7.503910193803114E-8 -7.746031185366631E-8 -7.740399089558779E-8 -7.667191447585296E-8 -7.691152540358843E-8 -7.764805591591803E-8 -7.861146370536235E-8 -8.059059041190375E-8 -8.074824228235553E-8 -8.139390977395568E-8 -8.135971942938036E-8 -8.31232082532701E-8 -8.432929391799001E-8 -8.67161445863371E-8 -8.588105199479354E-8 -8.716381624281154E-8 -1.8892980898629523E-7 -2.5638165999433394E-7 -2.6933168574163443E-7 -2.875400004083068E-7 -3.5137750523376793E-7 -4.220141129959668E-7 -5.168523587978738E-7 -5.183460820552215E-7 -6.161262418024404E-7 -6.525000212062507E-7 -7.155248499991592E-7 -1.0183537903637254E-6 -9.961796510382683E-6 -2.675513698630137E-5 -1.3449537333482963E-5 -2.6361575363164455E-5 0:3200.0 1:3138.0 2:1611.0 3:540.0 
