svm_type c_svc
kernel_type linear
nr_class 51
total_sv 51
rho -1.6251437332311234 -1.3095539346697747 -1.2192658932084943 -0.9201449477305585 -0.9457757831274262 -1.0311978044475292 -1.115486611766789 -1.138029431877031 -0.1422805157335626 -0.17551999413628333 -0.24012416956159033 -0.33233056891373786 -0.34547609549841635 -0.4124118964904885 -0.3987328359556306 -0.4375934375320986 -0.5076389943739036 -0.5348537193513276 -0.5595770272462053 -0.5637916388382149 -0.6015505353382864 -0.6163969996781609 -0.655466064597165 -0.6943494101509988 -0.7029893415832993 -0.7154465809039232 -0.7113502554930132 -0.730800853185603 -0.7689848577251975 -0.7952918794371321 -0.8069257950898334 -0.8135140398187571 -0.8526761040211097 -1.1582502699476582 -1.1755500427963015 -1.1724531144629116 -1.1772843518376512 -1.1883859533027659 -1.1990618843361334 -1.228032929825709 -1.2274842569950877 -1.2628575549221486 -1.297903970306934 -1.3262286776159824 -1.3831650292370212 -1.5615826800757724 -1.6901849822421444 -1.561999558469232 -1.6076787808989845 -1.7678787765021173 -1.2786555834443778 -1.2028553562821376 -0.9083140258518188 -0.9335098734351797 -1.019019927251013 -1.1226006759281955 -1.1428802035678807 -0.11192489258455213 -0.14618113358056722 -0.21259655498820673 -0.3071508515486994 -0.3218518996291695 -0.38922276181482984 -0.3752388852931605 -0.4157320016766155 -0.4872691860318348 -0.5153284174205328 -0.5416306028660309 -0.5451096859293697 -0.5861514824718204 -0.6030919526763766 -0.6414137442275158 -0.6796930425104014 -0.6889309680898061 -0.7011103465135363 -0.6958185487446351 -0.7162689293500677 -0.7551930357225005 -0.7824323549165507 -0.7943113872535296 -0.8009122080541607 -0.8406363253664368 -1.162665107111816 -1.179003832564762 -1.1759638508727175 -1.1808137049041134 -1.1911299038575494 -1.2029728881237145 -1.224949712525555 -1.221990756456984 -1.2486897636825613 -1.2668091529129608 -1.3064990276333046 -1.3446266696935485 -1.492058573937755 -1.574569100382266 -1.4990583320323227 -1.5572262519429012 -1.6218578900860217 -2.191761562025718 -0.9205282652311876 -0.9623557506685161 -1.1224106026993776 -1.3209889424452965 -1.3603484865959339 0.4687133735164212 0.4294359016264267 0.34025923284678183 0.20643849864003894 0.17326721245969695 0.05942087974879895 0.08572073864363206 0.010577739934325092 -0.13845647395259753 -0.18479590938008983 -0.23918940152723478 -0.24748169543599552 -0.3542851048387926 -0.3781954657397866 -0.46593727538696705 -0.5375724994282278 -0.5554601104321685 -0.579284969595528 -0.5698948052434074 -0.6112952386342638 -0.6765036583862153 -0.7215788660271798 -0.7441120714071731 -0.7512435720542672 -0.814067091303492 -1.1607577713921762 -1.156977809740634 -1.1623259022743633 -1.1195765121419157 -1.085992758664066 -0.9696078737864005 -0.8750320415316035 -0.850197056369457 -0.6087467010288252 -0.4015947727028757 -0.3036298437254139 -0.11401344143265257 0.36733860909189353 0.5045228664093417 0.3680042310967051 0.4247652380209259 0.5866580084607382 -0.9970192182380804 -1.0483807366003939 -1.230116494306064 -1.4153110965452955 -1.4319472919540608 0.5439860601994182 0.5066172596846267 0.41157063152378853 0.27394426763198193 0.2371069646676689 0.11664722362559127 0.14499580959798392 0.06490674480965647 -0.09475051271826129 -0.1423548573100104 -0.20207483254606817 -0.21184887307880707 -0.337912513683029 -0.36502735571946077 -0.4681441021365813 -0.5536351253445762 -0.5761175642803238 -0.604815250505818 -0.5931407359782614 -0.6442915305815673 -0.7210851347513634 -0.7711606243379023 -0.7974739877461186 -0.8053914646944607 -0.8778895029888791 -1.1660489476561267 -1.1598938883142929 -1.1620528144071438 -1.1065353680869998 -1.0572632573892837 -0.924928332082259 -0.797419472774219 -0.7700804253682676 -0.5101437804600244 -0.2997819978608147 -0.20446359719451146 -0.025657776464593773 0.4210636162702108 0.5387115301795364 0.421439578101219 0.47200973533060875 0.6083907524575853 1.1285290455809829 0.048982603754060605 -0.35628165443491966 -0.14092982476706872 1.115165784332383 1.1167332063175968 1.0898445842910582 1.1858716341478348 1.1546491667862608 1.1982444986617784 1.1987122961168295 1.195158224720053 1.170073112500756 1.343790350897914 1.3244232953852069 1.3538691050402933 1.379327440099798 1.3848657164604772 1.2784901304517646 1.365011967725903 1.3340156199600584 1.3185026053735944 1.3761706569964698 1.3059757613261516 1.5008076576036533 1.863549448655629 1.5373044524669055 1.9334064997797782 2.0077412194922317 0.2475993141579198 0.3265694289140635 0.34929183172957323 0.39588014011518435 0.4544374593390361 0.49417829636092625 0.5661559452864384 0.5818565225922887 0.6453900709219857 0.6839752297826891 0.7000020099488364 0.6984050140339508 0.8129734319486961 0.8364902322233494 0.808641718554574 0.8093404225559762 0.8377466330363236 -1.7632912627222126 -1.3054827844311365 -0.6953497782981 0.9552947865311103 0.9422345511959234 0.9060437693085552 0.9489402334631934 0.9195946852961656 0.9249167894731904 0.9314464977619928 0.9123335663374735 0.8521752174147925 0.9433400839054649 0.9082326312156335 0.9166719661130358 0.861304927745381 0.851675213432153 0.7228904492871595 0.6871659506060119 0.6456329773356373 0.6085625475134506 0.6457468479680708 0.535824878219274 0.4467352551526611 0.3039681780716492 0.04430053011638613 0.15669732071001619 -0.34256027188727955 0.10274731187028685 0.24457579911466532 0.27580732190955004 0.3467842245235948 0.43362550367431174 0.49315075108332396 0.5877118911398966 0.60699749853462 0.6837599108369354 0.7266673924991769 0.7432647362591251 0.7355108039345176 0.8606153643236806 0.8841889096060228 0.8549383868645346 0.8535553279373485 0.8810452665276132 -1.731265311362236 -0.569569331165301 0.9321353856027126 0.9210231855380326 0.8857406009950539 0.9174496380433445 0.8883595196036915 0.8869646098058248 0.8942045652758768 0.8742709073222755 0.8184979640428465 0.8908269175635604 0.8611013114524237 0.8658320975004334 0.8166215205371326 0.808558593983999 0.7079945772247092 0.6817861889355483 0.6535615847147689 0.6260737715063742 0.653698655022394 0.5745030637461372 0.5342324618655132 0.4922525855801334 0.34657921810699577 0.4213737221463232 0.19579705035857664 0.5292793748784614 0.6366943743015083 0.688954327027008 0.7613555494127402 0.8319007107201095 0.828699532584098 0.906051060682131 0.9299909905135406 0.9570137310616187 0.969769806387089 0.9716649889269178 0.9261281130874219 1.027155682085045 1.0421171542659544 1.0169367371220779 1.0084327108088789 1.0257357864979424 3.073481456917051 0.9080250039988766 0.8950948598257635 0.8624126540410838 0.8895801596578443 0.8657507044005801 0.8654184579504779 0.8712652778568049 0.8542126777913639 0.8069586113246793 0.867922799146468 0.8439091461988748 0.8464405109007762 0.8036049002855987 0.7981356874899943 0.7191775052027347 0.6990826183401273 0.6786200610925959 0.6569144811267797 0.6777449829457622 0.6190079580011418 0.5997356856455496 0.593743935838682 0.501818585064477 0.5551113414721307 0.44022691784782 1.8627280815624054 1.5922303965548181 1.6967015826821878 1.7111389594158446 1.6539965227285922 1.4199342787163838 1.4210973789101962 1.4573398609228891 1.3546033732654723 1.305152662505184 1.2798526533428416 1.1733854315058272 1.233732476918675 1.2395781960893273 1.2183393481208036 1.2002875528692472 1.205398574147532 0.8515399619369117 0.8363342489434018 0.8004074200835101 0.8119807478348816 0.7887390861109291 0.777366627847519 0.7851413919255742 0.7628388491046886 0.7069918232634969 0.7518005965426366 0.7248077477021377 0.7258815391190558 0.6752508656269072 0.6665998194627876 0.5866007326475682 0.5558147898009842 0.5341851938491362 0.5123638213112267 0.5301307679493585 0.4718795432275087 0.43366678000055137 0.3981419395049257 0.3114980772914593 0.35480790710916255 0.2364789371647973 2.417749624897148 1.9522445970033875 2.1099832236513194 2.1024538079596162 1.986807048585037 1.6256709435328354 1.6156922497667932 1.6549647303772606 1.4904618572854673 1.4075843302602289 1.3680349476877924 1.2364914154939513 1.290955629930448 1.2941421431882825 1.2726043290257594 1.2504358791127752 1.2536855121400015 -3.986255924170621 -4.761039217623235 -2.4280719292551947 -2.109540466632615 -1.718251542876128 -1.7880684383780858 -1.610536932712077 -1.3783755175575294 -1.357220586605885 -1.3200362066271119 -1.332535639266578 -1.276109044372605 -1.2601019988881637 -1.2301862807412114 -1.2144330892288075 -1.2081888028181558 -1.204835128839243 -1.2020172176765915 -1.1963156623774722 -1.1819175586635895 -1.162721965860418 -1.1622635416227425 -1.158500651952913 -1.1421732687539192 -0.7018707715710963 -0.678853041577852 -0.6783196964753324 -0.6578615055806594 -0.6370693600139363 -0.5886908914582889 -0.5481924348807673 -0.5470714120499233 -0.47044243402394276 -0.4234502972466331 -0.4011302623052281 -0.3437299798791515 -0.20042042516051461 -0.16311996717344157 -0.20128454097374954 -0.18279863771833976 -0.1362608860181745 -6.702664341619695 -2.824043033972658 -2.3139445704548267 -1.8085782078347732 -1.8989702037529375 -1.6891619465343557 -1.4165899596609677 -1.3904257338972745 -1.3459287391491646 -1.360733365940804 -1.29806922433283 -1.2796166852256414 -1.2456616568685208 -1.227406436146028 -1.220501308787446 -1.2165884021349838 -1.213853670043635 -1.2072301958851792 -1.1914297328452204 -1.1698152763348593 -1.1701323138788815 -1.1647362993191483 -1.1469948517500246 -0.6854827834188739 -0.6617303860842215 -0.6607098967264127 -0.6403141412795739 -0.6181569668174597 -0.5695998159951989 -0.526677870747522 -0.5240394965995615 -0.44585051057689157 -0.3962507322284728 -0.3727600268196265 -0.31405416432350886 -0.1682005925907128 -0.13036761873189656 -0.1690754223908711 -0.15028082464736736 -0.10323269194351947 -2.593523582089553 -2.0054796761266065 -1.6897322499117093 -1.7445565746176852 -1.5937026141198571 -1.3478646079461982 -1.3250902478432496 -1.2884815172377195 -1.3022704143866062 -1.2464332301084575 -1.2305455150100544 -1.2039693111121683 -1.190048548960372 -1.1838639589217155 -1.1814996088847103 -1.1783858200753983 -1.1737145906170472 -1.1593037747805912 -1.1392963528094473 -1.140669246321586 -1.135106760027952 -1.1190181988564036 -0.6431712167422188 -0.6167325494146545 -0.6157262464528054 -0.5947638242648046 -0.5718209239350791 -0.5205408691242317 -0.4744254031276027 -0.4718985308722626 -0.3895518742403876 -0.33663308414862453 -0.311996493396042 -0.25266023462257103 -0.1026982955916051 -0.06415774676930808 -0.10355281619132295 -0.08427034075791301 -0.03666944476640965 -2.7760470105400685 -3.3740824638975404 -3.765973359659551 -2.9485719880276378 -1.836542099388986 -1.7637651699309322 -1.6647931093855641 -1.6889202240322607 -1.5017339255883861 -1.476063044472304 -1.4167742082843209 -1.379397619521561 -1.368906010107845 -1.3568129287024053 -1.3533829601597533 -1.3387979631993026 -1.3092665475423952 -1.2735570503257438 -1.2668339176161263 -1.2630480968592421 -1.2332356198160879 -0.6270921544061845 -0.5820993566071948 -0.5793979843016915 -0.5548445892176705 -0.5244817582562346 -0.4656849036999785 -0.41072030007480587 -0.4080308923170942 -0.31721059327308077 -0.2592877380687297 -0.23166705972147184 -0.1683304931664394 -0.008828853911008294 0.031138431808678035 -0.009652116285004342 0.010487514231750927 0.05945419153892573 -4.474675963171535 -5.21362224904064 -3.4584161063569674 -1.8791846595673318 -1.7630799681286842 -1.6449565641966077 -1.6720597617705542 -1.4854528781108498 -1.4539906923405939 -1.3854965857075894 -1.3467231588596837 -1.3350738892277885 -1.324071010137182 -1.3206285238111448 -1.3052909381064253 -1.2772252092038865 -1.2426936582101522 -1.2389017734509111 -1.2329312026935892 -1.2046062350056461 -0.605958297884218 -0.5601260509893247 -0.5565669258966288 -0.5320822261517677 -0.5009538292676581 -0.44270210734375265 -0.3876342437810253 -0.38553903046085924 -0.29593106075466885 -0.23892521890143437 -0.21119243362974782 -0.14832478066885457 0.010211154785451926 0.04960636906275978 0.009426346941068198 0.02930737410829748 0.0774884404906091 13.789404917448621 -9.020571151984512 -2.38485311320321 -2.1226038917027594 -1.9662634988577468 -1.9708849174535832 -1.613957435763453 -1.5922453702784467 -1.5267163597910156 -1.468824536911193 -1.4556329425840442 -1.4374817600313847 -1.4322297842328926 -1.4116341110249762 -1.3694582358899963 -1.3222589022681723 -1.310771810235831 -1.307022428264962 -1.2671188014856658 -0.5764803755551404 -0.5200907742254584 -0.5155852862853116 -0.48892145872154036 -0.4517129500042094 -0.3891735774887633 -0.3292114317544208 -0.3263467740658875 -0.2328336883440114 -0.1716530168811633 -0.14157240565614942 -0.07804122786563594 0.08555169904881355 0.12569811926478602 0.08494632980262007 0.10535027322691026 0.15402206301695454 -6.712061641805789 -2.288841021124073 -2.0609888041351097 -1.9096953681388085 -1.923892257820409 -1.6059835702753733 -1.579646782280721 -1.5110465873769243 -1.4564689639649597 -1.4433837993074383 -1.4262634784671306 -1.4215776468985988 -1.401541574219122 -1.3616566322045862 -1.3161394259330177 -1.3055686561685096 -1.3018233296788684 -1.26358407758148 -0.586571046619611 -0.532728578404619 -0.5284104950746595 -0.5020061757379839 -0.46617529911290884 -0.40402604471698766 -0.3446972981269547 -0.3419615919873469 -0.2485119177464138 -0.18801037342346144 -0.15828917758759403 -0.09434674704695944 0.0688024013997956 0.10892656676499796 0.06813895019654159 0.08847808550475766 0.137229996349146 -2.5833812347655254 -2.270627225318254 -2.083316716942682 -2.0821959172734177 -1.6342956770039674 -1.6154781048677114 -1.5444244204536521 -1.4798468353705747 -1.4667272316820053 -1.445295958639485 -1.4391642008908963 -1.418586359458824 -1.3735707263314625 -1.3246932764252366 -1.3112028189053029 -1.3085053659448354 -1.2671895282777759 -0.5573607294299011 -0.49606447132532727 -0.4913194292896303 -0.4639437518361157 -0.42418366950501213 -0.3609123859994367 -0.29966438455533373 -0.2962056968451984 -0.20257219385642256 -0.14031387923440608 -0.10995235564426237 -0.04711916466681232 0.11629437181452879 0.1562820482996241 0.1158011538726284 0.1362518176518988 0.18452012951813734 -1.594610218809315 -2.5125201441589233 -2.0218546958062618 -1.5187798496087792 -1.5687866453208974 -1.6155594586217585 -1.5240397097184957 -1.5202717222422342 -1.4886664903069233 -1.4798206902516453 -1.4535652786849451 -1.4041666575618454 -1.3398607659242079 -1.3260349160335259 -1.3154929354103468 -1.2611326728920977 -0.48960389460528075 -0.4191486400587331 -0.41350208096775726 -0.3838105699284584 -0.33740458716087657 -0.2724115316849806 -0.20807044810591396 -0.20340405415767848 -0.1091660598313719 -0.04530245324454241 -0.0145508737348099 0.04520248239843683 0.2078006761861328 0.24707346799107616 0.2080961696975978 0.22772398571350888 0.27434760935073377 -9.19155027932959 -8.46992107570884 -2.6573046729348704 -2.6637740844241815 -2.481717758814428 -2.1894508238292785 -2.134159793649534 -2.045251817017655 -2.024293974124581 -1.9398932611939754 -1.7957678800645462 -1.653973808846625 -1.5980307477803444 -1.5971278461224 -1.4882183807119946 -0.5073986474916806 -0.4286650344087397 -0.4226506645519189 -0.38989392628957587 -0.3385706493176217 -0.26814715673924777 -0.19719182016450726 -0.1918756561878563 -0.09202123741775903 -0.024288635159848637 0.007922525011869241 0.06892611668278287 0.23570388316864066 0.2761169651042694 0.23637737734558284 0.2565167567782317 0.30349508185914664 -1.148414486224226 -2.1038125037367728 -2.4764196045772806 -2.6560533434578346 -2.254114256513777 -2.2230160714724505 -2.094592371027507 -2.0605078210032026 -1.9743466461525312 -1.826308935906762 -1.6669998189089474 -1.6053118219100968 -1.6014435898511636 -1.4802980468633238 -0.4755257148545555 -0.3954904974920612 -0.3890721751692996 -0.35554328680524017 -0.3030792660974976 -0.23258905280273479 -0.16039352329488166 -0.15476242145492047 -0.054706242338382505 0.012949239634813092 0.04495476061866377 0.10424187508648364 0.2707576116568042 0.3110090510519752 0.2719073413235722 0.2917079145611283 0.3378803048889267 -2.5395261422181257 -2.7149735025174806 -2.7681902465220425 -2.417505532700167 -2.3436695150863915 -2.230350410489536 -2.1929828990068136 -2.0929350686360806 -1.9054402593062045 -1.724768214219087 -1.6507436361812737 -1.6533703597005753 -1.5211630030168721 -0.4742071801263952 -0.39353894587386995 -0.387082639243566 -0.3531015660168939 -0.30010472159593937 -0.2294053505491745 -0.15627545824649003 -0.1505402059336905 -0.0508069741825502 0.016666650127369176 0.048331747191217356 0.10691905396367096 0.27249870361944983 0.3127750414068429 0.27348332126544095 0.29336909779781767 0.3395701398943611 -5.035803826698952 -4.799453112955703 -3.612685833168058 -3.3336809451521354 -3.0412333993810066 -2.917667445686055 -2.6441449652169204 -2.246854864309462 -1.9172547914145834 -1.7956684044429583 -1.7997091631346542 -1.6025335629074249 -0.41027706102723704 -0.32751389703929257 -0.3201294263888863 -0.28428134984579945 -0.2290271187964159 -0.157907020984557 -0.08179902202416689 -0.07531500525841234 0.023567214931736247 0.08975038351332149 0.12040606195739706 0.17403203095745012 0.33403296588794795 0.3712110994546571 0.3353323205666531 0.35232411152054754 0.3951055714142709 -7.105341555694579 -4.2251159355756585 -3.8801199104137503 -3.369443236849289 -3.1492481777529733 -2.8099806540335166 -2.3596198971682725 -1.9775897716731672 -1.8338680838701453 -1.8397445934561443 -1.6234213614510802 -0.39638259021384803 -0.31258115646711016 -0.304936566862662 -0.26851817452044524 -0.2126169319442679 -0.14115323928895496 -0.06430322484009154 -0.05761730592576775 0.04158263388914091 0.10782615522982425 0.13859988198234513 0.19165070206099 0.35361051104965346 0.39075490910709615 0.35541367631905174 0.37257859368339336 0.414911194760927 -4.309257986946065 -4.74562188998334 -3.6712216222289342 -3.1493345816892955 -2.868488814344097 -2.400513300976117 -1.939527722588041 -1.7823579149752833 -1.7698265709584815 -1.537584290555949 -0.3133952789720664 -0.2307601899592382 -0.2221512363732605 -0.185231596646374 -0.12948113030923758 -0.060826744625205764 0.015424010539651256 0.022836208705194982 0.11872083895094887 0.18220449907909403 0.2113631367398328 0.2588724277569913 0.4158009080078178 0.45160530455392656 0.41815488197345985 0.4338294030096481 0.47404871905798224 -13.986324176477524 -12.613218815767027 -7.802388608176386 -5.976596577564038 -3.7421692998158136 -2.487719685640009 -2.131368301443537 -2.160653108688672 -1.738059953410536 -0.2659437864223897 -0.1807110624987731 -0.17110587875819494 -0.13251144133928294 -0.07503262022053159 -0.006383472294460013 0.07119095919511653 0.07932720471148125 0.17444477467554798 0.23642718515854633 0.26456822116664336 0.30824918744017676 0.4632700875885928 0.49858198653095703 0.4655722852011315 0.481289147445826 0.5204881943107167 -9.607195571955799 -2.694116433764748 -5.274694037345313 -3.8424168353511803 -2.4823370993355276 -2.1280692770040552 -2.136151631598578 -1.7130442597169182 -0.24232415347975245 -0.15733658509769022 -0.1473793557538554 -0.10858370021556008 -0.05111630260109945 0.016651103080252527 0.09399295012170383 0.10237075661281358 0.19638226346489196 0.2573750507153229 0.28516635699229187 0.32693501708889117 0.48085078398558867 0.515405349944525 0.48336055920677723 0.49881341228327086 0.5369618350123735 6.749252178436677 -6.390861367378022 -4.13604822549393 -2.503905525643738 -2.1203298588316013 -2.1510497201216303 -1.7044062451941127 -0.22001350480080428 -0.13557208400095377 -0.1253078849894187 -0.08644742651266979 -0.029165006859810605 0.037585760864436546 0.11448158393563257 0.12306056578411928 0.21562691727821393 0.27527216174183516 0.30240682870834157 0.34267779473464516 0.4949825810833033 0.5292832331209579 0.4974317257084172 0.5131386871471452 0.5508300945488609 -8.639125477835165 -4.613863623051365 -2.730680511330778 -2.2862033557586052 -2.3245502937960403 -1.8028754074478215 -0.23363591922686422 -0.1479056811646422 -0.13770867825045174 -0.09848264581506627 -0.04054205964189772 0.027317852711250756 0.10505917127031417 0.11360437436658888 0.20727547462237128 0.2677362278484763 0.29498893463147635 0.33580415142767295 0.4874840631369289 0.5220566431170138 0.4893067534864285 0.5046469968899719 0.5429980526651199 -5.914926605319863 -2.675329481085079 -2.269067850999921 -2.347227964792623 -1.7889011123334555 -0.17534043543492772 -0.09142257105498142 -0.08043022204931338 -0.04116458798108402 0.016086576994980506 0.08103011230859658 0.1574168006690011 0.16647721917271863 0.2565783832436874 0.3142009580015852 0.34010189553942255 0.37638093045062443 0.523027635878144 0.5560631521443439 0.52489469532255 0.5405424430751058 0.5765431348388487 -3.3415665854472962 -2.9992348433222134 -3.067506564777382 -2.221361885566104 -0.11054193499289688 -0.02351851886114953 -0.010753949580279976 0.03090231065288296 0.09032352662641707 0.15409978768434884 0.23165133313189634 0.24187908309719863 0.3300359786053795 0.3855949415358597 0.4100904403268433 0.4399811605220788 0.5828018180172521 0.6143814682104121 0.5841254748753331 0.5978998440319887 0.632269479004484 -7.847663266343545 -9.351068609203537 -4.021165499537219 -0.03681851530714342 0.0542626697748636 0.06951008987189988 0.11435955129507258 0.17651447644147744 0.2382790902111782 0.317040512558721 0.32882469439227924 0.4142631491803064 0.46705668190338634 0.4899069123585964 0.5121515850918994 0.644117429219802 0.6722490426856484 0.6431003016695307 0.6531290412157297 0.6837489035014923 4.829677129035872 -3.3453676782139894 0.041793105208709935 0.127412378927664 0.14387817309536288 0.18793650755194768 0.24769134648814672 0.30336072136983194 0.3788310685666414 0.3912905374202298 0.4703054047941171 0.5191141823842655 0.539969190973327 0.5554220997327044 0.6774498267537296 0.7026854368463993 0.6747849880756643 0.6814565322479609 0.7102164892329941 -5.051407942238271 0.012325941260839635 0.1020244211425183 0.11841300782655395 0.16369191207983835 0.22544621791624975 0.2840454133499277 0.3617252236379962 0.3741992879168996 0.45605200734421714 0.5064999539118864 0.5281003590544338 0.5456609214427058 0.6724581500756219 0.6994029417211962 0.6702927908788752 0.6797691958925492 0.7091676078311663 0.13437932979976885 0.2178227433558626 0.23695996309481826 0.2823694779249948 0.34175100343500286 0.39098575125536206 0.4646518169989762 0.4786734408007045 0.5511451243440708 0.5954807863692146 0.6142225252836407 0.6218195969109009 0.7372311853760976 0.7606819440259551 0.7336955149650857 0.7374106075649045 0.7648842403891714 2.181251028560318 2.3677954542291317 3.101589233702434 2.62529038253059 2.213580691791858 2.1259575644205597 2.167239380085391 1.788785208498556 1.5926989113031755 1.5079821537622422 1.3096261917942065 1.3687259916381929 1.3685779282300592 1.3441777761649663 1.313116076087472 1.3135543898817588 7.062137049942066 13.001376290272162 5.920087575259998 3.52543633658696 2.895708673096541 2.90579928692501 2.0854380330967563 1.7483739301676717 1.624329007692411 1.3693337007861124 1.424462361263498 1.4207860202185212 1.3959300510289647 1.3583924731404833 1.3564899799879604 16.06448683015435 6.180338859093126 3.3767553087953104 2.822472565300586 2.822079177270977 2.048329267119139 1.7170482349555178 1.5997116377505192 1.356754612870605 1.4201283436577494 1.4168949599107505 1.3915049902148329 1.3539806738868139 1.35239906755431 6.57028979711535 3.704954617912094 3.047604430146606 3.022008373575936 2.15499943842676 1.758266346371392 1.630547563268982 1.375827673992521 1.4420096611022009 1.4376824992544748 1.4112626887666413 1.3709938441234735 1.368403381018478 5.597130281079956 4.038410968687948 4.023956648416416 2.4618502493155443 1.8751725917736364 1.7092197772003361 1.4145317823264438 1.4869318708686035 1.4802004914683764 1.4518350973329832 1.4062372016194997 1.401751750588769 5.738786851914611 4.933858200968501 3.0153689468030205 2.0008330342787772 1.7890289952594305 1.4485973793191111 1.5353492467343046 1.5270181459556091 1.494519081070146 1.4427161789975338 1.4358685211978262 2.7998409331919447 4.007047405384313 2.254217792953119 1.9501357910551258 1.5322471848300316 1.645081414673107 1.6347871668529026 1.59048028414361 1.5230050594094318 1.5170669872184643 3.6705219560520916 2.243734322807688 1.9686424577809767 1.5394751849494632 1.643780163276352 1.63444438744871 1.5883186281143995 1.5207635757212925 1.5160315052855766 3.286795662343188 2.2516887389232387 1.7140948097101827 1.8523081184317745 1.8352693835692175 1.7670971983365842 1.6660534326634613 1.654824199646161 2.7042120431834817 2.2228488149015124 2.1697742769254034 2.127415137715762 2.0297388459936 1.851593648146744 1.8360394851971584 3.4457864685060855 2.6057351968779585 2.461067821298588 2.39912285953778 2.104144866663252 2.0388048232351212 3.5309296592982857 3.203829104708727 3.103357502424606 2.492683618992439 2.4043719757907676 10.848144952545283 -0.50351335073276 1.9552626323147564 4.4856357140442 -7.762914160221527 -2.1188327894029584 3.217723669309173 2.6135267761894596 5.44295882122551 8.667294917348983
label 0 1 2 3 4 5 6 7 8 9 10 11 12 13 14 15 16 17 18 19 20 21 22 23 24 25 26 27 28 29 30 31 32 33 34 35 36 37 38 39 40 41 42 43 44 45 46 47 48 49 50
nr_sv 1 1 1 1 1 1 1 1 1 1 1 1 1 1 1 1 1 1 1 1 1 1 1 1 1 1 1 1 1 1 1 1 1 1 1 1 1 1 1 1 1 1 1 1 1 1 1 1 1 1 1
SV
2.9483739717545774E-5 1.0645823563572335E-6 9.046294411651627E-7 2.77019590548424E-7 3.036716483494459E-7 3.120810312155931E-7 3.1448632511250357E-7 3.31227444446119E-7 5.240023192342649E-7 5.054928112603579E-7 4.685290226789131E-7 4.238823811168877E-7 4.0955508393012336E-7 3.7703438327354823E-7 3.8495733036710877E-7 3.629522975424863E-7 3.2526428536346493E-7 3.254459871126644E-7 3.1524196475815504E-7 3.152621396809894E-7 2.950253707067539E-7 2.940511828429368E-7 2.807461615331997E-7 2.7938708619804047E-7 2.763252281617409E-7 2.7558131812197947E-7 2.767696826489626E-7 2.707666147471683E-7 2.702095826585975E-7 2.667898524345308E-7 2.605719920025244E-7 2.66392530992773E-7 2.655293160960552E-7 3.8148406073760323E-7 4.0671229843084293E-7 4.0908320159149727E-7 4.225019466777193E-7 4.462187091919046E-7 4.792906881248303E-7 5.362465103758337E-7 5.409967323797364E-7 6.438515716094937E-7 7.504313103956498E-7 8.211576187414445E-7 9.987879707974373E-7 1.925120512544085E-6 2.4434613584912116E-6 1.91969899119818E-6 2.136674522506661E-6 2.8879240013919794E-6 0:0.0 1:0.0 2:0.0 3:0.0 4:0.0 5:0.0 6:0.0 7:0.0 8:0.0 9:0.0 10:0.0 11:0.0 12:0.0 13:0.0 14:0.0 15:0.0 16:0.0 17:0.0 18:0.0 19:0.0 20:0.0 21:0.0 22:0.0 23:0.0 24:0.0 25:0.0 26:0.0 27:81.0 28:67.0 29:0.0 30:0.0 31:0.0 32:137.0 33:0.0 34:0.0 35:201.0 36:344.0 37:8.0 38:0.0 39:0.0 40:400.0 41:23.0 42:0.0 43:5.0 44:149.0 45:7.0 46:0.0 47:0.0 48:400.0 49:258.0 50:284.0 51:337.0 52:53.0 53:0.0 54:0.0 55:0.0 56:340.0 57:400.0 58:400.0 59:400.0 60:374.0 61:281.0 62:282.0 63:171.0 
-2.9483739717545774E-5 1.088226316250538E-6 9.30507815335141E-7 2.7807222536752804E-7 3.05133551615705E-7 3.136272941052496E-7 3.214878457501316E-7 3.380627752147924E-7 5.171974621120535E-7 5.004395110005363E-7 4.648072363049777E-7 4.213918742162111E-7 4.0822391571645747E-7 3.747170885981084E-7 3.8263737016396586E-7 3.6133955800945264E-7 3.2364282001640223E-7 3.24447000365814E-7 3.149103930349379E-7 3.145093708853329E-7 2.95460253209437E-7 2.954734792607904E-7 2.8137013185707805E-7 2.7969301454109996E-7 2.7679638083196136E-7 2.7591732854635165E-7 2.766598797387169E-7 2.709151581772015E-7 2.706045034001456E-7 2.674207575468478E-7 2.611467895658278E-7 2.670867406924277E-7 2.66351909736534E-7 3.900187189484159E-7 4.158373310894751E-7 4.183539404025527E-7 4.323204497516103E-7 4.56701187948295E-7 4.916871679728746E-7 5.480923645252698E-7 5.519851317284918E-7 6.550362791843226E-7 7.565641396163463E-7 8.375251466925295E-7 1.0112077207731897E-6 1.973515423023031E-6 2.4734138924238094E-6 1.9762181902979544E-6 2.2332195880156506E-6 2.9115514347397584E-6 0:0.0 1:0.0 2:0.0 3:0.0 4:0.0 5:0.0 6:0.0 7:0.0 8:0.0 9:0.0 10:0.0 11:0.0 12:0.0 13:0.0 14:0.0 15:0.0 16:0.0 17:0.0 18:0.0 19:0.0 20:0.0 21:0.0 22:0.0 23:0.0 24:0.0 25:0.0 26:0.0 27:171.0 28:114.0 29:0.0 30:0.0 31:0.0 32:139.0 33:11.0 34:0.0 35:117.0 36:371.0 37:18.0 38:0.0 39:0.0 40:399.0 41:73.0 42:40.0 43:48.0 44:36.0 45:0.0 46:0.0 47:0.0 48:400.0 49:291.0 50:250.0 51:372.0 52:71.0 53:10.0 54:3.0 55:1.0 56:262.0 57:385.0 58:400.0 59:400.0 60:374.0 61:362.0 62:400.0 63:164.0 
-1.0645823563572335E-6 -1.088226316250538E-6 1.8622147319807448E-5 4.401329993897556E-7 5.107074933046247E-7 5.411417929488683E-7 5.70153382663004E-7 6.167467717932097E-7 4.88964319784621E-7 4.864007222077923E-7 4.74160167511304E-7 4.627685359044753E-7 4.482163343030494E-7 4.360221438205961E-7 4.411182170354562E-7 4.3244168902210016E-7 4.1882071395110644E-7 4.470818298343964E-7 4.3891104414303933E-7 4.43343966199456E-7 4.380008676797189E-7 4.366583410476307E-7 4.218085124332277E-7 4.282937718376287E-7 4.227392276004751E-7 4.24065999935966E-7 4.252698762634768E-7 4.161596454985676E-7 4.186874441706461E-7 4.1212895515006644E-7 3.9863769553926414E-7 4.1193227750971283E-7 4.109123528060588E-7 6.427020221333723E-7 6.968645971181861E-7 7.104942126693907E-7 7.193610635033963E-7 7.577789801204262E-7 7.624909358889997E-7 8.255467079880312E-7 8.184253741329294E-7 8.324166345145742E-7 8.041005913757799E-7 7.887278175230871E-7 7.36839855962545E-7 8.768088017574756E-7 9.370903158275492E-7 8.836876994648829E-7 8.892078180929783E-7 9.493646851526958E-7 0:92.0 1:6.0 2:19.0 3:400.0 4:283.0 5:3.0 6:0.0 7:0.0 8:398.0 9:149.0 10:6.0 11:330.0 12:392.0 13:82.0 14:0.0 15:0.0 16:400.0 17:164.0 18:13.0 19:319.0 20:337.0 21:29.0 22:0.0 23:0.0 24:400.0 25:162.0 26:193.0 27:395.0 28:250.0 29:0.0 30:0.0 31:0.0 32:400.0 33:136.0 34:53.0 35:392.0 36:390.0 37:18.0 38:0.0 39:0.0 40:400.0 41:60.0 42:47.0 43:372.0 44:349.0 45:24.0 46:0.0 47:0.0 48:400.0 49:327.0 50:280.0 51:400.0 52:320.0 53:17.0 54:6.0 55:0.0 56:316.0 57:400.0 58:400.0 59:400.0 60:399.0 61:389.0 62:398.0 63:252.0 
-9.046294411651627E-7 -9.30507815335141E-7 -1.8622147319807448E-5 5.051316322520485E-7 5.934247939406581E-7 6.287473341113034E-7 6.435559296760694E-7 6.85802617091367E-7 5.054314931836245E-7 5.063228329572621E-7 4.927216391272224E-7 4.858968440999976E-7 4.7020123202126813E-7 4.5928443485050293E-7 4.646966471904557E-7 4.5658493644109393E-7 4.450679351696243E-7 4.815117543038122E-7 4.729502042553695E-7 4.80906913493743E-7 4.88897862880772E-7 4.877329077050826E-7 4.7434786063185506E-7 4.867325231994973E-7 4.815997588148408E-7 4.844998798440298E-7 4.852337310228121E-7 4.7682931394036725E-7 4.813408229965391E-7 4.72189123076331E-7 4.559753517963833E-7 4.72090705619815E-7 4.7111621801091433E-7 6.906389757271479E-7 7.519252105108618E-7 7.653929125381692E-7 7.691473463262831E-7 8.037399627948771E-7 8.015424883646089E-7 8.462964796605335E-7 8.360225391676559E-7 8.313892680947717E-7 7.853102996587042E-7 7.650219714310196E-7 6.927700097091717E-7 7.846208045344806E-7 8.210945765471577E-7 7.890087919249685E-7 7.927793655386737E-7 8.270173330427746E-7 0:176.0 1:79.0 2:94.0 3:400.0 4:321.0 5:12.0 6:0.0 7:0.0 8:400.0 9:166.0 10:6.0 11:362.0 12:400.0 13:91.0 14:0.0 15:0.0 16:400.0 17:164.0 18:7.0 19:319.0 20:381.0 21:110.0 22:0.0 23:0.0 24:400.0 25:214.0 26:215.0 27:398.0 28:374.0 29:38.0 30:0.0 31:0.0 32:400.0 33:165.0 34:69.0 35:400.0 36:381.0 37:23.0 38:0.0 39:0.0 40:400.0 41:216.0 42:145.0 43:370.0 44:387.0 45:67.0 46:0.0 47:0.0 48:400.0 49:274.0 50:230.0 51:400.0 52:371.0 53:38.0 54:1.0 55:0.0 56:306.0 57:397.0 58:400.0 59:400.0 60:388.0 61:350.0 62:384.0 63:157.0 
-2.77019590548424E-7 -2.7807222536752804E-7 -4.401329993897556E-7 -5.051316322520485E-7 5.448685640806296E-6 2.8272787159630985E-6 1.5804991690525618E-6 1.2339912769156634E-6 3.6562075365771573E-7 3.754529605310707E-7 3.8797186350451493E-7 4.6732531496557916E-7 4.6595109004598007E-7 5.378703775419754E-7 5.244161609328314E-7 5.648361269186777E-7 6.644778765413394E-7 8.007620051240761E-7 8.563913125952468E-7 8.829994785888079E-7 1.0754075794726202E-6 1.1301663435332729E-6 1.295513829934013E-6 1.6321480945895108E-6 1.7157249624256233E-6 1.8174911715366344E-6 1.8314766738552127E-6 2.097678394436957E-6 3.154912514275979E-6 5.47104313643961E-6 6.837326331911169E-6 7.220373004469411E-6 1.819323029900574E-5 8.674956744496933E-7 7.573230297010732E-7 7.66768557428473E-7 7.397845007749243E-7 6.902657005247745E-7 6.027700296713547E-7 5.488480228847672E-7 5.52750347541781E-7 4.7448976928883947E-7 4.296208080823703E-7 4.101936401116875E-7 3.606077177624363E-7 3.2383870630322894E-7 3.1807278427715334E-7 3.224353412349338E-7 3.1502055824163085E-7 3.091971464195357E-7 0:251.0 1:400.0 2:400.0 3:400.0 4:400.0 5:400.0 6:400.0 7:240.0 8:400.0 9:400.0 10:400.0 11:400.0 12:400.0 13:400.0 14:400.0 15:395.0 16:400.0 17:400.0 18:400.0 19:400.0 20:400.0 21:400.0 22:400.0 23:400.0 24:400.0 25:400.0 26:400.0 27:400.0 28:399.0 29:397.0 30:352.0 31:400.0 32:400.0 33:396.0 34:400.0 35:400.0 36:393.0 37:316.0 38:262.0 39:363.0 40:400.0 41:385.0 42:400.0 43:400.0 44:400.0 45:400.0 46:365.0 47:385.0 48:400.0 49:311.0 50:313.0 51:400.0 52:400.0 53:368.0 54:249.0 55:61.0 56:36.0 57:13.0 58:289.0 59:392.0 60:218.0 61:29.0 62:0.0 63:0.0 
-3.036716483494459E-7 -3.05133551615705E-7 -5.107074933046247E-7 -5.934247939406581E-7 -5.448685640806296E-6 9.29052877044497E-6 3.018157233919258E-6 2.1640009781284423E-6 3.3602331195329006E-7 3.4049577546891377E-7 3.4821560395907213E-7 4.0719140744692005E-7 4.049421570499316E-7 4.5773514025805734E-7 4.4809432206241684E-7 4.779572108806959E-7 5.484559456875047E-7 6.412829763738526E-7 6.780906864922301E-7 6.912321351054682E-7 8.008492205134325E-7 8.364148249509234E-7 9.270916578438444E-7 1.092110809931219E-6 1.1318881762395166E-6 1.174077541951258E-6 1.1864239875947508E-6 1.2897085129789817E-6 1.6632888043198937E-6 2.2768981361311857E-6 2.4999593756601456E-6 2.5835687610366827E-6 3.540198959181506E-6 1.3122429644093464E-6 1.091388508115565E-6 1.1102549811589729E-6 1.0572383559732118E-6 9.609812772017763E-7 8.048471112427483E-7 7.128831167535018E-7 7.178835930217407E-7 5.929972363363801E-7 5.246982001539989E-7 4.95709264533514E-7 4.2524293065521006E-7 3.736432779052213E-7 3.6495244852072E-7 3.715831765716807E-7 3.613624738441324E-7 3.5209333571817885E-7 0:176.0 1:368.0 2:392.0 3:400.0 4:400.0 5:221.0 6:4.0 7:0.0 8:400.0 9:375.0 10:400.0 11:400.0 12:400.0 13:399.0 14:300.0 15:136.0 16:400.0 17:398.0 18:400.0 19:400.0 20:400.0 21:400.0 22:391.0 23:400.0 24:400.0 25:400.0 26:400.0 27:400.0 28:400.0 29:366.0 30:335.0 31:396.0 32:400.0 33:392.0 34:400.0 35:400.0 36:398.0 37:312.0 38:320.0 39:379.0 40:400.0 41:381.0 42:400.0 43:400.0 44:400.0 45:400.0 46:353.0 47:397.0 48:400.0 49:348.0 50:345.0 51:400.0 52:400.0 53:388.0 54:287.0 55:169.0 56:60.0 57:26.0 58:364.0 59:400.0 60:298.0 61:75.0 62:0.0 63:0.0 
-3.120810312155931E-7 -3.136272941052496E-7 -5.411417929488683E-7 -6.287473341113034E-7 -2.8272787159630985E-6 -9.29052877044497E-6 7.1319300072389086E-6 4.330288418860138E-6 3.073578550601784E-7 3.114682128779336E-7 3.1727000581714555E-7 3.6403163580527805E-7 3.6101565255564783E-7 4.0126301546748544E-7 3.9418692541096453E-7 4.1659463051180734E-7 4.6943904850338135E-7 5.363795400169979E-7 5.631088790726498E-7 5.711532755497564E-7 6.454057117114675E-7 6.693146987197014E-7 7.302417574874426E-7 8.324582116383485E-7 8.597254724621334E-7 8.841263947093876E-7 8.905072373749449E-7 9.491894159684983E-7 1.1654794316189909E-6 1.5226088379830002E-6 1.670140559029448E-6 1.6824933205015175E-6 2.1046317683642277E-6 1.97423426856101E-6 1.5383159901024748E-6 1.5721923199977361E-6 1.4703547083698472E-6 1.2977633697204552E-6 1.0326210141474242E-6 8.933564653100751E-7 8.982538842743591E-7 7.126725291108912E-7 6.158367342916985E-7 5.752250568034743E-7 4.825042743847407E-7 4.1199906064214173E-7 3.9888957121166096E-7 4.08310923868795E-7 3.951783499169928E-7 3.810168998140828E-7 0:254.0 1:326.0 2:302.0 3:400.0 4:392.0 5:118.0 6:0.0 7:0.0 8:400.0 9:366.0 10:399.0 11:400.0 12:400.0 13:393.0 14:260.0 15:134.0 16:400.0 17:400.0 18:400.0 19:400.0 20:400.0 21:400.0 22:388.0 23:400.0 24:400.0 25:400.0 26:400.0 27:400.0 28:399.0 29:342.0 30:276.0 31:392.0 32:400.0 33:399.0 34:400.0 35:400.0 36:399.0 37:369.0 38:313.0 39:391.0 40:400.0 41:400.0 42:400.0 43:400.0 44:400.0 45:400.0 46:393.0 47:400.0 48:400.0 49:398.0 50:400.0 51:400.0 52:400.0 53:400.0 54:399.0 55:322.0 56:193.0 57:346.0 58:400.0 59:400.0 60:360.0 61:99.0 62:97.0 63:23.0 
-3.1448632511250357E-7 -3.214878457501316E-7 -5.70153382663004E-7 -6.435559296760694E-7 -1.5804991690525618E-6 -3.018157233919258E-6 -7.1319300072389086E-6 2.7634996960150333E-5 2.772184894752614E-7 2.797358510305888E-7 2.8420208700960574E-7 3.2196221805567336E-7 3.202366677069021E-7 3.527740653207043E-7 3.469480368986176E-7 3.648358776683412E-7 4.062592360498196E-7 4.559464536484835E-7 4.7626282278117484E-7 4.812917099428129E-7 5.32883011662944E-7 5.501394328392531E-7 5.932422587817651E-7 6.584236416226456E-7 6.766263814596252E-7 6.908522526101261E-7 6.938257831211615E-7 7.299579106268733E-7 8.55386260358193E-7 1.0489360117564749E-6 1.1144998096991574E-6 1.1255424411102125E-6 1.3110575908267922E-6 3.6463878881579907E-6 2.4248185023351003E-6 2.4916281294849305E-6 2.249863039587465E-6 1.8715131370864659E-6 1.358439099137527E-6 1.1305841671862643E-6 1.14025670599222E-6 8.54315682459404E-7 7.181160942383751E-7 6.624703585918927E-7 5.426892968103436E-7 4.509502536482439E-7 4.3413329628729206E-7 4.4573241301476243E-7 4.2950391224376065E-7 4.1071911166384774E-7 0:172.0 1:232.0 2:253.0 3:400.0 4:363.0 5:105.0 6:0.0 7:0.0 8:400.0 9:369.0 10:398.0 11:400.0 12:400.0 13:386.0 14:253.0 15:86.0 16:400.0 17:400.0 18:400.0 19:400.0 20:400.0 21:400.0 22:388.0 23:400.0 24:400.0 25:400.0 26:400.0 27:400.0 28:400.0 29:354.0 30:322.0 31:394.0 32:400.0 33:400.0 34:400.0 35:400.0 36:400.0 37:400.0 38:380.0 39:400.0 40:400.0 41:400.0 42:400.0 43:400.0 44:400.0 45:400.0 46:400.0 47:400.0 48:400.0 49:400.0 50:400.0 51:400.0 52:400.0 53:400.0 54:400.0 55:400.0 56:255.0 57:396.0 58:400.0 59:400.0 60:400.0 61:400.0 62:400.0 63:257.0 
-3.31227444446119E-7 -3.380627752147924E-7 -6.167467717932097E-7 -6.85802617091367E-7 -1.2339912769156634E-6 -2.1640009781284423E-6 -4.330288418860138E-6 -2.7634996960150333E-5 2.6911120105405475E-7 2.7078373477924626E-7 2.738038195632829E-7 3.062023271683067E-7 3.0426761188414525E-7 3.3192943777625864E-7 3.271408835486411E-7 3.420580366450195E-7 3.770426995201566E-7 4.1945059522136714E-7 4.364410848179604E-7 4.4060433290300976E-7 4.834216584988549E-7 4.976218651066553E-7 5.327571032504576E-7 5.847388994629173E-7 5.990439857032163E-7 6.102050075253533E-7 6.124388785999157E-7 6.404549792172359E-7 7.351387114856235E-7 8.753700626940039E-7 9.187473614724212E-7 9.288712217582511E-7 1.0530627804437817E-6 6.05004598034945E-6 3.579328661116321E-6 3.703388229891528E-6 3.2378544034010424E-6 2.5717254220201416E-6 1.740450150026803E-6 1.4101717095582144E-6 1.4183019096726063E-6 1.0109051391890013E-6 8.249576074909451E-7 7.513692765854174E-7 6.028868634569774E-7 4.918612941313323E-7 4.716129114409991E-7 4.853331120214343E-7 4.6599397329994333E-7 4.439974869742237E-7 0:113.0 1:89.0 2:163.0 3:400.0 4:304.0 5:25.0 6:0.0 7:0.0 8:400.0 9:340.0 10:372.0 11:400.0 12:400.0 13:342.0 14:187.0 15:43.0 16:400.0 17:400.0 18:400.0 19:400.0 20:400.0 21:400.0 22:353.0 23:384.0 24:400.0 25:400.0 26:400.0 27:400.0 28:398.0 29:332.0 30:290.0 31:378.0 32:400.0 33:400.0 34:400.0 35:400.0 36:400.0 37:400.0 38:387.0 39:400.0 40:400.0 41:400.0 42:400.0 43:400.0 44:400.0 45:400.0 46:400.0 47:400.0 48:400.0 49:400.0 50:400.0 51:400.0 52:400.0 53:400.0 54:400.0 55:400.0 56:350.0 57:400.0 58:400.0 59:400.0 60:400.0 61:400.0 62:400.0 63:349.0 
-5.240023192342649E-7 -5.171974621120535E-7 -4.88964319784621E-7 -5.054314931836245E-7 -3.6562075365771573E-7 -3.3602331195329006E-7 -3.073578550601784E-7 -2.772184894752614E-7 -2.6911120105405475E-7 5.2659294365455505E-5 1.9756989034871087E-5 4.737798392465006E-6 3.687920768710205E-6 2.089556293168927E-6 2.339613636204117E-6 1.7241156364357357E-6 1.0691956708267288E-6 9.892840749006758E-7 8.779492510214939E-7 8.785176946641471E-7 7.220047183008341E-7 6.905815041555742E-7 5.962510121360931E-7 5.48590588489582E-7 5.316472318590667E-7 5.182957089520812E-7 5.229203848484864E-7 4.928220468870896E-7 4.5911184354753883E-7 4.2913721533719243E-7 4.1138846693002383E-7 4.1638378593209903E-7 3.885332945836128E-7 2.5387392570074917E-7 2.592183891599017E-7 2.614428297735278E-7 2.615821719193893E-7 2.663656379803305E-7 2.639613792826744E-7 2.7158049937950645E-7 2.7389114826261945E-7 2.783873300358354E-7 2.904288166957071E-7 2.985609808564192E-7 3.0874403236378446E-7 3.714003184757731E-7 3.882043336802586E-7 3.712760777355575E-7 3.801221218340816E-7 4.0001904090634713E-7 0:341.0 1:399.0 2:400.0 3:400.0 4:400.0 5:400.0 6:400.0 7:399.0 8:400.0 9:352.0 10:225.0 11:396.0 12:298.0 13:227.0 14:215.0 15:184.0 16:325.0 17:123.0 18:0.0 19:0.0 20:28.0 21:13.0 22:0.0 23:0.0 24:9.0 25:3.0 26:0.0 27:157.0 28:383.0 29:100.0 30:0.0 31:0.0 32:0.0 33:0.0 34:0.0 35:56.0 36:92.0 37:10.0 38:0.0 39:0.0 40:0.0 41:0.0 42:0.0 43:0.0 44:0.0 45:0.0 46:0.0 47:0.0 48:0.0 49:0.0 50:0.0 51:0.0 52:0.0 53:0.0 54:0.0 55:0.0 56:0.0 57:0.0 58:0.0 59:0.0 60:0.0 61:0.0 62:0.0 63:0.0 
-5.054928112603579E-7 -5.004395110005363E-7 -4.864007222077923E-7 -5.063228329572621E-7 -3.754529605310707E-7 -3.4049577546891377E-7 -3.114682128779336E-7 -2.797358510305888E-7 -2.7078373477924626E-7 -5.2659294365455505E-5 4.0553144896386715E-5 6.465440603613535E-6 4.662254619711547E-6 2.4224013991790483E-6 2.7578903242175866E-6 1.9677466644234353E-6 1.1673862630156272E-6 1.0726747896752907E-6 9.426287843010832E-7 9.44231782464105E-7 7.672921760367748E-7 7.316284439579928E-7 6.267470574225654E-7 5.740818135474122E-7 5.555714510720724E-7 5.409679051856371E-7 5.460521250437525E-7 5.133259414397766E-7 4.7682794974710237E-7 4.4416471937450947E-7 4.25576555157807E-7 4.30333243608852E-7 4.0048619023494524E-7 2.549263887306221E-7 2.602013906723526E-7 2.6230877362516756E-7 2.625062919476851E-7 2.669058855149909E-7 2.6437471414484034E-7 2.710883342692658E-7 2.7269500794974124E-7 2.762077286513177E-7 2.866566078862959E-7 2.940103765082181E-7 3.0266838501597786E-7 3.6255167494341927E-7 3.784343866676052E-7 3.624778186229866E-7 3.7088473254852886E-7 3.896499618532687E-7 0:400.0 1:400.0 2:400.0 3:400.0 4:400.0 5:400.0 6:400.0 7:400.0 8:400.0 9:299.0 10:257.0 11:367.0 12:329.0 13:243.0 14:237.0 15:289.0 16:355.0 17:84.0 18:0.0 19:3.0 20:118.0 21:73.0 22:0.0 23:0.0 24:7.0 25:3.0 26:0.0 27:209.0 28:398.0 29:95.0 30:0.0 31:0.0 32:0.0 33:0.0 34:0.0 35:59.0 36:92.0 37:10.0 38:0.0 39:0.0 40:0.0 41:0.0 42:0.0 43:0.0 44:0.0 45:0.0 46:0.0 47:0.0 48:0.0 49:0.0 50:0.0 51:0.0 52:0.0 53:0.0 54:0.0 55:0.0 56:0.0 57:0.0 58:0.0 59:0.0 60:0.0 61:0.0 62:0.0 63:0.0 
-4.685290226789131E-7 -4.648072363049777E-7 -4.74160167511304E-7 -4.927216391272224E-7 -3.8797186350451493E-7 -3.4821560395907213E-7 -3.1727000581714555E-7 -2.8420208700960574E-7 -2.738038195632829E-7 -1.9756989034871087E-5 -4.0553144896386715E-5 9.552238805970149E-6 6.058237840359375E-6 2.9066936795399285E-6 3.3339000963497127E-6 2.299239066830832E-6 1.2858966074832754E-6 1.1716695001540745E-6 1.0205268776163757E-6 1.020732089469209E-6 8.165448313732855E-7 7.769983620874527E-7 6.607149464292321E-7 6.03242549351273E-7 5.827368293463936E-7 5.670392019717087E-7 5.726763513873371E-7 5.368006360013935E-7 4.968352834532239E-7 4.6154115977908795E-7 4.4139421424877903E-7 4.4666197224933835E-7 4.1464699028482103E-7 2.5485622158830985E-7 2.593638789631773E-7 2.616166285622047E-7 2.615550783337843E-7 2.658729472946763E-7 2.616787898088672E-7 2.6689901115250865E-7 2.686699774867992E-7 2.6885959305143136E-7 2.7660042040497896E-7 2.8297320512572005E-7 2.896360404552036E-7 3.438699085116915E-7 3.580011649357907E-7 3.4384365978939233E-7 3.5125155319046176E-7 3.6796023085824884E-7 0:388.0 1:400.0 2:400.0 3:400.0 4:400.0 5:400.0 6:400.0 7:400.0 8:400.0 9:353.0 10:360.0 11:400.0 12:351.0 13:332.0 14:330.0 15:331.0 16:393.0 17:127.0 18:11.0 19:79.0 20:116.0 21:24.0 22:0.0 23:0.0 24:6.0 25:0.0 26:10.0 27:266.0 28:400.0 29:97.0 30:0.0 31:0.0 32:0.0 33:0.0 34:0.0 35:85.0 36:90.0 37:0.0 38:0.0 39:0.0 40:0.0 41:0.0 42:0.0 43:0.0 44:0.0 45:0.0 46:0.0 47:0.0 48:0.0 49:0.0 50:0.0 51:0.0 52:0.0 53:0.0 54:0.0 55:0.0 56:0.0 57:0.0 58:0.0 59:0.0 60:0.0 61:0.0 62:0.0 63:0.0 
-4.238823811168877E-7 -4.213918742162111E-7 -4.627685359044753E-7 -4.858968440999976E-7 -4.6732531496557916E-7 -4.0719140744692005E-7 -3.6403163580527805E-7 -3.2196221805567336E-7 -3.062023271683067E-7 -4.737798392465006E-6 -6.465440603613535E-6 -9.552238805970149E-6 4.663744053726331E-5 1.0890636230968613E-5 1.4958079980853657E-5 6.993202607065932E-6 2.364602841306774E-6 2.0522439748682203E-6 1.6798182436660353E-6 1.6816713795507078E-6 1.1966360168294889E-6 1.124870147802313E-6 9.13627902196133E-7 8.108172754350339E-7 7.777658520347132E-7 7.487434213531142E-7 7.577000318612864E-7 6.99114676129883E-7 6.34990786283691E-7 5.796928381558463E-7 5.477651183172656E-7 5.564576352108585E-7 5.080865789692295E-7 2.784411250859165E-7 2.763536735624738E-7 2.7828452616980727E-7 2.770838367023033E-7 2.790953793108549E-7 2.711053847629285E-7 2.727159426194748E-7 2.747840060320585E-7 2.694173096310761E-7 2.7422534083467614E-7 2.7876227320598357E-7 2.8016442850308845E-7 3.2524788767759347E-7 3.373666073519943E-7 3.2550218477066417E-7 3.319358832647886E-7 3.45958572498819E-7 0:400.0 1:400.0 2:400.0 3:400.0 4:400.0 5:400.0 6:400.0 7:363.0 8:400.0 9:373.0 10:389.0 11:400.0 12:400.0 13:389.0 14:376.0 15:400.0 16:400.0 17:186.0 18:63.0 19:109.0 20:248.0 21:114.0 22:34.0 23:217.0 24:61.0 25:10.0 26:25.0 27:356.0 28:400.0 29:275.0 30:134.0 31:189.0 32:0.0 33:0.0 34:5.0 35:171.0 36:153.0 37:57.0 38:30.0 39:29.0 40:0.0 41:0.0 42:0.0 43:0.0 44:0.0 45:0.0 46:0.0 47:0.0 48:0.0 49:0.0 50:0.0 51:0.0 52:0.0 53:0.0 54:0.0 55:0.0 56:0.0 57:0.0 58:0.0 59:0.0 60:0.0 61:0.0 62:0.0 63:0.0 
-4.0955508393012336E-7 -4.0822391571645747E-7 -4.482163343030494E-7 -4.7020123202126813E-7 -4.6595109004598007E-7 -4.049421570499316E-7 -3.6101565255564783E-7 -3.202366677069021E-7 -3.0426761188414525E-7 -3.687920768710205E-6 -4.662254619711547E-6 -6.058237840359375E-6 -4.663744053726331E-5 1.7877893984088673E-5 2.7119747243955686E-5 9.550733496332518E-6 2.6203253395941642E-6 2.2041020543333196E-6 1.765862522305051E-6 1.7697752473924573E-6 1.24260031512344E-6 1.1607007614777345E-6 9.291223649509028E-7 8.203125801086504E-7 7.85095126050948E-7 7.554912884299531E-7 7.648508215836313E-7 7.034839691831812E-7 6.378653453498659E-7 5.813968699336713E-7 5.498390621065214E-7 5.578175055405224E-7 5.087682390233888E-7 2.763614636600566E-7 2.736550504202589E-7 2.7518617376603426E-7 2.7385713256793916E-7 2.75295264494743E-7 2.669771076474391E-7 2.679784030845386E-7 2.7047948981076715E-7 2.6472737977339866E-7 2.6966607250242024E-7 2.7373126925357313E-7 2.740140802135118E-7 3.1536350058531467E-7 3.267392452552152E-7 3.1556850929223034E-7 3.2163845200559265E-7 3.3490050022413215E-7 0:400.0 1:400.0 2:400.0 3:400.0 4:400.0 5:400.0 6:400.0 7:384.0 8:400.0 9:367.0 10:373.0 11:400.0 12:400.0 13:375.0 14:358.0 15:400.0 16:400.0 17:186.0 18:10.0 19:147.0 20:259.0 21:93.0 22:14.0 23:231.0 24:58.0 25:10.0 26:43.0 27:388.0 28:400.0 29:334.0 30:256.0 31:296.0 32:0.0 33:0.0 34:4.0 35:118.0 36:110.0 37:38.0 38:32.0 39:24.0 40:0.0 41:0.0 42:0.0 43:0.0 44:0.0 45:0.0 46:0.0 47:0.0 48:0.0 49:0.0 50:0.0 51:0.0 52:0.0 53:0.0 54:0.0 55:0.0 56:0.0 57:0.0 58:0.0 59:0.0 60:0.0 61:0.0 62:0.0 63:0.0 
-3.7703438327354823E-7 -3.747170885981084E-7 -4.360221438205961E-7 -4.5928443485050293E-7 -5.378703775419754E-7 -4.5773514025805734E-7 -4.0126301546748544E-7 -3.527740653207043E-7 -3.3192943777625864E-7 -2.089556293168927E-6 -2.4224013991790483E-6 -2.9066936795399285E-6 -1.0890636230968613E-5 -1.7877893984088673E-5 2.375579047392802E-4 8.067118425298483E-5 5.1082175896364485E-6 3.861965624643975E-6 2.8862985962486776E-6 2.837865641251215E-6 1.7076240290022866E-6 1.5884450155786745E-6 1.2303323681375905E-6 1.055623438007194E-6 1.0037228078944806E-6 9.568508126055525E-7 9.701104131166688E-7 8.794266490019167E-7 7.81631045134503E-7 7.006694546304267E-7 6.544314168963721E-7 6.668529409214974E-7 5.984313319495606E-7 2.967970699006071E-7 2.8949555255220005E-7 2.9092631374686473E-7 2.8885346261644046E-7 2.8782424300425187E-7 2.7641906290897066E-7 2.7520931044105596E-7 2.7771829977524256E-7 2.6837143357847276E-7 2.7001652771166123E-7 2.716064270772052E-7 2.681713942378281E-7 3.02655743619109E-7 3.1259363156120354E-7 3.032043239362228E-7 3.085740699654675E-7 3.197677718533692E-7 0:400.0 1:400.0 2:400.0 3:400.0 4:400.0 5:400.0 6:400.0 7:379.0 8:400.0 9:383.0 10:400.0 11:400.0 12:400.0 13:400.0 14:400.0 15:400.0 16:400.0 17:224.0 18:75.0 19:260.0 20:324.0 21:158.0 22:91.0 23:312.0 24:163.0 25:18.0 26:113.0 27:371.0 28:400.0 29:348.0 30:367.0 31:395.0 32:0.0 33:0.0 34:50.0 35:222.0 36:168.0 37:64.0 38:82.0 39:129.0 40:0.0 41:0.0 42:0.0 43:0.0 44:0.0 45:0.0 46:0.0 47:0.0 48:0.0 49:0.0 50:0.0 51:0.0 52:0.0 53:0.0 54:0.0 55:0.0 56:0.0 57:0.0 58:0.0 59:0.0 60:0.0 61:0.0 62:0.0 63:0.0 
-3.8495733036710877E-7 -3.8263737016396586E-7 -4.411182170354562E-7 -4.646966471904557E-7 -5.244161609328314E-7 -4.4809432206241684E-7 -3.9418692541096453E-7 -3.469480368986176E-7 -3.271408835486411E-7 -2.339613636204117E-6 -2.7578903242175866E-6 -3.3339000963497127E-6 -1.4958079980853657E-5 -2.7119747243955686E-5 -2.375579047392802E-4 3.9513978069742173E-5 4.360423920413543E-6 3.391658554949956E-6 2.583158324356858E-6 2.5565247624988497E-6 1.6008695923625714E-6 1.4896158876472113E-6 1.163288476929663E-6 1.0048251704685902E-6 9.569730559451233E-7 9.140655028479996E-7 9.264689396655633E-7 8.426665677937894E-7 7.522555442173928E-7 6.766147071679209E-7 6.334749044165553E-7 6.450953241233074E-7 5.808388241963514E-7 2.9322907671253843E-7 2.872490161721196E-7 2.8870693935999446E-7 2.867501501495474E-7 2.8644488385089626E-7 2.756054707685948E-7 2.748193852647617E-7 2.773081641048707E-7 2.6847969212896746E-7 2.710022326518937E-7 2.7324804624231336E-7 2.7028882523286735E-7 3.0630099432960285E-7 3.1658533589387553E-7 3.0677260342723284E-7 3.1224235127233295E-7 3.239444513012687E-7 0:400.0 1:400.0 2:400.0 3:400.0 4:400.0 5:400.0 6:400.0 7:378.0 8:400.0 9:381.0 10:399.0 11:400.0 12:400.0 13:400.0 14:393.0 15:400.0 16:400.0 17:206.0 18:74.0 19:205.0 20:310.0 21:157.0 22:47.0 23:297.0 24:166.0 25:19.0 26:108.0 27:370.0 28:400.0 29:344.0 30:334.0 31:386.0 32:0.0 33:0.0 34:40.0 35:212.0 36:164.0 37:65.0 38:66.0 39:98.0 40:0.0 41:0.0 42:0.0 43:0.0 44:0.0 45:0.0 46:0.0 47:0.0 48:0.0 49:0.0 50:0.0 51:0.0 52:0.0 53:0.0 54:0.0 55:0.0 56:0.0 57:0.0 58:0.0 59:0.0 60:0.0 61:0.0 62:0.0 63:0.0 
-3.629522975424863E-7 -3.6133955800945264E-7 -4.3244168902210016E-7 -4.5658493644109393E-7 -5.648361269186777E-7 -4.779572108806959E-7 -4.1659463051180734E-7 -3.648358776683412E-7 -3.420580366450195E-7 -1.7241156364357357E-6 -1.9677466644234353E-6 -2.299239066830832E-6 -6.993202607065932E-6 -9.550733496332518E-6 -8.067118425298483E-5 -3.9513978069742173E-5 7.2761669152690366E-6 5.186466434485852E-6 3.658654822381455E-6 3.573502479117345E-6 1.9611650104628153E-6 1.813975045145304E-6 1.3678627486518004E-6 1.1564831578466514E-6 1.0958687938210533E-6 1.039417842854574E-6 1.0546893333466927E-6 9.499314861915584E-7 8.374241503075859E-7 7.461726009151807E-7 6.933552988292002E-7 7.08001693540051E-7 6.318314804348644E-7 3.0448226824674695E-7 2.9444877202347995E-7 2.9590416847599734E-7 2.9348501421494666E-7 2.910178363376802E-7 2.784619045318422E-7 2.7634042376803987E-7 2.7857706179758536E-7 2.6803737405928935E-7 2.6782875779147333E-7 2.685550743347018E-7 2.629513049681625E-7 2.9479750212180504E-7 3.0409061170411314E-7 2.954254259074509E-7 3.0062466799763227E-7 3.109081986025609E-7 0:400.0 1:400.0 2:400.0 3:400.0 4:400.0 5:400.0 6:400.0 7:361.0 8:400.0 9:393.0 10:400.0 11:400.0 12:400.0 13:400.0 14:400.0 15:400.0 16:400.0 17:251.0 18:86.0 19:293.0 20:379.0 21:182.0 22:173.0 23:350.0 24:245.0 25:27.0 26:143.0 27:399.0 28:400.0 29:367.0 30:378.0 31:398.0 32:0.0 33:0.0 34:49.0 35:212.0 36:193.0 37:71.0 38:93.0 39:157.0 40:0.0 41:0.0 42:0.0 43:0.0 44:0.0 45:0.0 46:0.0 47:0.0 48:0.0 49:0.0 50:0.0 51:0.0 52:0.0 53:0.0 54:0.0 55:0.0 56:0.0 57:0.0 58:0.0 59:0.0 60:0.0 61:0.0 62:0.0 63:0.0 
-3.2526428536346493E-7 -3.2364282001640223E-7 -4.1882071395110644E-7 -4.450679351696243E-7 -6.644778765413394E-7 -5.484559456875047E-7 -4.6943904850338135E-7 -4.062592360498196E-7 -3.770426995201566E-7 -1.0691956708267288E-6 -1.1673862630156272E-6 -1.2858966074832754E-6 -2.364602841306774E-6 -2.6203253395941642E-6 -5.1082175896364485E-6 -4.360423920413543E-6 -7.2761669152690366E-6 1.9269864821898276E-5 1.1720237920829793E-5 8.882217356740937E-6 3.1754902957016562E-6 2.9294286003043676E-6 2.0872011780163447E-6 1.6483901409785668E-6 1.5459845370626603E-6 1.4377152978658554E-6 1.4659070336418335E-6 1.2769508456926213E-6 1.0925785509349194E-6 9.433842116161728E-7 8.632753183543555E-7 8.810363101494502E-7 7.640753179603926E-7 3.318285461811595E-7 3.1522626389576476E-7 3.1677402402319164E-7 3.1311997755556E-7 3.0602494256294357E-7 2.894775350235251E-7 2.8527968249512457E-7 2.8719894012103137E-7 2.7242886405608985E-7 2.6830475664087813E-7 2.6760227558271063E-7 2.570462481465359E-7 2.772390868298958E-7 2.843260030772603E-7 2.785654215070891E-7 2.817403779321778E-7 2.892331373827033E-7 0:400.0 1:400.0 2:400.0 3:400.0 4:400.0 5:400.0 6:400.0 7:355.0 8:400.0 9:400.0 10:400.0 11:400.0 12:400.0 13:400.0 14:400.0 15:400.0 16:400.0 17:249.0 18:140.0 19:398.0 20:385.0 21:295.0 22:357.0 23:400.0 24:400.0 25:52.0 26:363.0 27:400.0 28:390.0 29:400.0 30:397.0 31:400.0 32:325.0 33:11.0 34:160.0 35:243.0 36:137.0 37:134.0 38:175.0 39:221.0 40:11.0 41:0.0 42:0.0 43:0.0 44:0.0 45:0.0 46:0.0 47:0.0 48:0.0 49:0.0 50:0.0 51:0.0 52:0.0 53:0.0 54:0.0 55:0.0 56:0.0 57:0.0 58:0.0 59:0.0 60:0.0 61:0.0 62:0.0 63:0.0 
-3.254459871126644E-7 -3.24447000365814E-7 -4.470818298343964E-7 -4.815117543038122E-7 -8.007620051240761E-7 -6.412829763738526E-7 -5.363795400169979E-7 -4.559464536484835E-7 -4.1945059522136714E-7 -9.892840749006758E-7 -1.0726747896752907E-6 -1.1716695001540745E-6 -2.0522439748682203E-6 -2.2041020543333196E-6 -3.861965624643975E-6 -3.391658554949956E-6 -5.186466434485852E-6 -1.9269864821898276E-5 6.983240223463687E-5 5.846243788365975E-5 6.718330629205255E-6 5.883218120311811E-6 3.5900326333966376E-6 2.6008816988959256E-6 2.369665438785025E-6 2.146823399086956E-6 2.184317040512528E-6 1.8377893599347217E-6 1.4934434100689448E-6 1.2365983652169612E-6 1.099588039341061E-6 1.1324188296338154E-6 9.492502347021205E-7 3.6432181857793534E-7 3.437779964205835E-7 3.456976714841942E-7 3.411114126156986E-7 3.320010132670925E-7 3.124187711195089E-7 3.0496512190142093E-7 3.067642279166184E-7 2.8940908886349484E-7 2.821127139031493E-7 2.7919317082336437E-7 2.6653048735632676E-7 2.8320007589762035E-7 2.9012080630374487E-7 2.84867699606441E-7 2.878887091343777E-7 2.942879878706263E-7 0:400.0 1:400.0 2:400.0 3:400.0 4:400.0 5:400.0 6:400.0 7:333.0 8:400.0 9:400.0 10:400.0 11:400.0 12:400.0 13:400.0 14:400.0 15:400.0 16:400.0 17:323.0 18:179.0 19:385.0 20:398.0 21:320.0 22:381.0 23:399.0 24:400.0 25:169.0 26:315.0 27:400.0 28:400.0 29:379.0 30:395.0 31:400.0 32:349.0 33:124.0 34:104.0 35:222.0 36:194.0 37:138.0 38:207.0 39:253.0 40:15.0 41:0.0 42:0.0 43:129.0 44:99.0 45:0.0 46:0.0 47:0.0 48:0.0 49:0.0 50:0.0 51:124.0 52:119.0 53:0.0 54:0.0 55:0.0 56:0.0 57:0.0 58:0.0 59:0.0 60:0.0 61:0.0 62:0.0 63:0.0 
-3.1524196475815504E-7 -3.149103930349379E-7 -4.3891104414303933E-7 -4.729502042553695E-7 -8.563913125952468E-7 -6.780906864922301E-7 -5.631088790726498E-7 -4.7626282278117484E-7 -4.364410848179604E-7 -8.779492510214939E-7 -9.426287843010832E-7 -1.0205268776163757E-6 -1.6798182436660353E-6 -1.765862522305051E-6 -2.8862985962486776E-6 -2.583158324356858E-6 -3.658654822381455E-6 -1.1720237920829793E-5 -6.983240223463687E-5 8.664009703690868E-5 7.971779899156985E-6 7.711051478979673E-6 4.745859237815007E-6 3.173968380926989E-6 2.890812564049566E-6 2.551069216885527E-6 2.5914523535570274E-6 2.136889116823728E-6 1.7055372826186137E-6 1.3823744492965787E-6 1.2146026822071031E-6 1.25235521051778E-6 1.030733377105144E-6 3.7707276901125486E-7 3.546042704992296E-7 3.566266400813394E-7 3.515401236472077E-7 3.412420733731881E-7 3.200747694661473E-7 3.1145492273971325E-7 3.133733814068992E-7 2.9358371326735624E-7 2.8442676700484533E-7 2.809681318920605E-7 2.671306904847514E-7 2.808949707019523E-7 2.870798012948447E-7 2.82823626237265E-7 2.852469289959066E-7 2.905475019016334E-7 0:400.0 1:400.0 2:400.0 3:400.0 4:400.0 5:400.0 6:400.0 7:326.0 8:400.0 9:400.0 10:400.0 11:400.0 12:400.0 13:400.0 14:400.0 15:400.0 16:400.0 17:336.0 18:230.0 19:397.0 20:395.0 21:325.0 22:399.0 23:400.0 24:400.0 25:217.0 26:361.0 27:400.0 28:400.0 29:393.0 30:396.0 31:400.0 32:383.0 33:125.0 34:155.0 35:252.0 36:202.0 37:207.0 38:241.0 39:300.0 40:15.0 41:0.0 42:0.0 43:181.0 44:71.0 45:0.0 46:0.0 47:0.0 48:0.0 49:0.0 50:0.0 51:190.0 52:116.0 53:0.0 54:0.0 55:0.0 56:0.0 57:0.0 58:0.0 59:0.0 60:0.0 61:0.0 62:0.0 63:0.0 
-3.152621396809894E-7 -3.145093708853329E-7 -4.43343966199456E-7 -4.80906913493743E-7 -8.829994785888079E-7 -6.912321351054682E-7 -5.711532755497564E-7 -4.812917099428129E-7 -4.4060433290300976E-7 -8.785176946641471E-7 -9.44231782464105E-7 -1.020732089469209E-6 -1.6816713795507078E-6 -1.7697752473924573E-6 -2.837865641251215E-6 -2.5565247624988497E-6 -3.573502479117345E-6 -8.882217356740937E-6 -5.846243788365975E-5 -8.664009703690868E-5 1.0131660933835188E-5 8.817797843166647E-6 5.06621543574519E-6 3.4687775334216715E-6 3.1011646423814464E-6 2.76098561664543E-6 2.804820926207966E-6 2.2982113021435416E-6 1.8017384974762149E-6 1.44617551653774E-6 1.2616298617695243E-6 1.3065055484024378E-6 1.0690545068130843E-6 3.800215092174217E-7 3.570984749038334E-7 3.5916676184585855E-7 3.537622169570612E-7 3.4301210592625447E-7 3.21559021032854E-7 3.114753919645267E-7 3.132309537960851E-7 2.935385559223972E-7 2.83530814908674E-7 2.789638779438186E-7 2.649902324600315E-7 2.788664802630157E-7 2.8522020283149503E-7 2.805942818533084E-7 2.832006373147142E-7 2.8870985669886264E-7 0:400.0 1:400.0 2:400.0 3:400.0 4:400.0 5:400.0 6:400.0 7:348.0 8:400.0 9:400.0 10:400.0 11:400.0 12:400.0 13:400.0 14:400.0 15:400.0 16:400.0 17:365.0 18:222.0 19:383.0 20:400.0 21:355.0 22:398.0 23:400.0 24:400.0 25:300.0 26:325.0 27:400.0 28:400.0 29:397.0 30:399.0 31:400.0 32:364.0 33:172.0 34:131.0 35:247.0 36:216.0 37:153.0 38:221.0 39:266.0 40:37.0 41:10.0 42:0.0 43:168.0 44:116.0 45:0.0 46:0.0 47:0.0 48:0.0 49:0.0 50:0.0 51:175.0 52:155.0 53:0.0 54:0.0 55:0.0 56:0.0 57:0.0 58:0.0 59:0.0 60:0.0 61:0.0 62:0.0 63:0.0 
-2.950253707067539E-7 -2.95460253209437E-7 -4.380008676797189E-7 -4.88897862880772E-7 -1.0754075794726202E-6 -8.008492205134325E-7 -6.454057117114675E-7 -5.32883011662944E-7 -4.834216584988549E-7 -7.220047183008341E-7 -7.672921760367748E-7 -8.165448313732855E-7 -1.1966360168294889E-6 -1.24260031512344E-6 -1.7076240290022866E-6 -1.6008695923625714E-6 -1.9611650104628153E-6 -3.1754902957016562E-6 -6.718330629205255E-6 -7.971779899156985E-6 -1.0131660933835188E-5 8.797009016934242E-5 1.6228102204587683E-5 8.095101249478878E-6 6.60022440762986E-6 5.4584854886163285E-6 5.492498620009721E-6 4.006113328939962E-6 2.7845380172975503E-6 2.035327173754863E-6 1.697599763694113E-6 1.7733955204029155E-6 1.3670549330519023E-6 4.1143298199013836E-7 3.8467981848498084E-7 3.8706378637020676E-7 3.803196738986988E-7 3.6687924261449156E-7 3.4122617921369546E-7 3.257964664766839E-7 3.2752489762390513E-7 3.038265126306758E-7 2.9004599839488546E-7 2.840388621971258E-7 2.6604890111827006E-7 2.7205413659674967E-7 2.7553010269695753E-7 2.736714142271369E-7 2.738501579567711E-7 2.769140750855284E-7 0:400.0 1:400.0 2:400.0 3:400.0 4:400.0 5:400.0 6:400.0 7:362.0 8:400.0 9:400.0 10:400.0 11:400.0 12:400.0 13:400.0 14:400.0 15:400.0 16:400.0 17:360.0 18:232.0 19:397.0 20:400.0 21:393.0 22:400.0 23:400.0 24:400.0 25:388.0 26:389.0 27:400.0 28:400.0 29:395.0 30:400.0 31:400.0 32:379.0 33:261.0 34:123.0 35:243.0 36:199.0 37:169.0 38:210.0 39:252.0 40:28.0 41:90.0 42:304.0 43:394.0 44:260.0 45:8.0 46:0.0 47:0.0 48:0.0 49:0.0 50:7.0 51:211.0 52:203.0 53:9.0 54:0.0 55:0.0 56:0.0 57:0.0 58:0.0 59:0.0 60:0.0 61:0.0 62:0.0 63:0.0 
-2.940511828429368E-7 -2.954734792607904E-7 -4.366583410476307E-7 -4.877329077050826E-7 -1.1301663435332729E-6 -8.364148249509234E-7 -6.693146987197014E-7 -5.501394328392531E-7 -4.976218651066553E-7 -6.905815041555742E-7 -7.316284439579928E-7 -7.769983620874527E-7 -1.124870147802313E-6 -1.1607007614777345E-6 -1.5884450155786745E-6 -1.4896158876472113E-6 -1.813975045145304E-6 -2.9294286003043676E-6 -5.883218120311811E-6 -7.711051478979673E-6 -8.817797843166647E-6 -8.797009016934242E-5 2.9791163940775167E-5 1.0860475471616148E-5 8.664047236385532E-6 6.740065985245996E-6 6.6444741230955274E-6 4.661678670489243E-6 3.1475888682372086E-6 2.235211283346558E-6 1.8329067242932541E-6 1.921216668091569E-6 1.455972837370746E-6 4.2170783237957077E-7 3.9360517543573075E-7 3.9611051166387014E-7 3.8902399908501556E-7 3.749771732645775E-7 3.480804581017293E-7 3.3175148695163345E-7 3.336120662146557E-7 3.0844791016516304E-7 2.9406104030856414E-7 2.8805871327917543E-7 2.694069302777559E-7 2.751698933317667E-7 2.782151938881686E-7 2.7711389755293186E-7 2.772569582832249E-7 2.7957826178366457E-7 0:400.0 1:400.0 2:400.0 3:400.0 4:400.0 5:400.0 6:400.0 7:339.0 8:400.0 9:400.0 10:400.0 11:400.0 12:400.0 13:400.0 14:400.0 15:400.0 16:400.0 17:368.0 18:249.0 19:400.0 20:400.0 21:389.0 22:400.0 23:400.0 24:400.0 25:383.0 26:388.0 27:400.0 28:400.0 29:397.0 30:400.0 31:400.0 32:389.0 33:237.0 34:151.0 35:266.0 36:206.0 37:204.0 38:240.0 39:298.0 40:53.0 41:97.0 42:345.0 43:395.0 44:193.0 45:0.0 46:0.0 47:2.0 48:0.0 49:0.0 50:6.0 51:302.0 52:211.0 53:11.0 54:0.0 55:0.0 56:0.0 57:0.0 58:0.0 59:16.0 60:0.0 61:0.0 62:0.0 63:0.0 
-2.807461615331997E-7 -2.8137013185707805E-7 -4.218085124332277E-7 -4.7434786063185506E-7 -1.295513829934013E-6 -9.270916578438444E-7 -7.302417574874426E-7 -5.932422587817651E-7 -5.327571032504576E-7 -5.962510121360931E-7 -6.267470574225654E-7 -6.607149464292321E-7 -9.13627902196133E-7 -9.291223649509028E-7 -1.2303323681375905E-6 -1.163288476929663E-6 -1.3678627486518004E-6 -2.0872011780163447E-6 -3.5900326333966376E-6 -4.745859237815007E-6 -5.06621543574519E-6 -1.6228102204587683E-5 -2.9791163940775167E-5 2.862704683384862E-5 2.266982532899584E-5 1.404405620431293E-5 1.3375242426268977E-5 7.874449772822123E-6 4.696257786982443E-6 3.0012545243911956E-6 2.338992525749384E-6 2.4612082809813823E-6 1.7542259302660108E-6 4.467877967955486E-7 4.1530222581227923E-7 4.181103669211147E-7 4.100489044825931E-7 3.9414909320088875E-7 3.6420147188382846E-7 3.452453926570793E-7 3.470680300193022E-7 3.180157344644941E-7 3.0107264657157285E-7 2.937000315286984E-7 2.7253028288370835E-7 2.72912692091304E-7 2.7486444372796445E-7 2.7491027272336153E-7 2.7417515432976717E-7 2.75199161633274E-7 0:400.0 1:400.0 2:400.0 3:400.0 4:400.0 5:400.0 6:400.0 7:343.0 8:400.0 9:400.0 10:400.0 11:400.0 12:400.0 13:400.0 14:400.0 15:400.0 16:400.0 17:382.0 18:307.0 19:400.0 20:400.0 21:400.0 22:400.0 23:400.0 24:400.0 25:400.0 26:400.0 27:400.0 28:400.0 29:398.0 30:400.0 31:400.0 32:400.0 33:262.0 34:287.0 35:350.0 36:210.0 37:277.0 38:309.0 39:345.0 40:56.0 41:168.0 42:360.0 43:400.0 44:281.0 45:3.0 46:9.0 47:9.0 48:0.0 49:0.0 50:34.0 51:391.0 52:261.0 53:10.0 54:0.0 55:0.0 56:0.0 57:0.0 58:1.0 59:16.0 60:0.0 61:0.0 62:0.0 63:0.0 
-2.7938708619804047E-7 -2.7969301454109996E-7 -4.282937718376287E-7 -4.867325231994973E-7 -1.6321480945895108E-6 -1.092110809931219E-6 -8.324582116383485E-7 -6.584236416226456E-7 -5.847388994629173E-7 -5.48590588489582E-7 -5.740818135474122E-7 -6.03242549351273E-7 -8.108172754350339E-7 -8.203125801086504E-7 -1.055623438007194E-6 -1.0048251704685902E-6 -1.1564831578466514E-6 -1.6483901409785668E-6 -2.6008816988959256E-6 -3.173968380926989E-6 -3.4687775334216715E-6 -8.095101249478878E-6 -1.0860475471616148E-5 -2.862704683384862E-5 2.3784040908550363E-4 1.1375917183322905E-4 9.186954524575104E-5 2.796107817917459E-5 1.0376942433911849E-5 5.018518332647469E-6 3.4855411041148555E-6 3.800236754749821E-6 2.3941143093818156E-6 4.827354493880846E-7 4.4607569369231124E-7 4.4934328478928047E-7 4.399457546884469E-7 4.2158604887447064E-7 3.872761205156814E-7 3.646956386960307E-7 3.6669789099208463E-7 3.3300615478625586E-7 3.128521052678507E-7 3.040358786659696E-7 2.8012059751964417E-7 2.7672809430782764E-7 2.779873493517057E-7 2.78520537895574E-7 2.777461070064094E-7 2.7787572897224047E-7 0:398.0 1:400.0 2:400.0 3:400.0 4:400.0 5:400.0 6:400.0 7:343.0 8:400.0 9:400.0 10:400.0 11:400.0 12:400.0 13:400.0 14:400.0 15:400.0 16:400.0 17:398.0 18:347.0 19:400.0 20:400.0 21:400.0 22:400.0 23:400.0 24:400.0 25:400.0 26:400.0 27:400.0 28:400.0 29:400.0 30:400.0 31:400.0 32:400.0 33:322.0 34:324.0 35:379.0 36:232.0 37:246.0 38:297.0 39:349.0 40:250.0 41:219.0 42:391.0 43:400.0 44:339.0 45:61.0 46:11.0 47:12.0 48:0.0 49:25.0 50:91.0 51:398.0 52:316.0 53:85.0 54:0.0 55:0.0 56:0.0 57:0.0 58:1.0 59:24.0 60:3.0 61:0.0 62:0.0 63:0.0 
-2.763252281617409E-7 -2.7679638083196136E-7 -4.227392276004751E-7 -4.815997588148408E-7 -1.7157249624256233E-6 -1.1318881762395166E-6 -8.597254724621334E-7 -6.766263814596252E-7 -5.990439857032163E-7 -5.316472318590667E-7 -5.555714510720724E-7 -5.827368293463936E-7 -7.777658520347132E-7 -7.85095126050948E-7 -1.0037228078944806E-6 -9.569730559451233E-7 -1.0958687938210533E-6 -1.5459845370626603E-6 -2.369665438785025E-6 -2.890812564049566E-6 -3.1011646423814464E-6 -6.60022440762986E-6 -8.664047236385532E-6 -2.266982532899584E-5 -2.3784040908550363E-4 1.8450184501845018E-4 1.0312999535915021E-4 3.4043132649066365E-5 1.2730906822492966E-5 5.681672911772142E-6 3.850433751362091E-6 4.190570378534222E-6 2.567641300510319E-6 4.924241771407341E-7 4.5432624213362505E-7 4.5772047422587454E-7 4.479636468541305E-7 4.2893059667034045E-7 3.9343382551249183E-7 3.700335028333465E-7 3.7207599428937764E-7 3.3704782506408965E-7 3.1598332113637715E-7 3.069628694643467E-7 2.8202980801243866E-7 2.7748264415431477E-7 2.782444168518731E-7 2.793352268537244E-7 2.784110081485334E-7 2.7794458313107074E-7 0:400.0 1:400.0 2:400.0 3:400.0 4:400.0 5:400.0 6:400.0 7:339.0 8:400.0 9:400.0 10:400.0 11:400.0 12:400.0 13:400.0 14:400.0 15:400.0 16:400.0 17:400.0 18:355.0 19:400.0 20:400.0 21:400.0 22:400.0 23:400.0 24:400.0 25:400.0 26:400.0 27:400.0 28:400.0 29:400.0 30:400.0 31:400.0 32:400.0 33:322.0 34:336.0 35:386.0 36:236.0 37:308.0 38:311.0 39:361.0 40:254.0 41:273.0 42:392.0 43:400.0 44:342.0 45:69.0 46:8.0 47:28.0 48:0.0 49:31.0 50:110.0 51:400.0 52:325.0 53:83.0 54:0.0 55:0.0 56:0.0 57:0.0 58:0.0 59:37.0 60:2.0 61:0.0 62:0.0 63:0.0 
-2.7558131812197947E-7 -2.7591732854635165E-7 -4.24065999935966E-7 -4.844998798440298E-7 -1.8174911715366344E-6 -1.174077541951258E-6 -8.841263947093876E-7 -6.908522526101261E-7 -6.102050075253533E-7 -5.182957089520812E-7 -5.409679051856371E-7 -5.670392019717087E-7 -7.487434213531142E-7 -7.554912884299531E-7 -9.568508126055525E-7 -9.140655028479996E-7 -1.039417842854574E-6 -1.4377152978658554E-6 -2.146823399086956E-6 -2.551069216885527E-6 -2.76098561664543E-6 -5.4584854886163285E-6 -6.740065985245996E-6 -1.404405620431293E-5 -1.1375917183322905E-4 -1.8450184501845018E-4 2.6011184809468074E-4 6.212530674370205E-5 1.6560952585992746E-5 6.5064983652422855E-6 4.23547549565652E-6 4.69988861263988E-6 2.7709619810161396E-6 4.999926251087797E-7 4.6075889293460796E-7 4.642502903305253E-7 4.542142910350817E-7 4.346466398880872E-7 3.9818166361493605E-7 3.740213730773431E-7 3.7609622647612125E-7 3.397170700353917E-7 3.176490917777168E-7 3.0824373201783126E-7 2.8290259762579654E-7 2.773050496972245E-7 2.7792380357624013E-7 2.7906924824325907E-7 2.7831779160398717E-7 2.776398447604572E-7 0:397.0 1:400.0 2:400.0 3:400.0 4:400.0 5:400.0 6:400.0 7:353.0 8:400.0 9:400.0 10:400.0 11:400.0 12:400.0 13:400.0 14:400.0 15:400.0 16:400.0 17:400.0 18:379.0 19:400.0 20:400.0 21:400.0 22:400.0 23:400.0 24:400.0 25:400.0 26:400.0 27:400.0 28:400.0 29:400.0 30:400.0 31:400.0 32:400.0 33:338.0 34:355.0 35:395.0 36:226.0 37:255.0 38:300.0 39:364.0 40:305.0 41:297.0 42:395.0 43:400.0 44:364.0 45:76.0 46:6.0 47:19.0 48:0.0 49:54.0 50:126.0 51:400.0 52:345.0 53:116.0 54:0.0 55:0.0 56:0.0 57:0.0 58:0.0 59:49.0 60:12.0 61:0.0 62:0.0 63:0.0 
-2.767696826489626E-7 -2.766598797387169E-7 -4.252698762634768E-7 -4.852337310228121E-7 -1.8314766738552127E-6 -1.1864239875947508E-6 -8.905072373749449E-7 -6.938257831211615E-7 -6.124388785999157E-7 -5.229203848484864E-7 -5.460521250437525E-7 -5.726763513873371E-7 -7.577000318612864E-7 -7.648508215836313E-7 -9.701104131166688E-7 -9.264689396655633E-7 -1.0546893333466927E-6 -1.4659070336418335E-6 -2.184317040512528E-6 -2.5914523535570274E-6 -2.804820926207966E-6 -5.492498620009721E-6 -6.6444741230955274E-6 -1.3375242426268977E-5 -9.186954524575104E-5 -1.0312999535915021E-4 -2.6011184809468074E-4 6.706458319361545E-5 1.6735421356071194E-5 6.647565993711403E-6 4.341775916603168E-6 4.80647913387246E-6 2.812409475570005E-6 5.013850762732047E-7 4.6193963834745713E-7 4.654490209978017E-7 4.5536791108850465E-7 4.357112419600383E-7 3.991154006260524E-7 3.7502983831151065E-7 3.7710056800773056E-7 3.404782118629078E-7 3.184892399206516E-7 3.0885126016719047E-7 2.832965519976656E-7 2.771327128978535E-7 2.779157320592194E-7 2.7856608109755036E-7 2.776191107443454E-7 2.7731912276196536E-7 0:400.0 1:400.0 2:400.0 3:400.0 4:400.0 5:400.0 6:400.0 7:330.0 8:400.0 9:400.0 10:400.0 11:400.0 12:400.0 13:400.0 14:400.0 15:400.0 16:400.0 17:400.0 18:377.0 19:400.0 20:400.0 21:400.0 22:400.0 23:400.0 24:400.0 25:400.0 26:400.0 27:400.0 28:400.0 29:400.0 30:400.0 31:400.0 32:400.0 33:333.0 34:377.0 35:393.0 36:222.0 37:230.0 38:293.0 39:350.0 40:297.0 41:279.0 42:385.0 43:400.0 44:378.0 45:116.0 46:12.0 47:19.0 48:0.0 49:35.0 50:162.0 51:399.0 52:309.0 53:124.0 54:0.0 55:0.0 56:0.0 57:0.0 58:0.0 59:30.0 60:5.0 61:0.0 62:0.0 63:0.0 
-2.707666147471683E-7 -2.709151581772015E-7 -4.161596454985676E-7 -4.7682931394036725E-7 -2.097678394436957E-6 -1.2897085129789817E-6 -9.491894159684983E-7 -7.299579106268733E-7 -6.404549792172359E-7 -4.928220468870896E-7 -5.133259414397766E-7 -5.368006360013935E-7 -6.99114676129883E-7 -7.034839691831812E-7 -8.794266490019167E-7 -8.426665677937894E-7 -9.499314861915584E-7 -1.2769508456926213E-6 -1.8377893599347217E-6 -2.136889116823728E-6 -2.2982113021435416E-6 -4.006113328939962E-6 -4.661678670489243E-6 -7.874449772822123E-6 -2.796107817917459E-5 -3.4043132649066365E-5 -6.212530674370205E-5 -6.706458319361545E-5 4.027142943438778E-5 9.488296186653762E-6 5.704880810777661E-6 6.615441101074017E-6 3.4924127333368258E-6 5.200464921563988E-7 4.777367508072556E-7 4.814912361372654E-7 4.7070796124849636E-7 4.49722588621209E-7 4.107698936886438E-7 3.8492591619585414E-7 3.870883581434391E-7 3.4785784789045955E-7 3.240981038478385E-7 3.1376609522016573E-7 2.8640353628174316E-7 2.770500212428104E-7 2.770219695043135E-7 2.784088765658933E-7 2.7768749077556867E-7 2.762751479453417E-7 0:400.0 1:400.0 2:400.0 3:400.0 4:400.0 5:400.0 6:400.0 7:349.0 8:400.0 9:400.0 10:400.0 11:400.0 12:400.0 13:400.0 14:400.0 15:400.0 16:400.0 17:400.0 18:398.0 19:400.0 20:400.0 21:400.0 22:400.0 23:400.0 24:400.0 25:400.0 26:400.0 27:400.0 28:400.0 29:400.0 30:400.0 31:400.0 32:400.0 33:356.0 34:376.0 35:400.0 36:263.0 37:258.0 38:305.0 39:370.0 40:343.0 41:305.0 42:390.0 43:400.0 44:392.0 45:188.0 46:7.0 47:38.0 48:0.0 49:33.0 50:132.0 51:400.0 52:364.0 53:230.0 54:0.0 55:0.0 56:0.0 57:0.0 58:1.0 59:71.0 60:6.0 61:0.0 62:0.0 63:0.0 
-2.702095826585975E-7 -2.706045034001456E-7 -4.186874441706461E-7 -4.813408229965391E-7 -3.154912514275979E-6 -1.6632888043198937E-6 -1.1654794316189909E-6 -8.55386260358193E-7 -7.351387114856235E-7 -4.5911184354753883E-7 -4.7682794974710237E-7 -4.968352834532239E-7 -6.34990786283691E-7 -6.378653453498659E-7 -7.81631045134503E-7 -7.522555442173928E-7 -8.374241503075859E-7 -1.0925785509349194E-6 -1.4934434100689448E-6 -1.7055372826186137E-6 -1.8017384974762149E-6 -2.7845380172975503E-6 -3.1475888682372086E-6 -4.696257786982443E-6 -1.0376942433911849E-5 -1.2730906822492966E-5 -1.6560952585992746E-5 -1.6735421356071194E-5 -4.027142943438778E-5 2.473686163436445E-5 1.1955573090396089E-5 1.4752308736317233E-5 6.080117711078887E-6 5.809236860885915E-7 5.286307749277824E-7 5.332316638294298E-7 5.200308066249845E-7 4.945264575363731E-7 4.477816115346752E-7 4.1676651697802596E-7 4.1923605966735295E-7 3.731446316054996E-7 3.454102575793373E-7 3.3318717522580094E-7 3.011425498914155E-7 2.8642822853306354E-7 2.8520625189216525E-7 2.8743305324898516E-7 2.856033899979979E-7 2.8305666667091253E-7 0:398.0 1:400.0 2:400.0 3:400.0 4:400.0 5:400.0 6:400.0 7:343.0 8:400.0 9:400.0 10:400.0 11:400.0 12:400.0 13:400.0 14:400.0 15:400.0 16:400.0 17:400.0 18:400.0 19:400.0 20:400.0 21:400.0 22:400.0 23:400.0 24:400.0 25:400.0 26:400.0 27:400.0 28:400.0 29:400.0 30:400.0 31:400.0 32:400.0 33:381.0 34:398.0 35:400.0 36:265.0 37:336.0 38:320.0 39:369.0 40:384.0 41:332.0 42:399.0 43:400.0 44:390.0 45:263.0 46:68.0 47:105.0 48:54.0 49:93.0 50:200.0 51:400.0 52:398.0 53:274.0 54:32.0 55:0.0 56:0.0 57:0.0 58:46.0 59:161.0 60:28.0 61:1.0 62:0.0 63:0.0 
-2.667898524345308E-7 -2.674207575468478E-7 -4.1212895515006644E-7 -4.72189123076331E-7 -5.47104313643961E-6 -2.2768981361311857E-6 -1.5226088379830002E-6 -1.0489360117564749E-6 -8.753700626940039E-7 -4.2913721533719243E-7 -4.4416471937450947E-7 -4.6154115977908795E-7 -5.796928381558463E-7 -5.813968699336713E-7 -7.006694546304267E-7 -6.766147071679209E-7 -7.461726009151807E-7 -9.433842116161728E-7 -1.2365983652169612E-6 -1.3823744492965787E-6 -1.44617551653774E-6 -2.035327173754863E-6 -2.235211283346558E-6 -3.0012545243911956E-6 -5.018518332647469E-6 -5.681672911772142E-6 -6.5064983652422855E-6 -6.647565993711403E-6 -9.488296186653762E-6 -2.473686163436445E-5 6.778052665469211E-5 1.2836146588794044E-4 1.746328344655362E-5 6.669779230307477E-7 5.989587700741032E-7 6.048721239842685E-7 5.8794115061847E-7 5.555469137146755E-7 4.972175704756184E-7 4.5887083359622806E-7 4.6180876175909423E-7 4.0631701056322647E-7 3.732203222197652E-7 3.586708590507812E-7 3.2087205323139015E-7 2.9685477908735264E-7 2.9365470904691426E-7 2.9672899310802405E-7 2.9307400191816934E-7 2.8864718856195104E-7 0:363.0 1:400.0 2:400.0 3:400.0 4:400.0 5:400.0 6:400.0 7:322.0 8:400.0 9:400.0 10:400.0 11:400.0 12:400.0 13:400.0 14:400.0 15:400.0 16:400.0 17:400.0 18:400.0 19:400.0 20:400.0 21:400.0 22:400.0 23:400.0 24:400.0 25:400.0 26:400.0 27:400.0 28:400.0 29:400.0 30:400.0 31:400.0 32:400.0 33:400.0 34:400.0 35:400.0 36:300.0 37:340.0 38:339.0 39:380.0 40:400.0 41:364.0 42:400.0 43:400.0 44:389.0 45:295.0 46:246.0 47:198.0 48:87.0 49:135.0 50:266.0 51:400.0 52:400.0 53:317.0 54:173.0 55:56.0 56:0.0 57:0.0 58:45.0 59:178.0 60:73.0 61:9.0 62:0.0 63:0.0 
-2.605719920025244E-7 -2.611467895658278E-7 -3.9863769553926414E-7 -4.559753517963833E-7 -6.837326331911169E-6 -2.4999593756601456E-6 -1.670140559029448E-6 -1.1144998096991574E-6 -9.187473614724212E-7 -4.1138846693002383E-7 -4.25576555157807E-7 -4.4139421424877903E-7 -5.477651183172656E-7 -5.498390621065214E-7 -6.544314168963721E-7 -6.334749044165553E-7 -6.933552988292002E-7 -8.632753183543555E-7 -1.099588039341061E-6 -1.2146026822071031E-6 -1.2616298617695243E-6 -1.697599763694113E-6 -1.8329067242932541E-6 -2.338992525749384E-6 -3.4855411041148555E-6 -3.850433751362091E-6 -4.23547549565652E-6 -4.341775916603168E-6 -5.704880810777661E-6 -1.1955573090396089E-5 -6.778052665469211E-5 1.124985937675779E-4 2.9221395906082434E-5 6.898999679541464E-7 6.173813215602831E-7 6.236659395761254E-7 6.056821464890726E-7 5.713604979063923E-7 5.098452390269196E-7 4.6960879708767406E-7 4.726775814222585E-7 4.1424299991466594E-7 3.796903625093736E-7 3.6443135407020625E-7 3.244468950999921E-7 2.9640080502458644E-7 2.9217319150272706E-7 2.9555919356082916E-7 2.906832247583042E-7 2.858490839751717E-7 0:400.0 1:400.0 2:400.0 3:400.0 4:400.0 5:400.0 6:400.0 7:338.0 8:400.0 9:400.0 10:400.0 11:400.0 12:400.0 13:400.0 14:400.0 15:400.0 16:400.0 17:400.0 18:400.0 19:400.0 20:400.0 21:400.0 22:400.0 23:400.0 24:400.0 25:400.0 26:400.0 27:400.0 28:400.0 29:400.0 30:400.0 31:400.0 32:400.0 33:399.0 34:400.0 35:400.0 36:257.0 37:360.0 38:344.0 39:377.0 40:395.0 41:372.0 42:400.0 43:400.0 44:393.0 45:389.0 46:295.0 47:274.0 48:94.0 49:177.0 50:271.0 51:400.0 52:400.0 53:337.0 54:232.0 55:68.0 56:0.0 57:0.0 58:90.0 59:202.0 60:73.0 61:5.0 62:0.0 63:0.0 
-2.66392530992773E-7 -2.670867406924277E-7 -4.1193227750971283E-7 -4.72090705619815E-7 -7.220373004469411E-6 -2.5835687610366827E-6 -1.6824933205015175E-6 -1.1255424411102125E-6 -9.288712217582511E-7 -4.1638378593209903E-7 -4.30333243608852E-7 -4.4666197224933835E-7 -5.564576352108585E-7 -5.578175055405224E-7 -6.668529409214974E-7 -6.450953241233074E-7 -7.08001693540051E-7 -8.810363101494502E-7 -1.1324188296338154E-6 -1.25235521051778E-6 -1.3065055484024378E-6 -1.7733955204029155E-6 -1.921216668091569E-6 -2.4612082809813823E-6 -3.800236754749821E-6 -4.190570378534222E-6 -4.69988861263988E-6 -4.80647913387246E-6 -6.615441101074017E-6 -1.4752308736317233E-5 -1.2836146588794044E-4 -1.124985937675779E-4 3.208985158443642E-5 6.98452543467321E-7 6.242144651090643E-7 6.306396925253116E-7 6.122573930080205E-7 5.772080734093228E-7 5.145055845722413E-7 4.736086325592674E-7 4.767562269130797E-7 4.174748283552243E-7 3.8247397169004155E-7 3.67056260181223E-7 3.2694402963420686E-7 2.9984899604559143E-7 2.9609376815887565E-7 2.992180833047081E-7 2.953725460079662E-7 2.904455187378748E-7 0:346.0 1:400.0 2:400.0 3:400.0 4:400.0 5:400.0 6:400.0 7:335.0 8:400.0 9:400.0 10:400.0 11:400.0 12:400.0 13:400.0 14:400.0 15:400.0 16:400.0 17:400.0 18:400.0 19:400.0 20:400.0 21:400.0 22:400.0 23:400.0 24:400.0 25:400.0 26:400.0 27:400.0 28:400.0 29:400.0 30:400.0 31:400.0 32:400.0 33:399.0 34:400.0 35:400.0 36:323.0 37:337.0 38:326.0 39:378.0 40:400.0 41:368.0 42:400.0 43:400.0 44:391.0 45:364.0 46:265.0 47:216.0 48:92.0 49:156.0 50:271.0 51:400.0 52:400.0 53:354.0 54:209.0 55:60.0 56:0.0 57:0.0 58:77.0 59:222.0 60:126.0 61:7.0 62:0.0 63:0.0 
-2.655293160960552E-7 -2.66351909736534E-7 -4.109123528060588E-7 -4.7111621801091433E-7 -1.819323029900574E-5 -3.540198959181506E-6 -2.1046317683642277E-6 -1.3110575908267922E-6 -1.0530627804437817E-6 -3.885332945836128E-7 -4.0048619023494524E-7 -4.1464699028482103E-7 -5.080865789692295E-7 -5.087682390233888E-7 -5.984313319495606E-7 -5.808388241963514E-7 -6.318314804348644E-7 -7.640753179603926E-7 -9.492502347021205E-7 -1.030733377105144E-6 -1.0690545068130843E-6 -1.3670549330519023E-6 -1.455972837370746E-6 -1.7542259302660108E-6 -2.3941143093818156E-6 -2.567641300510319E-6 -2.7709619810161396E-6 -2.812409475570005E-6 -3.4924127333368258E-6 -6.080117711078887E-6 -1.746328344655362E-5 -2.9221395906082434E-5 -3.208985158443642E-5 7.676099313372917E-7 6.788737213413458E-7 6.864803192957261E-7 6.64754610821075E-7 6.236389080831086E-7 5.510807796250006E-7 5.04410184344268E-7 5.079838552571122E-7 4.4097942412056026E-7 4.018936424645645E-7 3.848127491542297E-7 3.4046412750790134E-7 3.0717063743589925E-7 3.0191614098034584E-7 3.0601726335187745E-7 2.9990542482428166E-7 2.9429162534321763E-7 0:329.0 1:398.0 2:400.0 3:400.0 4:400.0 5:400.0 6:400.0 7:307.0 8:400.0 9:400.0 10:400.0 11:400.0 12:400.0 13:400.0 14:400.0 15:400.0 16:400.0 17:400.0 18:400.0 19:400.0 20:400.0 21:400.0 22:400.0 23:400.0 24:400.0 25:400.0 26:400.0 27:400.0 28:400.0 29:400.0 30:400.0 31:400.0 32:400.0 33:400.0 34:400.0 35:400.0 36:358.0 37:318.0 38:320.0 39:378.0 40:400.0 41:389.0 42:400.0 43:400.0 44:400.0 45:393.0 46:344.0 47:353.0 48:215.0 49:166.0 50:280.0 51:400.0 52:400.0 53:383.0 54:255.0 55:76.0 56:0.0 57:0.0 58:137.0 59:324.0 60:151.0 61:17.0 62:0.0 63:0.0 
-3.8148406073760323E-7 -3.900187189484159E-7 -6.427020221333723E-7 -6.906389757271479E-7 -8.674956744496933E-7 -1.3122429644093464E-6 -1.97423426856101E-6 -3.6463878881579907E-6 -6.05004598034945E-6 -2.5387392570074917E-7 -2.549263887306221E-7 -2.5485622158830985E-7 -2.784411250859165E-7 -2.763614636600566E-7 -2.967970699006071E-7 -2.9322907671253843E-7 -3.0448226824674695E-7 -3.318285461811595E-7 -3.6432181857793534E-7 -3.7707276901125486E-7 -3.800215092174217E-7 -4.1143298199013836E-7 -4.2170783237957077E-7 -4.467877967955486E-7 -4.827354493880846E-7 -4.924241771407341E-7 -4.999926251087797E-7 -5.013850762732047E-7 -5.200464921563988E-7 -5.809236860885915E-7 -6.669779230307477E-7 -6.898999679541464E-7 -6.98452543467321E-7 -7.676099313372917E-7 1.4960877305845215E-5 1.391846562834913E-5 1.2420740151905653E-5 7.039576499077815E-6 4.141970169530839E-6 2.8493640931685073E-6 2.8247270960534324E-6 1.6643601409047296E-6 1.2189406308871024E-6 1.0611391222363295E-6 7.93075499201373E-7 6.151553990190117E-7 5.837517373911084E-7 6.048042626604433E-7 5.749827864528306E-7 5.418938104888966E-7 0:0.0 1:0.0 2:1.0 3:176.0 4:127.0 5:1.0 6:0.0 7:0.0 8:85.0 9:122.0 10:232.0 11:400.0 12:400.0 13:275.0 14:87.0 15:15.0 16:400.0 17:389.0 18:400.0 19:400.0 20:400.0 21:396.0 22:385.0 23:311.0 24:400.0 25:400.0 26:400.0 27:400.0 28:316.0 29:283.0 30:235.0 31:365.0 32:400.0 33:400.0 34:400.0 35:400.0 36:400.0 37:400.0 38:399.0 39:400.0 40:400.0 41:400.0 42:400.0 43:400.0 44:400.0 45:400.0 46:400.0 47:400.0 48:400.0 49:400.0 50:400.0 51:400.0 52:400.0 53:400.0 54:400.0 55:400.0 56:345.0 57:400.0 58:400.0 59:400.0 60:400.0 61:400.0 62:400.0 63:380.0 
-4.0671229843084293E-7 -4.158373310894751E-7 -6.968645971181861E-7 -7.519252105108618E-7 -7.573230297010732E-7 -1.091388508115565E-6 -1.5383159901024748E-6 -2.4248185023351003E-6 -3.579328661116321E-6 -2.592183891599017E-7 -2.602013906723526E-7 -2.593638789631773E-7 -2.763536735624738E-7 -2.736550504202589E-7 -2.8949555255220005E-7 -2.872490161721196E-7 -2.9444877202347995E-7 -3.1522626389576476E-7 -3.437779964205835E-7 -3.546042704992296E-7 -3.570984749038334E-7 -3.8467981848498084E-7 -3.9360517543573075E-7 -4.1530222581227923E-7 -4.4607569369231124E-7 -4.5432624213362505E-7 -4.6075889293460796E-7 -4.6193963834745713E-7 -4.777367508072556E-7 -5.286307749277824E-7 -5.989587700741032E-7 -6.173813215602831E-7 -6.242144651090643E-7 -6.788737213413458E-7 -1.4960877305845215E-5 2.9036004645760743E-4 1.2511729746637472E-4 2.6064065472932468E-5 9.071446714322E-6 4.823612548145683E-6 4.675901572271903E-6 2.2449133070603646E-6 1.5061431815015495E-6 1.27368334576236E-6 9.09536582016097E-7 6.850973848805173E-7 6.462068947690844E-7 6.721855339623421E-7 6.35371042392909E-7 5.954192019120101E-7 0:0.0 1:0.0 2:4.0 3:131.0 4:110.0 5:1.0 6:0.0 7:0.0 8:77.0 9:108.0 10:217.0 11:397.0 12:400.0 13:260.0 14:34.0 15:0.0 16:384.0 17:358.0 18:400.0 19:400.0 20:400.0 21:397.0 22:220.0 23:5.0 24:400.0 25:400.0 26:400.0 27:400.0 28:318.0 29:258.0 30:216.0 31:315.0 32:400.0 33:400.0 34:400.0 35:400.0 36:400.0 37:400.0 38:400.0 39:400.0 40:400.0 41:400.0 42:400.0 43:400.0 44:400.0 45:400.0 46:400.0 47:400.0 48:400.0 49:400.0 50:400.0 51:400.0 52:400.0 53:400.0 54:400.0 55:400.0 56:389.0 57:400.0 58:400.0 59:400.0 60:400.0 61:400.0 62:400.0 63:390.0 
-4.0908320159149727E-7 -4.183539404025527E-7 -7.104942126693907E-7 -7.653929125381692E-7 -7.66768557428473E-7 -1.1102549811589729E-6 -1.5721923199977361E-6 -2.4916281294849305E-6 -3.703388229891528E-6 -2.614428297735278E-7 -2.6230877362516756E-7 -2.616166285622047E-7 -2.7828452616980727E-7 -2.7518617376603426E-7 -2.9092631374686473E-7 -2.8870693935999446E-7 -2.9590416847599734E-7 -3.1677402402319164E-7 -3.456976714841942E-7 -3.566266400813394E-7 -3.5916676184585855E-7 -3.8706378637020676E-7 -3.9611051166387014E-7 -4.181103669211147E-7 -4.4934328478928047E-7 -4.5772047422587454E-7 -4.642502903305253E-7 -4.654490209978017E-7 -4.814912361372654E-7 -5.332316638294298E-7 -6.048721239842685E-7 -6.236659395761254E-7 -6.306396925253116E-7 -6.864803192957261E-7 -1.391846562834913E-5 -2.9036004645760743E-4 2.018367140982945E-4 3.047294002925402E-5 9.268957334989387E-6 4.900147249424845E-6 4.726154776842787E-6 2.2642492032673115E-6 1.5108125074124239E-6 1.2787682903827034E-6 9.159790717101696E-7 6.910971824313421E-7 6.516457966239534E-7 6.779952899667206E-7 6.405950872122166E-7 6.000294014406706E-7 0:0.0 1:0.0 2:0.0 3:115.0 4:109.0 5:0.0 6:0.0 7:0.0 8:124.0 9:146.0 10:218.0 11:379.0 12:399.0 13:255.0 14:36.0 15:0.0 16:400.0 17:368.0 18:400.0 19:400.0 20:400.0 21:395.0 22:217.0 23:1.0 24:400.0 25:400.0 26:400.0 27:400.0 28:287.0 29:243.0 30:203.0 31:295.0 32:400.0 33:400.0 34:400.0 35:400.0 36:400.0 37:400.0 38:400.0 39:400.0 40:400.0 41:400.0 42:400.0 43:400.0 44:400.0 45:400.0 46:400.0 47:400.0 48:400.0 49:400.0 50:400.0 51:400.0 52:400.0 53:400.0 54:400.0 55:400.0 56:368.0 57:400.0 58:400.0 59:400.0 60:400.0 61:400.0 62:400.0 63:385.0 
-4.225019466777193E-7 -4.323204497516103E-7 -7.193610635033963E-7 -7.691473463262831E-7 -7.397845007749243E-7 -1.0572383559732118E-6 -1.4703547083698472E-6 -2.249863039587465E-6 -3.2378544034010424E-6 -2.615821719193893E-7 -2.625062919476851E-7 -2.615550783337843E-7 -2.770838367023033E-7 -2.7385713256793916E-7 -2.8885346261644046E-7 -2.867501501495474E-7 -2.9348501421494666E-7 -3.1311997755556E-7 -3.411114126156986E-7 -3.515401236472077E-7 -3.537622169570612E-7 -3.803196738986988E-7 -3.8902399908501556E-7 -4.100489044825931E-7 -4.399457546884469E-7 -4.479636468541305E-7 -4.542142910350817E-7 -4.5536791108850465E-7 -4.7070796124849636E-7 -5.200308066249845E-7 -5.8794115061847E-7 -6.056821464890726E-7 -6.122573930080205E-7 -6.64754610821075E-7 -1.2420740151905653E-5 -1.2511729746637472E-4 -2.018367140982945E-4 5.332053640459623E-5 1.301278506132275E-5 6.139338424891334E-6 5.839313763846472E-6 2.6119685623463838E-6 1.6635834919282928E-6 1.3919802450163628E-6 9.816013550025104E-7 7.300213239228718E-7 6.863293152183574E-7 7.153638698323903E-7 6.740256790303197E-7 6.29354543420586E-7 0:0.0 1:0.0 2:0.0 3:101.0 4:79.0 5:2.0 6:0.0 7:0.0 8:90.0 9:117.0 10:217.0 11:328.0 12:396.0 13:250.0 14:27.0 15:0.0 16:399.0 17:346.0 18:400.0 19:400.0 20:400.0 21:352.0 22:213.0 23:4.0 24:400.0 25:397.0 26:390.0 27:400.0 28:273.0 29:207.0 30:201.0 31:286.0 32:400.0 33:400.0 34:400.0 35:400.0 36:400.0 37:400.0 38:400.0 39:400.0 40:400.0 41:400.0 42:397.0 43:400.0 44:400.0 45:400.0 46:400.0 47:400.0 48:400.0 49:400.0 50:400.0 51:400.0 52:400.0 53:400.0 54:400.0 55:400.0 56:363.0 57:400.0 58:400.0 59:400.0 60:400.0 61:400.0 62:400.0 63:389.0 
-4.462187091919046E-7 -4.56701187948295E-7 -7.577789801204262E-7 -8.037399627948771E-7 -6.902657005247745E-7 -9.609812772017763E-7 -1.2977633697204552E-6 -1.8715131370864659E-6 -2.5717254220201416E-6 -2.663656379803305E-7 -2.669058855149909E-7 -2.658729472946763E-7 -2.790953793108549E-7 -2.75295264494743E-7 -2.8782424300425187E-7 -2.8644488385089626E-7 -2.910178363376802E-7 -3.0602494256294357E-7 -3.320010132670925E-7 -3.412420733731881E-7 -3.4301210592625447E-7 -3.6687924261449156E-7 -3.749771732645775E-7 -3.9414909320088875E-7 -4.2158604887447064E-7 -4.2893059667034045E-7 -4.346466398880872E-7 -4.357112419600383E-7 -4.49722588621209E-7 -4.945264575363731E-7 -5.555469137146755E-7 -5.713604979063923E-7 -5.772080734093228E-7 -6.236389080831086E-7 -7.039576499077815E-6 -2.6064065472932468E-5 -3.047294002925402E-5 -5.332053640459623E-5 3.465844106332097E-5 1.0821515336792611E-5 1.0205175044264947E-5 3.5077811355038313E-6 2.0083406386724067E-6 1.6306789413306178E-6 1.1064921212228508E-6 8.028462505273696E-7 7.507918977541562E-7 7.849592390291153E-7 7.359356262389016E-7 6.834232946196818E-7 0:0.0 1:0.0 2:0.0 3:68.0 4:73.0 5:6.0 6:0.0 7:0.0 8:77.0 9:111.0 10:203.0 11:311.0 12:389.0 13:242.0 14:26.0 15:0.0 16:386.0 17:322.0 18:398.0 19:400.0 20:398.0 21:256.0 22:76.0 23:0.0 24:400.0 25:392.0 26:355.0 27:397.0 28:249.0 29:196.0 30:163.0 31:229.0 32:400.0 33:400.0 34:400.0 35:400.0 36:400.0 37:400.0 38:400.0 39:400.0 40:400.0 41:400.0 42:393.0 43:400.0 44:400.0 45:400.0 46:400.0 47:400.0 48:400.0 49:400.0 50:400.0 51:400.0 52:400.0 53:400.0 54:400.0 55:400.0 56:372.0 57:400.0 58:400.0 59:400.0 60:400.0 61:400.0 62:400.0 63:397.0 
-4.792906881248303E-7 -4.916871679728746E-7 -7.624909358889997E-7 -8.015424883646089E-7 -6.027700296713547E-7 -8.048471112427483E-7 -1.0326210141474242E-6 -1.358439099137527E-6 -1.740450150026803E-6 -2.639613792826744E-7 -2.6437471414484034E-7 -2.616787898088672E-7 -2.711053847629285E-7 -2.669771076474391E-7 -2.7641906290897066E-7 -2.756054707685948E-7 -2.784619045318422E-7 -2.894775350235251E-7 -3.124187711195089E-7 -3.200747694661473E-7 -3.21559021032854E-7 -3.4122617921369546E-7 -3.480804581017293E-7 -3.6420147188382846E-7 -3.872761205156814E-7 -3.9343382551249183E-7 -3.9818166361493605E-7 -3.991154006260524E-7 -4.107698936886438E-7 -4.477816115346752E-7 -4.972175704756184E-7 -5.098452390269196E-7 -5.145055845722413E-7 -5.510807796250006E-7 -4.141970169530839E-6 -9.071446714322E-6 -9.268957334989387E-6 -1.301278506132275E-5 -3.465844106332097E-5 2.7109454422229752E-5 2.119250209275958E-5 5.58059070552618E-6 2.5910864036627596E-6 2.017693151243252E-6 1.296981534873888E-6 9.081781900099491E-7 8.436447816773851E-7 8.853400524741049E-7 8.247290043582804E-7 7.598876582086105E-7 0:0.0 1:0.0 2:0.0 3:10.0 4:14.0 5:0.0 6:0.0 7:0.0 8:0.0 9:20.0 10:127.0 11:256.0 12:371.0 13:173.0 14:0.0 15:0.0 16:335.0 17:303.0 18:385.0 19:400.0 20:399.0 21:204.0 22:0.0 23:0.0 24:400.0 25:393.0 26:318.0 27:395.0 28:266.0 29:148.0 30:139.0 31:158.0 32:400.0 33:400.0 34:400.0 35:400.0 36:400.0 37:400.0 38:398.0 39:399.0 40:400.0 41:400.0 42:373.0 43:400.0 44:400.0 45:400.0 46:400.0 47:400.0 48:400.0 49:400.0 50:400.0 51:400.0 52:400.0 53:400.0 54:400.0 55:400.0 56:356.0 57:400.0 58:400.0 59:400.0 60:400.0 61:400.0 62:400.0 63:383.0 
-5.362465103758337E-7 -5.480923645252698E-7 -8.255467079880312E-7 -8.462964796605335E-7 -5.488480228847672E-7 -7.128831167535018E-7 -8.933564653100751E-7 -1.1305841671862643E-6 -1.4101717095582144E-6 -2.7158049937950645E-7 -2.710883342692658E-7 -2.6689901115250865E-7 -2.727159426194748E-7 -2.679784030845386E-7 -2.7520931044105596E-7 -2.748193852647617E-7 -2.7634042376803987E-7 -2.8527968249512457E-7 -3.0496512190142093E-7 -3.1145492273971325E-7 -3.114753919645267E-7 -3.257964664766839E-7 -3.3175148695163345E-7 -3.452453926570793E-7 -3.646956386960307E-7 -3.700335028333465E-7 -3.740213730773431E-7 -3.7502983831151065E-7 -3.8492591619585414E-7 -4.1676651697802596E-7 -4.5887083359622806E-7 -4.6960879708767406E-7 -4.736086325592674E-7 -5.04410184344268E-7 -2.8493640931685073E-6 -4.823612548145683E-6 -4.900147249424845E-6 -6.139338424891334E-6 -1.0821515336792611E-5 -2.7109454422229752E-5 1.325556733828208E-4 1.2192742879438159E-5 4.021733447550564E-6 2.8891713856465967E-6 1.6926989661841064E-6 1.1123742738976928E-6 1.022806017167799E-6 1.0772808999173726E-6 9.904873594003193E-7 9.041513657884493E-7 0:0.0 1:0.0 2:0.0 3:12.0 4:7.0 5:0.0 6:0.0 7:0.0 8:0.0 9:27.0 10:75.0 11:277.0 12:345.0 13:72.0 14:0.0 15:0.0 16:271.0 17:166.0 18:380.0 19:400.0 20:367.0 21:103.0 22:0.0 23:0.0 24:400.0 25:333.0 26:291.0 27:370.0 28:204.0 29:107.0 30:96.0 31:129.0 32:400.0 33:328.0 34:398.0 35:400.0 36:400.0 37:400.0 38:386.0 39:389.0 40:400.0 41:397.0 42:302.0 43:400.0 44:400.0 45:400.0 46:400.0 47:400.0 48:400.0 49:400.0 50:400.0 51:400.0 52:400.0 53:400.0 54:400.0 55:400.0 56:398.0 57:400.0 58:400.0 59:400.0 60:400.0 61:400.0 62:400.0 63:394.0 
-5.409967323797364E-7 -5.519851317284918E-7 -8.184253741329294E-7 -8.360225391676559E-7 -5.52750347541781E-7 -7.178835930217407E-7 -8.982538842743591E-7 -1.14025670599222E-6 -1.4183019096726063E-6 -2.7389114826261945E-7 -2.7269500794974124E-7 -2.686699774867992E-7 -2.747840060320585E-7 -2.7047948981076715E-7 -2.7771829977524256E-7 -2.773081641048707E-7 -2.7857706179758536E-7 -2.8719894012103137E-7 -3.067642279166184E-7 -3.133733814068992E-7 -3.132309537960851E-7 -3.2752489762390513E-7 -3.336120662146557E-7 -3.470680300193022E-7 -3.6669789099208463E-7 -3.7207599428937764E-7 -3.7609622647612125E-7 -3.7710056800773056E-7 -3.870883581434391E-7 -4.1923605966735295E-7 -4.6180876175909423E-7 -4.726775814222585E-7 -4.767562269130797E-7 -5.079838552571122E-7 -2.8247270960534324E-6 -4.675901572271903E-6 -4.726154776842787E-6 -5.839313763846472E-6 -1.0205175044264947E-5 -2.119250209275958E-5 -1.325556733828208E-4 1.193588045022141E-5 4.159785687841363E-6 3.0108057819514236E-6 1.741315407071656E-6 1.127599115962293E-6 1.0362860750613092E-6 1.091431390439934E-6 1.0028048451518898E-6 9.150533132936658E-7 0:0.0 1:0.0 2:0.0 3:6.0 4:13.0 5:0.0 6:0.0 7:0.0 8:0.0 9:27.0 10:99.0 11:284.0 12:338.0 13:63.0 14:0.0 15:0.0 16:296.0 17:164.0 18:383.0 19:399.0 20:316.0 21:50.0 22:0.0 23:0.0 24:400.0 25:332.0 26:285.0 27:328.0 28:202.0 29:182.0 30:118.0 31:140.0 32:400.0 33:320.0 34:393.0 35:400.0 36:400.0 37:400.0 38:380.0 39:392.0 40:400.0 41:396.0 42:307.0 43:400.0 44:400.0 45:400.0 46:400.0 47:400.0 48:400.0 49:400.0 50:400.0 51:400.0 52:400.0 53:400.0 54:400.0 55:400.0 56:394.0 57:400.0 58:400.0 59:400.0 60:400.0 61:400.0 62:400.0 63:395.0 
-6.438515716094937E-7 -6.550362791843226E-7 -8.324166345145742E-7 -8.313892680947717E-7 -4.7448976928883947E-7 -5.929972363363801E-7 -7.126725291108912E-7 -8.54315682459404E-7 -1.0109051391890013E-6 -2.783873300358354E-7 -2.762077286513177E-7 -2.6885959305143136E-7 -2.694173096310761E-7 -2.6472737977339866E-7 -2.6837143357847276E-7 -2.6847969212896746E-7 -2.6803737405928935E-7 -2.7242886405608985E-7 -2.8940908886349484E-7 -2.9358371326735624E-7 -2.935385559223972E-7 -3.038265126306758E-7 -3.0844791016516304E-7 -3.180157344644941E-7 -3.3300615478625586E-7 -3.3704782506408965E-7 -3.397170700353917E-7 -3.404782118629078E-7 -3.4785784789045955E-7 -3.731446316054996E-7 -4.0631701056322647E-7 -4.1424299991466594E-7 -4.174748283552243E-7 -4.4097942412056026E-7 -1.6643601409047296E-6 -2.2449133070603646E-6 -2.2642492032673115E-6 -2.6119685623463838E-6 -3.5077811355038313E-6 -5.58059070552618E-6 -1.2192742879438159E-5 -1.193588045022141E-5 1.41753490679708E-5 6.50140105192669E-6 2.9729299860123642E-6 1.6103526350200168E-6 1.4454428439377043E-6 1.539629288060021E-6 1.378053939787311E-6 1.2264784431082642E-6 0:0.0 1:0.0 2:0.0 3:0.0 4:0.0 5:0.0 6:0.0 7:0.0 8:0.0 9:0.0 10:0.0 11:146.0 12:240.0 13:5.0 14:0.0 15:0.0 16:88.0 17:71.0 18:199.0 19:364.0 20:300.0 21:11.0 22:0.0 23:0.0 24:400.0 25:310.0 26:178.0 27:247.0 28:176.0 29:88.0 30:90.0 31:83.0 32:400.0 33:341.0 34:370.0 35:400.0 36:400.0 37:398.0 38:392.0 39:386.0 40:400.0 41:374.0 42:268.0 43:400.0 44:399.0 45:373.0 46:400.0 47:400.0 48:400.0 49:400.0 50:400.0 51:400.0 52:400.0 53:400.0 54:400.0 55:400.0 56:390.0 57:400.0 58:400.0 59:400.0 60:400.0 61:400.0 62:400.0 63:385.0 
-7.504313103956498E-7 -7.565641396163463E-7 -8.041005913757799E-7 -7.853102996587042E-7 -4.296208080823703E-7 -5.246982001539989E-7 -6.158367342916985E-7 -7.181160942383751E-7 -8.249576074909451E-7 -2.904288166957071E-7 -2.866566078862959E-7 -2.7660042040497896E-7 -2.7422534083467614E-7 -2.6966607250242024E-7 -2.7001652771166123E-7 -2.710022326518937E-7 -2.6782875779147333E-7 -2.6830475664087813E-7 -2.821127139031493E-7 -2.8442676700484533E-7 -2.83530814908674E-7 -2.9004599839488546E-7 -2.9406104030856414E-7 -3.0107264657157285E-7 -3.128521052678507E-7 -3.1598332113637715E-7 -3.176490917777168E-7 -3.184892399206516E-7 -3.240981038478385E-7 -3.454102575793373E-7 -3.732203222197652E-7 -3.796903625093736E-7 -3.8247397169004155E-7 -4.018936424645645E-7 -1.2189406308871024E-6 -1.5061431815015495E-6 -1.5108125074124239E-6 -1.6635834919282928E-6 -2.0083406386724067E-6 -2.5910864036627596E-6 -4.021733447550564E-6 -4.159785687841363E-6 -1.41753490679708E-5 2.3623349318466372E-5 6.448638208826251E-6 2.3626028322882755E-6 2.0498755213089685E-6 2.216174528176443E-6 1.894944288637914E-6 1.6431625950466863E-6 0:0.0 1:0.0 2:0.0 3:0.0 4:0.0 5:0.0 6:0.0 7:0.0 8:0.0 9:0.0 10:0.0 11:156.0 12:192.0 13:8.0 14:0.0 15:0.0 16:6.0 17:1.0 18:0.0 19:185.0 20:199.0 21:10.0 22:0.0 23:0.0 24:339.0 25:190.0 26:116.0 27:150.0 28:122.0 29:105.0 30:88.0 31:127.0 32:400.0 33:268.0 34:387.0 35:400.0 36:400.0 37:393.0 38:398.0 39:392.0 40:400.0 41:327.0 42:247.0 43:400.0 44:397.0 45:362.0 46:400.0 47:400.0 48:400.0 49:400.0 50:400.0 51:400.0 52:400.0 53:400.0 54:400.0 55:400.0 56:400.0 57:400.0 58:400.0 59:400.0 60:400.0 61:400.0 62:400.0 63:375.0 
-8.211576187414445E-7 -8.375251466925295E-7 -7.887278175230871E-7 -7.650219714310196E-7 -4.101936401116875E-7 -4.95709264533514E-7 -5.752250568034743E-7 -6.624703585918927E-7 -7.513692765854174E-7 -2.985609808564192E-7 -2.940103765082181E-7 -2.8297320512572005E-7 -2.7876227320598357E-7 -2.7373126925357313E-7 -2.716064270772052E-7 -2.7324804624231336E-7 -2.685550743347018E-7 -2.6760227558271063E-7 -2.7919317082336437E-7 -2.809681318920605E-7 -2.789638779438186E-7 -2.840388621971258E-7 -2.8805871327917543E-7 -2.937000315286984E-7 -3.040358786659696E-7 -3.069628694643467E-7 -3.0824373201783126E-7 -3.0885126016719047E-7 -3.1376609522016573E-7 -3.3318717522580094E-7 -3.586708590507812E-7 -3.6443135407020625E-7 -3.67056260181223E-7 -3.848127491542297E-7 -1.0611391222363295E-6 -1.27368334576236E-6 -1.2787682903827034E-6 -1.3919802450163628E-6 -1.6306789413306178E-6 -2.017693151243252E-6 -2.8891713856465967E-6 -3.0108057819514236E-6 -6.50140105192669E-6 -2.3623349318466372E-5 1.4966811096393748E-5 3.2413229783868585E-6 2.665355311853235E-6 2.9936534546760866E-6 2.4391612212392403E-6 2.032890129403621E-6 0:0.0 1:0.0 2:0.0 3:0.0 4:0.0 5:0.0 6:0.0 7:0.0 8:0.0 9:0.0 10:0.0 11:82.0 12:132.0 13:0.0 14:0.0 15:0.0 16:6.0 17:0.0 18:0.0 19:73.0 20:75.0 21:0.0 22:0.0 23:0.0 24:283.0 25:78.0 26:182.0 27:243.0 28:161.0 29:138.0 30:79.0 31:88.0 32:395.0 33:168.0 34:329.0 35:400.0 36:400.0 37:397.0 38:393.0 39:384.0 40:400.0 41:336.0 42:256.0 43:397.0 44:384.0 45:343.0 46:400.0 47:400.0 48:400.0 49:400.0 50:400.0 51:400.0 52:400.0 53:400.0 54:400.0 55:400.0 56:380.0 57:400.0 58:400.0 59:400.0 60:400.0 61:400.0 62:400.0 63:372.0 
-9.987879707974373E-7 -1.0112077207731897E-6 -7.36839855962545E-7 -6.927700097091717E-7 -3.606077177624363E-7 -4.2524293065521006E-7 -4.825042743847407E-7 -5.426892968103436E-7 -6.028868634569774E-7 -3.0874403236378446E-7 -3.0266838501597786E-7 -2.896360404552036E-7 -2.8016442850308845E-7 -2.740140802135118E-7 -2.681713942378281E-7 -2.7028882523286735E-7 -2.629513049681625E-7 -2.570462481465359E-7 -2.6653048735632676E-7 -2.671306904847514E-7 -2.649902324600315E-7 -2.6604890111827006E-7 -2.694069302777559E-7 -2.7253028288370835E-7 -2.8012059751964417E-7 -2.8202980801243866E-7 -2.8290259762579654E-7 -2.832965519976656E-7 -2.8640353628174316E-7 -3.011425498914155E-7 -3.2087205323139015E-7 -3.244468950999921E-7 -3.2694402963420686E-7 -3.4046412750790134E-7 -7.93075499201373E-7 -9.09536582016097E-7 -9.159790717101696E-7 -9.816013550025104E-7 -1.1064921212228508E-6 -1.296981534873888E-6 -1.6926989661841064E-6 -1.741315407071656E-6 -2.9729299860123642E-6 -6.448638208826251E-6 -1.4966811096393748E-5 6.154849867824599E-6 4.6222896049329074E-6 5.433291406434647E-6 3.941484717878377E-6 3.1117265414715354E-6 0:0.0 1:0.0 2:0.0 3:0.0 4:0.0 5:0.0 6:0.0 7:0.0 8:0.0 9:0.0 10:0.0 11:0.0 12:0.0 13:0.0 14:0.0 15:0.0 16:0.0 17:0.0 18:0.0 19:0.0 20:0.0 21:0.0 22:0.0 23:0.0 24:64.0 25:0.0 26:120.0 27:160.0 28:107.0 29:63.0 30:69.0 31:63.0 32:386.0 33:112.0 34:292.0 35:400.0 36:399.0 37:358.0 38:358.0 39:364.0 40:400.0 41:284.0 42:190.0 43:394.0 44:336.0 45:263.0 46:388.0 47:400.0 48:400.0 49:400.0 50:400.0 51:400.0 52:400.0 53:389.0 54:400.0 55:400.0 56:390.0 57:400.0 58:400.0 59:400.0 60:400.0 61:400.0 62:400.0 63:396.0 
